encog,BasicNetwork,java,3.2.0,1,1487028677458
[BASIC]
[BASIC:PARAMS]
[BASIC:NETWORK]
beginTraining=0
connectionLimit=0
contextTargetOffset=0,0,0
contextTargetSize=0,0,0
endTraining=2
hasContext=f
inputCount=100
layerCounts=16,59,101
layerFeedCounts=16,58,100
layerContextCount=0,0,0
layerIndex=0,16,75
output=0,0.0041675525,0,0,0,0,0,0,0.0000000001,0.0000118872,0,0,0,0,0,0,1,1,0,0,0,0,0,0,0,1,0,0,0,0,0,1,1,1,1,1,0,1,0,1,1,1,0,0,0,0,1,0,1,1,0,1,0,1,0,0,0,0,1,0,0,0,0,0,1,1,0,1,1,0,0,1,0,0,1,0,1,1,1,1,1,1,1,1,1,0,0,1,1,1,1,1,1,1,1,0,0,1,1,1,1,1,1,1,1,0,0,1,1,1,1,1,1,1,1,0,0,1,1,1,1,1,1,1,1,0,0,1,1,1,1,1,1,1,1,0,0,1,1,1,1,1,1,1,1,0,0,1,1,1,1,1,1,1,1,0,1,1,1,1,1,1,1,1,1,0,1,1,1,1,1,1,1,1,1,1
outputCount=16
weightIndex=0,944,6802
weights=##0
##double#6802
   737.0169697403,-0.4554206233,-1893.0497060271,542.450683402,768.0164633876,-3878.2259795396,-2792.9097888992,509.8060076193,5.9172083871,-54.3865471072,-67.1672312187,-5790.0052048206,23.1622293757,-2520.9925506711,-6234.7848848691,-5.5129431008,-769.2121455084,0.3990655944,1903.4833293656,547.1528352244,924.0442966726,12.2408155171,-1719.5101164052,-0.1372102799,-2997.5072830518,1094.6081330492,-0.0692975029,-252.4428606657,-6245.9474115471,-5475.2509503408,457.382890778,-672.820972483,-2279.345422853,0.0021160306,2402.0423175268,425.3673595626,-228.705987415,-0.4424519506,-1437.518611097,-273.9720142801,-1.0017526548,-1021.8982958101,0.8083976992,-593.4538036743,69.78573219,-7.510376279,16.4430705512,-3.756218068,2.6495309922,-0.7015814034,-118.5923012655,-0.1985796572,21.9648455443,197.9048223209,-720.9799382961,-4452.2406771476,-3872.3724351769,-169.2934432317,-0.4654365925,-4.5487518152,1.6099926398,-9294.5040449571,2.8243599167,-0.4378214612,-84.8212128637,-0.6395249358,1.5648140279,-33.5285487443,1.6959317407,-7684.2793126624,-1.1631053228,-0.4044030768,-134.2646917011,-0.9072312806,1.7710191841,-0.6620533998,1.4234913194,1.6559274069,3.4008195492,28.1343470368,-0.4710476114,-0.6476403242,-2.060053669,0.9583524995,-0.8999068732,-5828.6375808704,0.5962631805,3.6977444185,-14451.5042720561,-0.2294170322,-35.5653746072,1.3589260001,-3.1062140598,1.1855984617,0.4036177778,-11846.5685643406,1.3160701885,-9302.945745007,-5427.597542031,0.9394665368,-6094.1974376394,1.8751646245,1.067465741,-6209.835084971,-1.5229995314,-7926.6501970513,-337.3582007242,1.1162752958,-4.0769847189,0.0437342884,-3.6558658924,-0.7869659151,-2.558266204,-4693.3040874853,-0.2793915375,-29.0120963084,-61.0982815037,-3.2851857841,-7.6155095603,15.0486261861,-3772.7431510372,6.4212672755,-10.9573566512,-106.6084414165,-11.5354220306,-2260.227762515,-111.1031118148,-1.8986593987,-194.0190358696,-30.1911613111,19.4472252865,-34.8491341814,-146.2656945976,-78.6051534746,4.369933245,8.5358645652,-7.5202193153,7.1576969083,-76.9003816902,4.8428905082,10.2662144078,-0.1814120562,0.4740582136,7.7948780432,-39.3156320921,-25.9236668585,0.116187062,-10.4007291475,7.9906446652,-40.4812234953,0.4544505034,0.38228524,7.121034361,-8.2145885963,-78.894328373,0.6763911802,-70.8795671617,-1.5577168933,-55.8538319958,-5.9800312989,-0.6234683046,1.5898408329,7.3390590302,1.1694611091,8.0555272994,-31.2611711674,2.0324832111,1.4421281222,13.5167863009,0.0773952898,-44.3067976063,26.5754122483,-12.5201675958,-2271.2960412388,-1736.2796149654,-588.0706220555,-0.341419287,4.4319330861,1.1517635388,-2.8839369221,3.6991639085,-0.0822089717,-38.8445489886,-0.6278615526,1.6585669661,-28.3831977661,-8.0365468907,350.6138585898,16.9318151774,2.9416272154,-8.8785907461,-36.3728447916,-1.9900872613,1.3526230985,4.0216858832,-1.1229471746,2.6919671227,-105.407376835,2.4135396465,-8.6583458083,-2.1353329554,-16.384346135,-0.2090881636,13.4358636878,3.2193830775,2.4241602297,-4103.8233236171,-0.3831119234,-54.2904845407,0.9888011552,-1.1239204041,-6.8413260095,0.190438691,-0.8117791493,-2.6758898476,-37.4295392695,-11.5339747455,-188.0747912443,2.4385935602,-1.0596171529,3.5409822036,0.2611630715,5.4447241555,-75.6098677873,-30.9378026487,2.1727700397,-3.6379855581,-4.6979606018,-7.0254516141,3.388599695,-2.8062595019,-461.6763470212,-1.0279881877,-52.055921388,-343.3641368395,-2.9221998887,-9028.5903405781,0.2400384383,-1500.5712677478,-11071.710482375,1939.1934705991,-62.6584330832,-20.3788843662,-7.3389063732,-799.0648525494,1.3067677775,-15964.7259682548,1513.4006484741,0.2309750461,-6196.9662762236,-47.9987714183,0.8748242682,28.9300237071,-0.4270456076,-10.9915236638,-85.6744586297,-35.2186356306,-16.0329383509,4.1831689515,0.1315741159,0.578066528,0.3439396213,-581.1993007044,15.750894509,18.5312647735,-1736.1769857218,1606.3796371638,2195.1390827037,2.2163712607,0.3500182021,35.8894584712,-1523.7657959577,408.1849253871,-0.4697898693,-3430.3560452138,-2520.026864192,-358.3731333492,3953.0431990112,-27.0157979478,-13893.8473087799,-757.1030671316,-7771.2043348978,-6204.7782641641,-1437.2535364185,1.2143013734,4.3213252681,1.876931284,-0.1589383008,3.4404951451,-3885.6993620709,-13810.567322567,15.934695367,-1221.8080517716,-88.5206857438,-1.5457666221,2.4044749115,-29.4431712104,2.1012118068,3.700203868,3.3866096104,5.6828338852,-0.0847669823,2.8696571124,6.4706167673,2.4161446282,0.5908374892,-8.0999495259,0.8659966717,-3.6778164361,4.7209349855,-2.8175135885,0.6934963154,-0.6868317321,-5.2867884791,-3.3500050382,27.7655102602,-0.3811614874,-2.0049780921,0.3051484735,0.9768239334,0.5276528008,-2.894453722,0.262592505,0.7713263133,-0.3192322768,0.6399188029,3.0946938161,7.0827397726,-0.5661321095,2.3092703002,-6.90049766,-0.8923363555,2.2741759446,-0.6934929113,0.3380363343,2.3284972952,4.8753926731,0.2885865862,-6.393400507,-1.512863672,3.2851230944,1.953782862,23.7561596748,1.8871331452,-0.7124317471,-2.364779899,-3.5304881164,-1.7921844823,-3.0450569225,-5.0491584636,-26.0160843327,-2.4223685431,-41.1996183814,-0.2861695806,32.457436006,60.3804256873,296.6181809316,-4440.8978156087,40.2039060319,-66.0985931169,48.5855927905,11.4025442166,-106.0005525395,15.6702098136,-620.986270177,-7.3811001556,-2.0550869286,-6204.343250934,-1179.4056152999,0.8371581799,2.6638372028,-0.0670220998,-98.6252769504,-176.9493336656,9.7038417343,11.5725160154,1.0844128451,-0.5889566434,-5.6769958238,-8505.418314856,-9.9192581751,3.2122658341,-309.5134424994,-1242.3439583447,-124.3840155593,-12.2439684728,27.1671894104,-0.7333994174,102.5574592836,20.5489026837,-2.022827665,0.1104213893,149.1438114506,-0.6952737283,-17.8294219037,-149.3538274434,0.748025041,96.8967746961,70.0882310932,4188.8012892176,-5468.5504089453,-30.848692519,-0.0778763926,2.1785531626,-1.2128912855,-0.2637825153,-12.9923807167,-15485.1141998912,-198.2785721862,-580.0583891317,13.2933222979,-2799.8175850425,-1.8229219072,-25.4956612164,1.0013524015,297.1637892062,1081.3276258052,-1047.8597734428,-794.7275947746,94.3356582368,-1797.312024588,-821.2331884683,-1190.9293867479,-9741.7214562513,-924.2439581807,1076.3204930125,1492.8013844705,-1448.4129153685,210.1709536686,-74.1907983638,-0.2515514347,603.2107692527,854.5563861081,-448.3198946924,-1379.8152053809,53.4563182003,-0.4079328295,-244.1535923241,5.4369449105,957.4806537669,47.8633313592,3.2868126184,-850.1886690773,189.8074399729,-378.2965524601,0.6891277161,-0.6017059375,-3954.7674979694,83.5703921904,-313.0736634924,-0.616691308,1551.2890071897,24.1854021491,-1526.1918274479,-183.1978281527,3.5363186152,-609.6172984017,139.1077812977,572.5189204891,397.6662572137,-13.8998839298,-1181.7017944246,0.2592059421,-65.7021361422,-0.0359890348,-1664.0261288162,-78.4892254332,111.0908346668,-225.182918088,-1189.7074920733,72.4658690774,-2.1013562323,1.3079716867,0.7021059688,3.4152302835,-2.1423356818,-2.8315499972,62.5536754605,4.3212175132,5.6665034395,-52.1315054527,-4.2819648272,10.5700694743,0.8171913328,-0.5599738785,-17.2610699047,0.3283946295,4.3983279125,-2.3152408317,-19.8548530565,3.2972166923,3.9340326594,-48.4677356866,3.6296750825,15.2372287192,-0.5678132269,-0.1243281079,-3.6219277998,17.210344884,0.6209690325,-3.2295285564,6.7436008873,-2.9797332075,-13.4635931456,-6.5706224214,0.290624732,-12.8346108087,-1.6903224232,10.0987310149,1.874234437,1.4889468323,-49.2727115306,-564.1827135978,-37.6068146645,0.697354365,0.6292466156,-1.0108260709,5.3485111745,4.9007872471,-18.295302819,5.003184411,-2.264913938,0.633202554,1.4862482347,1.8733200826,-5.193713108,4.0922806689,-7.0658595139,54.1963913934,-90.5716353747,0.1414128324,-1.0887949192,-3.9400347755,-0.1417838963,-0.4980601827,-1.4211616691,-0.9697596939,-0.9600745565,-2.2539226192,0.3150885061,1.0816561921,1.0221745139,-2.1070210889,0.6324284189,-0.8298674453,1.7234173547,-1.9360116753,-1.368194404,-2.5411428303,-1.336729613,-0.7311002628,7.2459309084,-0.0321600005,1.953895051,3.2916293233,-1.3304502555,1.829687874,5.0845901958,-2.320924601,0.7551445259,-1.481576112,0.5994294491,1.4198742086,0.1610393854,0.1305979995,1.7316137811,2.7306982314,0.174952216,-3.592705264,-1.6512200379,-1.7219110434,-0.3965607673,-3.8211639507,-5.6004422514,1.327216138,1.5146085683,1.1098165378,4.2414306212,-0.4093037982,0.8426748125,0.6221473425,1.3139744345,0.8030408217,0.6155628034,3.1805837953,3.1258530649,2.2599982773,-6.2088822848,-5.1316372338,-2.8104318292,-6204.3276724417,-1.9362822204,-14.3606039839,2.5070179599,-15924.4306292489,4.9957870031,-3.2084376513,-5.0111484417,-149.9721243052,1.5445610336,-9351.3724477821,-4.5778798139,4.6761796281,-4572.296054381,85.7184761728,0.1818060081,-5.5563923792,0.0363246251,-23.5205501516,-11.6455550977,-14.5608829795,1.4757066501,-164.1041317641,-0.2953499039,-0.818902588,0.6709930085,-1890.1471120558,9.5170582139,2.3183555137,-19.0343595699,-3.7399096649,124.1172219541,0.333502515,-0.7374296059,-1129.5238403668,4.9512418861,18.3907256829,0.5698721289,-482.3054608615,741.3733165992,-58.0776174655,469.3759437835,2.7052892383,-8985.1835880865,-725.8308504802,-1.0350439919,-5472.4580786974,-541.4066097857,-0.8310202595,2.6506165829,-15.2787261622,0.6843648066,-1.6901086398,3.4144454731,-8356.0921861922,1.8266626411,-4.6003499798,-27.2909519359,-1.312340311,651.7513344596,-293.4021603217,-4210.6270910231,17.8074002789,-7827.6124307239,-24359.5002329877,-48.6306905451,-1358.7460016213,-9262.8906603276,230.9889658819,-4321.7112478188,-2005.2536347377,-11.5263148406,-2404.2924182116,-1706.7250888122,0.6974730803,509.09030116,-0.48791396,217.0013192839,375.2232215954,-105.0064490269,-12.2029340157,-47.2060496392,0.2368820057,-34904.9642423187,29.3935346017,-1704.5356820216,95.8243546736,0.9036644481,-8454.795309415,4601.832145483,-1583.5517638425,-0.2857948988,0.6645772073,215.9844198226,65.5440210154,-525.0097479131,-0.4137525473,-2305.5933317611,-2145.7334889689,-49.8287744367,-2043.8357335412,2.227008124,-1334.9516608387,1127.0153457245,-1445.0287757107,-2224.6758484126,-46.3167182746,-193.0719716214,-0.5066299668,-30205.8123483895,-0.2472417718,97.1560491431,-45.2867218811,-1739.6951537118,-2041.5876168589,-18470.4461173078,-79.7584248503,0.2664331229,1.8982609845,3.0680083891,1.5815568058,4.4849193251,-5.5473989625,10.3807691624,1.5253458464,16.0301472634,11.5727609725,3.1076598405,-6.3511802737,23.8469780993,-7.1516752938,14.5499210728,-3.6068843791,0.3301170419,-7.0281889945,-1.8859388383,-7.2369871738,-0.4078890611,-11.8390231958,-9.2437437935,-3.653483233,0.0384785103,5.7464794577,15.751644487,-0.1872147198,-8.2520739982,7.625553185,-7.3503506303,1.8627757217,12.75933223,-11.2536369094,-5.8873274338,14.9176397316,-5.1090398759,-7.2168044983,-0.7196802785,16.4720638319,-15.6332721383,21.4906945071,1.819796411,-8.3699544907,9.6893937551,-2.5990938169,-24.9167436201,3.4417133016,-16.280731893,-4.7596370004,-14.1151878052,5.5304979765,-3.5854350252,-12.3924277823,2.0343971543,10.8826332551,4.6912504965,-1.4063057695,-1.8975066987,-0.2214561753,2.1550056462,1.4688588529,-383.6504413073,-1.9292415115,1.6942557742,-12202.1137589106,-0.2053580314,-200.5109799415,-3032.9023576894,1.5946711339,-8655.0403414018,-1.775373914,0.6471910929,-2004.7196277746,-1185.780890755,3.1160403491,0.5047462385,-0.6087541702,2.811030272,-1.2272769709,-7911.3339595192,0.5009966255,-2.8818373954,-1.8625034767,0.6566850997,1.6670501086,-2650.8294457447,-2.1053950359,4.0498526933,-13335.3143012097,-0.1696885736,-27.3745874959,1.3857401115,-2.30377867,-1.1380925119,1.7333061128,-3321.0260711808,-2.098965461,-3715.3727946261,-694.1605302951,-7623.0288386991,-389.2946039072,-1.6730744315,-4.7765519121,-0.3606474164,-2.2616846736,-6051.027964241,-72.2559423063,1.5993391897,-6.3170846702,2.0968340356,-3.3008510736,1.6043831609,5.2598071854,-13548.4772783747,-174.4932041427,-7402.9700524084,-3071.982088586,-6.2718240387,-1.0105234367,-0.0241024333,1932.8900367813,-0.3134355632,-1957.4869745589,-2221.5679251799,1.6297901832,-3047.6171152611,-32.9181343264,5.9544583163,-4164.2357956414,-0.7187020434,-8186.1815645972,-2554.2873276039,-1191.0252511212,-0.6091150304,-1047.5519724206,-0.6117445391,57.3329964808,1044.2601421699,-4027.5038483454,-1.6154080897,2.0690958976,0.3957996021,2.7702904231,3.2266449972,-600.2910774851,-14576.0726936636,-9.408234695,-1885.424788058,-1923.0330758138,-1329.9522109852,0.15807759,-0.8952902419,-2358.4789820378,0.3627106649,1.1170665475,0.1831394363,-4707.4714869115,2871.7955192013,-814.0838018585,608.3008746616,1.2220841742,-1657.6748858839,2.2308258669,-0.4357734741,-116.2069692672,-98.0193561347,0.6492151999,0.4714551546,-54.6038978041,-0.3279339564,-87.4806762971,-1.8192661121,-13769.5332209986,-32.2226029718,-80.8891541044,-1902.4047510374,-1.9462222188,-54.6480742011,-24.1360332084,-20.012879335,-949.2540836355,13.6775486852,-5027.7648636992,-190.9376419301,-467.7316515284,-90.3840376496,43.2566650523,-15114.0616538901,-1535.6294887564,-61.5177164072,-7639.4518711655,-724.7755761742,0.5316750421,3.128958894,-0.4317831536,2.1539392907,3.7884160546,-2641.4091699212,224.2692472012,-72.0337095003,-0.0820555229,190.3941687151,0.7420109117,-249.0423834594,-1.0512851668,-1.5478650505,1380.0971714724,-458.4842434263,1199.3625507935,-0.5169782508,-0.0582125652,-195.9873755034,6.3066385345,309.8239201145,0.0430946274,549.0034605656,43.9076284737,-1573.9489751222,-1224.0464366006,-0.1571827164,-7673.859509548,373.0914709426,38.5292353453,1657.9312523939,-40.5235189516,-1899.1670191344,-0.6370139417,-1170.7710343523,0.5660154766,735.3789558936,4.0706036537,-2705.1155943882,1004.7180490309,1175.4465423651,1183.0434941103,-0.8090927689,-40748.0506851411,-43528.2550735976,-44886.7388793106,-8626.2383702032,-32645.513010247,-25903.101930966,-7127.5142494546,-25424.1474566991,-19363.83816229,784.3571709849,-36119.478110599,-22171.7571380386,-15719.0573566362,-11059.3942925366,-2086.9553556351,-28920.9169335567,-14332.0914910649,-33678.4155496138,-5717.0127186201,-0.8568767387,4395.8724313362,20778.0766447485,1302.4681460143,20363.2474186027,-11676.0427861792,52801.6893301838,15136.7585550848,-4642.8763872053,-1775.0292664528,2498.9067595697,37173.4681051459,35848.0939320718,19719.2370136654,-2756.2016123395,14185.4486759993,14564.2794758135,19275.7451676812,-27.2395520209,1627.3168576071,9850.9785460215,52244.8044450274,10442.1864280287,-25999.3559575403,-35051.3531267831,-9661.3632965492,27880.650581212,20583.4284278497,-1470.4926576893,-632.8685335782,11968.7604420915,-3806.0058172432,-3273.361870898,2799.1099431442,7070.6290530504,2537.625584809,-12142.5945827795,31102.3104528286,8577.1718866265,7463.0918203336,6473.0242161572,-13004.8339976366,3875.5902619503,18697.3822340026,61513.6130725658,24097.9183976158,12198.4148681211,4011.2100249169,1786.780105262,194.4363586282,1720.0961265908,-24795.3543933105,-17111.3378782797,2019.4622197264,24898.7117348329,23801.0119912959,20053.7112163615,-13412.543537009,-6911.3493039556,6909.8904353665,6445.5545699283,-39227.9374835636,-31800.6236376807,6634.6626124151,22426.9732238301,13636.667084351,7834.5649308358,5077.3420086348,6341.1043557943,7265.8432474987,7160.8004250932,-26366.0001071467,-21024.1875407289,-21817.4827641371,-33592.9121624951,-11158.9891706324,-20558.5828361989,22132.5105955742,1.1834507616,5979.539370718,4495.2934087532,8971.1249209876,35915.4775131,49412.3566848006,46760.9229507025,-6832.4010756145,46130.4784235057,41061.8994217986,27246.1160057555,10772.0963099561,12129.3014763292,-52.8918214628,9268.3871779803,-17089.0700919373,-25480.5248278651,1043.966640981,13041.8135704416,18364.2207404322,-3719.0516308217,8265.1543516797,1.975771933,0.551170053,10782.985702291,-1490.927435428,-19968.7710213201,-31021.7705055164,-30796.6265980217,-10535.6426047386,-44125.080194525,5515.5707484119,3215.6649534183,0.5251117107,61322.6306640682,5216.164992506,52128.9546010618,-9346.7470610555,-4314.8643764359,-37281.8794328306,-8454.9839857256,11231.2868246979,2058.7983389822,-0.1133023196,32778.3694737702,-1406.9630058312,16406.5417632235,-15179.2668724062,-30351.0906771114,-29208.5321381589,9175.8982984957,9554.4465548112,1986.8590550113,-1.9761152593,-35975.3501550911,-17543.5158062709,-11875.7692512867,-15991.1926789316,16279.3181187424,22444.4968561549,21872.384930832,15395.8355701281,7522.7480817173,1198.009692394,-60038.592913768,-2060.7936797945,-5069.7387494318,-23491.5521943018,12222.296686405,25801.3132629478,-2119.8322039736,9070.03455548,4693.4514182356,4182.9002468118,-40694.3008727297,-13474.0952804074,1970.7055318988,-23679.3339959552,1514.2323251553,2089.7260830593,-2207.4437099797,10691.5334271744,1787.8741983916,1995.7991156456,40144.7741650772,-2024.5110190764,-9902.8373437636,-22421.1803425655,-926.3579816689,-9953.8517081941,18287.7744182639,1028.6762437937,2576.2655351506,2630.4896122482,26885.1114508589,-6644.8595715007,3024.1260520173,-7875.3836651449,38225.8413663649,17216.0429446452,-3791.4617257348,1797.6507531166,-246.9037312345,0.397703407,-1.9233448968,-84485.4073136082,-91661.7259602831,-56195.136980378,31165.3005188072,-55501.0073119505,-55722.643072004,21063.704670394,5509.656329119,-25106.3330568363,-0.1665382033,-35052.7432871115,23112.8936556101,60197.9604228101,82949.1558801652,106873.9486300465,26408.9059021165,32039.2208118043,11498.2525083769,-9008.0188425592,-0.9355058149,41156.9811641168,19510.2404164581,88902.2135728185,108826.0948801971,103110.1903574688,16628.1604314703,829.412707547,-14040.4895096929,-32764.5225939751,-25937.8840910195,-16889.1942832385,79907.6583724486,36590.9841950866,87570.8272167837,31657.7738169383,-37389.1410131494,-27760.7814448142,-13998.700832318,-35598.9897363378,-22088.9719865941,-47061.9722936252,-20483.3613354339,-10962.0595912507,-44295.0993740813,-45113.5151603025,-35731.9223380283,-21532.221972712,-33019.629371378,-71894.9965307518,-21543.0713928956,-19731.8663614408,-12163.5236689776,-9934.3081052932,-68664.7590769536,-38772.1615985447,-70991.551942487,-85696.8356058227,-56440.3223172426,-74953.653957053,-31246.0113600939,-2828.280903016,-58626.2082066192,-39698.670717501,-8296.9739883826,-30948.8686582527,-66743.5130305178,-50571.6455473345,-13120.9198356323,-45330.4776827626,-0.961043684,-35618.7769509169,-14086.7163281858,-2651.7330302571,58127.8174250735,18296.2029173563,-25674.0765668559,-4583.4442900552,-10544.1506320622,-27892.554119583,0.0038446587,-69470.518892584,-67266.8860941751,25083.1384104601,64519.8246797173,42645.1230546842,5037.1481361159,7093.1431393697,-7005.1505134136,-1524.2913230382,-0.2059291437,-17889.0849178091,4773.7808356737,3939.7716974915,72478.8164292833,42323.3286255592,78948.6878063679,76664.27875946,12078.1451817252,11255.5467838337,163.0987615603,241.0242286631,-12160.8924924325,14513.3259620112,1757.6676230918,-14428.5361857568,-34154.12223849,1879.2689760302,-2101.7827401369,6350.4428954271,-45.5441170684,0.1564471407,-14682.8613468713,-9077.3544193744,-19699.770184707,-17945.056308553,-27841.6085539457,-32603.0757961769,-12253.4948398916,-9929.9846616682,-2.3779732687,-8.6171307808,-5209.2226772978,55345.5785692577,17734.9186933066,-8389.0033736153,-81294.5139219115,-18022.8838231951,-22173.7669746324,-21312.249052206,-6566.6678038495,-4298.4514397738,36333.0283248626,57444.0029968442,19442.3252849757,-38016.3219894851,-48585.6630676652,-11619.7651464008,-6888.664739362,-9616.497866467,-5868.968451678,-0.197750212,68456.1561547893,46082.6991213887,-2895.1797261762,-28125.1959284837,-37534.5619703281,10967.5226843568,-1553.1617307816,-10362.9954658021,-6786.1391748616,-29.2235174689,37793.9093164206,25837.891070378,6808.6295626457,-266.0602606213,1460.8271826847,-3368.5422088493,37357.6758504039,2538.8754687542,-2289.3029563365,-0.0559023569,51446.4682802974,26461.205196665,28606.8612738817,18735.6754293332,8062.6312585324,14675.632519167,35131.0887507977,25829.2427108887,200.9584392723,-0.7920780441,9078.4084172031,832.7034353812,27020.8736532264,16305.9025001513,7756.8299454235,20927.6908286284,-2367.4693408876,10604.8226467931,13617.6386250707,3106.1892586016,-12324.7566566039,4411.7233687908,4109.1414424482,-10651.1823238389,-10561.0116883432,8010.2243249347,2.1238647663,10389.6945767427,8036.7867285131,3440.0991962737,-11840.2960006163,-16347.4269035821,-25626.279308567,-73364.5668788137,-21794.3828309412,-9434.2020956179,13512.9993377431,-0.4087216669,0.3030614346,-0.2752627342,-1.6912774174,-47120.7286966401,-64998.7448322985,-51469.4873535547,7009.2092071124,-5538.7011309795,-20341.0279271085,9050.9035448439,2671.3059984754,5.2657495722,236.6271365288,-36044.7340279078,-19117.0347498212,-343.1130881994,30841.6602540234,40356.6559102591,-1795.5002467842,787.2875124979,-8001.4006048379,-173.4943070118,-0.107828432,10800.4836013045,-5956.7778345971,9781.177053982,62661.1759518507,77095.4526896363,3715.2898900259,-1111.8137955508,-2359.0652856306,-4922.1055742505,0.1060228725,6301.5261695869,14479.1626036534,9454.2779831955,60981.0119816178,47838.6554000137,-3124.2222053345,3870.9674624391,13823.9811203109,-126.8954799038,-9.1441807259,-10626.6838794698,-2154.9697199531,21598.3177439316,33168.8597126421,-12444.0580676356,-3772.6103457189,10964.9577837043,13335.6035765363,4252.0944087659,5483.0122608999,-11815.6794021158,-3198.5336573971,-2586.0528206375,-12027.1985157142,-19389.8877582934,-40010.24700867,-33162.5032098206,-8566.5357177366,-7135.4323103169,1151.6358648335,-9198.6833476332,-19485.6655711082,-14145.0710187525,-8004.0858253284,-3103.8732372711,-28706.8907985453,-34313.3743216765,-27310.2811844654,-11606.3179470355,0.8463941653,-14959.1616155718,-9032.1642112802,-8763.1851535932,16451.6394032455,7560.4137180624,-2422.2674117299,-7835.614800002,-6868.4012289513,-1348.5590525531,-0.2950013072,-25919.3615372163,-38813.2076900069,-167.7511909542,29436.61783724,18945.0950453318,1912.4001533846,1745.5765770932,-764.8769567348,-0.2247338092,3.2075670959,-9159.7784906307,-37618.9040805471,-22335.0083444893,4448.8018354535,-5733.4342964504,2207.0786562234,4608.0710018643,7.4812165234,24.654144585,3.3196379188,17.3119567605,110113.7094070646,26330.1477827172,-49131.4415506495,-104354.0960672722,-110210.8994028901,-104714.4988517369,-88823.5545987551,-57732.4484022493,-25070.9659930615,-3364.6076003942,50403.5260658334,26912.240320929,37531.4374784212,68.3559349319,-15588.6702745314,-35517.9420581095,-47720.5347286413,-28288.7722918485,-1640.8956225303,80.7185603497,6412.6211343427,1711.961228343,642.6489233559,-2049.8760580878,-34489.7724307374,-32836.3977237642,-41173.9983446464,-19374.3724145004,0.2274162223,0.1520115142,-45617.3953457083,-54984.8018759451,-37537.1758549681,-64148.4651072192,-58323.3177110672,-33847.9306805428,-42637.2213820095,-4999.7884446291,-0.5765793307,0.2129807374,-20204.4674437817,-38160.6133975373,-25456.8970946193,-69254.5703482874,-56570.3704978014,-56485.2390917818,-38344.3011852183,-26108.7737186813,-7151.2573723298,0.3103725957,-3325.2764887212,-11322.4765054776,-17570.6255717781,-39389.4676974234,-26336.7116625698,-27001.9021003393,-4116.9657731715,-17082.4153520938,-1938.9907561587,0.0726041458,-10226.3532036226,-28.3344423698,-17267.3254033784,-37935.2975409846,-23544.1502201262,-5156.0822418292,-4259.0090584318,-5352.0275558283,-1.3969806129,-0.4370284523,-1730.8674175055,-39.3362558649,-16488.1819223976,-26588.4062543591,-14194.9288947172,-7645.0931145057,-21795.436875633,-18023.552523694,-1.5986881198,-0.031143452,64597.5486846222,65038.9662531305,56911.9968757318,437.6942191927,-10402.7111840839,-14423.7278038946,-16498.8884715356,-25279.671329258,-225.155165796,-0.1571001154,65660.932815212,29465.3236453463,1275.4069835462,-24132.0745914274,-86178.7937011491,-70766.8700508434,-58739.6036438759,-23681.172544072,-1.7769919245,0.9952037255,10.6824282382,-30801.3098157102,-33804.2900207351,-33832.8981042979,17641.6172112544,-10132.5733043821,-14274.8732524602,4027.6566886552,-6256.3908255926,-5873.808141389,-0.3586640917,-30813.489084478,9669.5944621636,10176.7052348687,22770.5024466247,23570.5021079372,2734.6346840536,5277.1761485021,-2387.3367361588,38.7235844829,0.9395910141,6902.7261958533,25112.4329927104,26033.3159026173,32590.6478164727,24289.6334538831,20526.5788576863,9582.8697123666,1.6341538494,-0.1492547352,-0.0101441636,21148.9955215262,24163.0364708819,18144.210701811,15325.3226074982,3168.2779434559,4539.989962669,-0.1031561509,-4689.1207022427,-3624.6464347572,-1572.0887516589,14768.0368787994,-3190.1333666299,-30720.9269841831,-50347.9646904654,-14762.6793908626,-5460.8575780307,-11324.5241824592,-20285.1507574841,-18115.0232030617,-3980.8433942487,4050.5209451371,1698.8760110287,-11780.814548258,-22516.6497270023,2741.6285013029,-16430.7100973996,-22145.7065154641,-6645.8388067624,-10017.1059010408,2.090977683,-11066.7821622386,-26360.019431282,-8484.7985486992,12136.8271501942,12137.5784468316,-6546.7162102583,-12510.2200641364,2322.6455846695,0.4351658757,-0.3073129833,-18545.8641801625,-7868.2146192021,-1567.1786473047,22595.7664128487,21388.7865091512,-8782.4695203214,-5340.5971630069,4.1339393107,0.7110527842,4.5895459219,-27477.8053274775,-31162.4128695382,14972.8718674321,20531.6524241006,16909.3930674967,-15111.4617456352,-444.1559818092,1317.3638060675,28.3423461876,117.8133581844,-12746.9348084922,-10601.5502109522,-2133.4261369723,4043.0029122237,20760.0117505191,16284.7763938547,29212.8785622649,4670.9070848259,11100.6907623933,1222.1978361314,4172.7477372627,15143.4024784508,16455.9294196559,-3496.3598326121,-9789.7068828061,-32281.4131559586,-17650.0936691086,-9591.3874152071,-17420.5404565025,-1799.376680844,3870.5127098225,6514.1539729328,-13371.3004853068,-8660.3685496875,-1307.384471341,-32236.604938193,-36691.4548744769,-26351.3931003742,-13906.6224915585,-7027.1498956513,-0.7482111643,3637.6741097089,-4170.7996576221,-5698.363222981,11425.8956071533,-18217.3386302503,-39890.4139389179,-12673.6481554777,-13685.0181300353,-3144.2428623645,-0.1630325698,-26740.283105643,-10412.7060698706,-19368.7307708085,-4708.3545764079,-31742.5036077011,-29139.9829360352,-16925.4711479908,-6180.8202977297,-84.1541693327,0.8019535985,-22413.810636299,-10218.0672825384,1528.6848771124,-3710.312073273,-19702.0476824203,-12377.5505628415,-8171.241906162,-8457.8413447658,54.8940736242,-0.5299013299,-10424.086561582,1854.6027498212,9141.8745395244,6423.054832122,4060.0218051464,1477.2020025862,-5276.114113197,-3381.3795936614,-195.8757238725,-0.4624651165,-21885.1743405648,9301.0441378623,8320.4656331439,3170.5756348311,990.8932592006,-16333.1580560982,-1398.4291908762,-1629.5972843801,0.2162846168,-0.1399231914,-28711.2369709971,17046.4419143899,31627.9370574723,7081.1633742007,-1439.6796970158,-8422.0030214438,-12799.1105540948,-13641.5431903581,-2461.40438147,0.1365297395,33164.9114740598,48811.9152811417,-161.8820124428,-7166.9341294026,-14920.7531324016,-11479.9964645293,-15673.7965056827,-19257.6989767521,1741.4822542156,1.3249590931,84287.9777935781,27214.7254639836,27630.6289273135,42231.0562196589,-4146.0619344532,-10278.9998742058,5129.0600041114,-240.2389548876,3534.9772608398,0.8095524083,-1.7358962939,107222.0700759242,30472.5551222732,-43478.705180749,-97531.1208575498,-103499.8394320755,-103902.2923139969,-95867.769366157,-61325.3801853964,-29705.1833690327,-4546.9763895513,71375.1231750142,32793.6972764495,59345.9166721439,-2528.000025104,-12838.3788379445,-22355.3770049247,-42479.0372051309,-20427.872912777,-1447.384544309,-760.4259561698,7688.9887902326,1728.0300687311,468.7833731787,223.0415230739,-27281.5003663822,-15244.1900709564,-29929.3552597126,-20274.4766205487,-1.2691814271,-0.1296463637,-48744.0700360687,-55592.8245679903,-40799.146803432,-57616.0607712318,-46089.3505596215,-36205.664089549,-53055.6108436956,-6013.0004149783,-1180.4148584418,0.1545009982,-25536.8149521225,-37682.5881475505,-21725.4123065973,-69801.4938827464,-46021.6844808633,-54827.3158333278,-34345.7860182333,-25383.3294316786,-13813.4530210587,-7.3486916623,-2184.6054235325,-3427.85036764,-5437.3059076646,-26814.6016185485,-18810.5326353438,-18504.3828075791,-161.2549504841,-12300.4945577801,-7477.0232044099,-154.9250856616,-9666.3711277195,-0.5381109968,-14242.4330123063,-34638.5434120508,-31192.2983907951,-323.7844477829,-2530.0695727057,-5824.3573007661,-1745.500330368,-121.502290151,-3137.3288843473,-3805.2625519873,-18194.1947393375,-36658.1395579035,-20259.7882518864,-6353.1113759691,-26594.7953717512,-24869.5294465521,-232.0463682424,-5.1076488542,44988.6859250988,55767.9472028679,47220.0192148403,418.8304213635,-15913.940421657,-15685.1790385863,-10532.0853153327,-23080.6923986541,-2272.0849551506,-1.1289988526,44699.3110111853,27415.0086021307,-430.1869190595,-19534.8588261325,-78568.4900528654,-61327.6887331953,-45131.4097356846,-22814.5120545546,-2882.1862140365,0.1572601863,0.7499450907,8058.272561894,16214.1343812189,18425.5596673868,5097.5093354629,20521.7083124838,-2374.491396059,-12210.1059615306,-2272.1887042415,-3804.9279436726,-5244.0141678094,4742.8223010833,4197.5825295827,3075.3292816364,-13858.9845957626,12090.1873868188,11978.2605657532,2199.6309255219,2064.070084473,-4407.1761967352,-53.8974445694,-9948.0134094576,-2793.6548653491,-1013.0259721904,-0.915944422,1311.8525286537,2303.4356444929,6205.30768718,0.8503375705,0.0708627443,-0.5517262432,-6528.5596901127,-11568.9387594413,-3591.2260258868,-1423.7390850611,1292.1337831319,2679.6229385755,2445.0181812747,1554.4474332275,-0.8897200607,-0.3352673336,-7627.2010609298,-3837.241373861,-6362.1939689094,-2711.3621652555,-711.186732899,3492.5000513304,-1089.6251123214,74.383085961,-11.6552550839,-0.2274607197,1521.8931951152,2831.3720522095,-2167.2686927361,-1250.6433276777,1418.3862221184,2769.5002673217,25.9452710953,-8.2326525809,-29.8331827987,-52.3179371987,10292.1469445589,0.6323577325,1301.965368411,5549.526126008,10.1086408613,-710.1779221718,-1.0892094148,2.7286673128,-20.0280616965,-23.683926665,4.267942674,-6.7701683071,-76.512155853,888.227916518,1651.9005872389,-0.9514059202,15.1167964429,0.4597253655,0.0732097316,-0.6030622677,-6035.9778793662,2449.0255637717,1312.8061475885,5234.4652665068,145.0355722241,1280.0625870298,0.254223665,2270.630056111,-1.3380119287,-3.2790760821,-4184.1993548804,4649.0064726086,2587.9274470866,5695.0217650391,-607.7133792401,16.0910545356,3385.6595403902,-0.9299646321,-0.6591176676,0.3990268299,-0.906197419,5676.4188436801,-8297.8428242502,-41358.0900756554,-60135.0878349153,-92921.2415546484,-100247.0471669503,-45294.2898440195,-27439.1149721241,-27958.2354966216,-2789.0427137628,-4333.1913191427,7679.8555123124,13239.8807336724,12284.8409491273,2444.4730902957,-46179.2026043659,-25617.3750977675,-34032.4340984682,-12871.4310396425,-6.2700007905,1719.3279703082,5532.9993941319,16214.4161835164,25376.4122224876,-261.9097458893,-5706.0239071926,-21470.2263243003,-26052.0440911982,-8744.6021440264,-2978.6703884693,-5.5527631832,-1591.0422662461,-14.3873733616,6355.3880583676,-4117.057858128,-3809.6649049902,-4249.3316957727,-2779.5322219035,-375.1119477557,-11.5084672269,-3126.1660718922,-11600.3634407394,-32503.6274428745,-46388.7644138689,-55952.3101250443,-26999.7443374668,-8092.4423831249,-2350.2917298365,-27.3660947508,8.2729082864,60.6416894716,-1934.0672399966,-16514.1020730109,-32713.9315306996,-40809.2319566701,-47043.2544576455,-10449.123349131,-718.7811029135,-3844.9900363078,-2.131290335,-716.2379475247,-10838.8051381218,-5136.1787096678,-2180.639904657,-5280.1328795429,-6135.2275879251,-282.4993044073,-5944.7756951781,6.1073527279,0.3943963029,-3010.0247157796,-3012.6005601764,-5268.2088631692,25761.2710783609,1290.5763275026,-3.7678190181,-4213.3473279606,-4817.3558492085,778.3064512018,3559.8582231795,9071.5882498922,10607.6991903985,43690.5697604406,21632.5122962188,-2045.1560111149,-1050.574028297,-480.2600096931,-3103.7720598574,3.6184308295,4458.8219005788,5905.37906486,3398.2908640225,-3552.5259071669,-25444.9200215893
   -68870.1564082946,-27528.6345384467,-6.5412135448,-5755.3613662324,0.1498780304,0.9131996385,1914.5342126094,-194.6661871953,13354.4084331572,3089.0584760997,13087.7808148798,462.4271498748,-8080.0615194058,-5418.0443310636,1166.8579560395,1.9473472683,-0.2648280172,-5538.7073951065,9902.521969189,-1517.1667008918,-3529.6083961214,4382.8940146724,-3686.0231004261,-519.61239481,816.1931489923,37.0577329307,0.0214999754,-14.8354205266,1.9443351511,5.6952632376,2.7472635887,663.5028136458,2847.9673755379,1290.8472935002,286.5228742341,58.5616923798,-0.1761906281,-4948.3312919608,-10380.128324349,-4020.4221399774,-3995.3178326522,-384.3216543861,6149.7686453557,5656.1258460643,3442.9303696656,168.0608024963,-0.8031640741,-1.0549192306,-2689.0929884452,-4322.5151826531,-11195.3179065358,-790.3919117736,1651.7437684721,-1.5064734611,-0.3680181929,4.04897942,0.7642464558,-48.387010234,-178.4120431962,-5665.474210255,-13725.1150850311,-6291.8418317794,-67.490796589,180.7484861687,20.8268559913,13.6039497708,-0.2288195693,-869.2333694915,-4659.4037056011,-7290.9552888678,-11681.9044594552,-11013.6900585378,9.0911933581,-683.8931793905,78.4621744119,84.4250311358,1759.9420480016,-81.0137519293,-4656.8054479589,-11616.0733825903,-4327.5622529305,-1.9232988026,6.4289315784,2170.3091861428,-0.6279840735,1177.7708281915,698.2445044345,-1072.0094356025,-3451.6178322777,-2264.1888420008,2.8066456344,106.4791500824,2703.6413005779,-2.9352054569,2833.3663465951,10.5903099401,416.2636458666,9873.7242550289,11063.8499882858,3415.7115916083,596.9233883203,418.9642978785,2138.8555024994,468.84533649,10.7310208297,-0.3649596383,16.2847326719,0.8756695854,-18275.2803668183,-5490.5115252229,-31475.2773218724,-7966.8162734214,-17235.347612277,-23416.7958654074,36489.9809309076,4667.8926240704,16175.0141071312,17364.2226965196,-13557.0685457662,-17403.1723612337,-21304.8989386347,8906.3623113281,-28575.3040928651,-15851.703236557,54702.2759949663,11046.1424909717,6413.1245383464,14496.7608236849,-60.7783734953,-349.3145978281,16.2491532769,-32500.9602039182,2303.4653737344,9052.5900292784,21856.9537501694,38.8706602014,5397.6198112411,4080.7619446428,-23.0731845953,-2324.0754249335,3730.7609728483,-20717.621431259,15741.1660850581,-16025.7429048776,-3229.7274153728,-1486.6645673953,214.181350214,0.1156767051,-3782.6955884259,-11703.1215586294,2991.9838409539,31192.3717414849,-12846.6712613336,6316.3731759175,-5679.0443158957,-5538.0500942243,-937.9490602475,-0.0968370119,-3556.3403471103,32123.5842651296,5081.3159690334,50055.443934459,-8708.6938726214,-3412.071384089,-10044.1213717005,-7369.0732679224,-1292.5613484133,-0.291213148,-3753.8146147774,18603.7668460481,49435.8542176915,-27070.5026051408,11294.6032873585,-20046.1993410213,-11937.9442590163,-1300.3623158271,-0.4389070622,0.4596276402,11604.0675180693,58074.5180659719,14762.7694051596,-6977.1431526704,-18.612715754,-36050.5348788076,-20678.7371250236,-24065.7904295786,2.2172628259,0.7786270168,47801.0619727084,10197.4388715008,-37004.7798547522,-2969.1689314542,620.2378814106,-7616.4234835079,-2078.2153537303,-2.6408523821,0.9056765532,0.6625577823,35711.6290385204,-25258.5477551981,-7266.7942396871,-11033.845832483,-18714.299758647,-8032.1337697546,-43.2062232127,-0.4203391313,0.5413098914,0.3004473289,-1.0070201364,-2221.1557643978,9286.9518544164,-5426.9584346784,-29810.1128072083,-67806.722827696,-50716.3013632919,-27086.7906708532,-20156.3264791585,-905.4608825412,768.476327613,1802.1186931334,-2945.1404861491,-24643.4966279969,-6005.1076479165,-25129.496509365,-66558.8500614434,-51890.9201777708,-38023.7421077578,-159.2467177461,-91.2177980755,-7637.497186023,2527.7425944893,-4474.1035862649,-7.3993826343,-43680.1129396706,-16267.4187188246,-33779.382563977,-17019.7384675882,-2980.5246063153,-74.7710218231,469.2128621118,1159.4713304874,-16.4745902396,-7278.7205484376,-35290.8385404285,-5528.8904937782,2440.1298934607,11.1426061295,2054.3226131824,7427.8669203803,2564.9111111103,-2481.4152535102,-7534.7795496126,-18849.5345835425,-21742.4161613655,-1500.7498424875,-120.7908322057,-2104.7370295452,2377.5625968371,11795.2446343091,-913.8420084809,-7006.573384311,-2100.4268393232,-13313.6190594916,-25404.7381678513,-16128.7332424947,943.8944303442,-1.1797891471,502.2769428876,47.0081021662,300.4388546611,4901.6942959857,4040.7739788198,-9871.4103119809,-2754.5963319,176.3980819672,6504.537698701,30.7887535889,0.4270218903,1395.860711478,7550.9758629096,-2607.6104525786,-9088.8082889085,-5353.3497858351,-834.3391025571,77.5075135117,-789.4569026224,-2097.9678719476,9050.3240298221,4246.2193260435,4812.2851896721,8567.8705002653,13630.1067439539,-2552.6208131425,-2945.5048710976,6753.7726053061,-1269.4234076235,75.2212063336,4611.8737483016,4959.2707657612,120.3489968114,-1647.004076588,-11375.8354232525,-30400.1503597938,-25858.7637887629,-16757.1669905866,-714.9506992228,-0.5959312482,0.1951310717,1.3018831425,1.7881525921,58040.6414904003,8855.556703608,-40979.45026818,-89612.0034612246,-103604.813018096,-111458.9861599934,-75791.1016647639,-23390.4847894324,-7360.5314437569,-683.6651411891,21485.1206021858,45329.3520059004,27554.8075399465,-4537.652582485,-9839.0729197263,-11383.7533684612,-17555.2059577997,-1257.6577829943,1748.2943036468,188.7319857245,7706.7555559171,10920.9229484232,2018.907623273,-3008.6291750098,-7192.8636759045,-3586.5154790053,-8290.0958989241,-8.5194384759,688.6545749391,358.1642233299,-38138.8610699632,-60380.4946736506,-27900.9062347315,-51133.1367055503,-42962.6123913523,-8879.9680702608,-23964.8914129176,-194.0570829744,29.8139889978,1314.2710604747,-18226.7753637534,-58762.6552000131,-31097.1612264503,-62865.3685393808,-42773.2902249098,-35653.4857564541,-13499.146440714,-12876.4529594425,-15.9041708757,15.336721241,-3872.705520579,-33512.0730868504,-33245.0035187994,-36213.6887742767,-19765.683379823,-25787.4008944613,-6412.1570586741,-7553.4453336387,-0.8582850176,640.526834382,-19139.9717121569,-9827.9411551811,-19853.5561171411,-30980.6168194974,-10363.6560269007,-2998.8440970709,-863.3182141028,-20.3930544903,1665.3031488665,0.0082876297,9268.9190173819,4507.0037820353,-1325.3787474785,-10340.2670404967,-2503.7651911459,-14732.0395401066,-16296.2332344512,-11623.8333507072,16.747110215,-0.3514306271,109017.4537392613,94246.0201070725,66065.7159899196,10710.5536955181,-4762.827635286,-29383.7536777909,-3018.7309605166,-7815.0303680437,411.4883547828,-1.6342223058,89548.7883250621,78424.1831847119,16963.9771096051,-15444.7921356327,-74326.7768740225,-73123.9365210227,-30546.2203317468,-4091.8320517645,-0.3395934789,-0.6639832983,-0.3251235832,-6849.7360027683,9188.1331753379,31446.9247691321,82817.073305258,47524.820167966,11748.088922478,-4282.6455890063,-13029.9850655327,-2729.3465453638,9846.2577811547,-4494.7237921421,-4011.3734622593,-31280.6477125772,11258.6279042899,8452.7576430243,-15819.7064536907,-35987.7388331382,-9645.1443844241,-1603.115998759,680.9288111434,-2105.7315419666,-4425.6387825745,-19590.6769350006,8201.7129145817,-16652.9027812301,-22440.1616797747,-25412.2400112335,-5006.4462625321,54.9574105726,58.3833369188,-1182.4492689662,-2805.4204854149,-24617.4418202728,-3972.2875074952,-43614.2310418998,-20941.5921111601,-20815.265824512,-1672.4750215803,131.6721842545,14.8362567963,-2174.3394989895,-3184.6944978659,-3779.1531684366,-4612.5343927304,18973.4074092374,-3579.7847297601,-12340.4638409633,-2161.0381878248,1983.1475538547,0.732474775,-3600.3231552449,-2948.4837742913,6586.9708898797,23309.9012155427,11863.1654946816,1202.987435131,-2089.2835633997,6309.2003748193,-26.4503956878,2.705932977,-21584.8245130962,4655.8673655648,32466.2928984154,22594.5459051494,9216.3327058447,-13765.2374218951,-1179.8566378141,4741.1587603721,16.3675963124,-1.1596776864,-8291.0736348813,43313.5859217852,60282.0514307207,46653.9735517798,22381.847418365,-2021.1586999075,-13846.8235331485,-2943.1103325898,-0.3314170247,-0.1002845791,12810.8524293372,43671.4591594081,8274.437969932,-9664.4853779359,-1624.8342870153,4064.0413800363,-13545.8145593684,-3971.3204024449,688.6752522263,770.6931745933,46489.864047123,15128.199356262,48751.3684368598,103264.7381205843,100529.7927603897,67369.4841294813,48553.5896310501,45131.1925842342,29743.9955221426,92.346021978,-0.8506447198,-40920.4535224966,-44784.3033275439,-49021.6189813764,31680.009331066,15427.0262372507,-25332.3030596954,13564.8341416944,-7400.4902208842,-17287.3382012554,-19.4220104095,-40768.7681690274,-11309.9783382479,25985.3039867414,35391.390229741,32048.8962885243,17550.0821196444,22540.825725532,1793.8614985736,-7264.2390032379,1.3494371744,9444.6449076665,26176.271572365,28998.261921989,45063.016744032,48217.1384949156,36195.8389291184,13504.1091912871,2658.9550153859,-3559.8087146151,23.3355125713,7006.258704969,36749.2879654691,33355.3289501382,19691.358402246,19312.155481641,15414.4927459883,-1331.2399496022,-1616.4782995755,-4098.0509838804,258.9995123301,1496.7727766102,-7123.492640349,-25483.6355508958,-35813.6846656987,-2413.4480229057,-9727.1701022434,-11922.4003763843,-16444.1784123921,-30321.3880613256,-13408.0153943897,4135.2624328997,2899.7364059013,-10292.807873243,-13536.1671838603,3382.2857252287,-28994.116024711,-37761.3287813273,-23948.0754785848,-30759.5760920041,-3670.2018420545,-1258.3758128926,-29741.7221303037,-16797.6595881734,12752.9826259631,24401.5041472254,-33500.9924994297,-34212.1281066631,-3489.0273569298,-5370.2783623754,0.6734154078,-9038.5962674932,-1353.651186593,3690.3075727172,34440.4043879553,26852.3918392176,-29583.4643257228,-19243.7808150911,-5268.3639994417,2966.1100002867,0.2177230693,-16138.0338316572,-17470.999612498,13015.2628640175,30000.8138999892,28842.9082793475,-29479.5386637336,-2357.9961972371,1.3151487241,634.1677908447,-414.3865030383,-2369.7015155138,2000.9456865753,-5486.8001345389,23392.6975788714,25585.2379165497,14242.4877708047,25008.0829109887,7750.0632555608,7306.4723551034,0.9585250612,4.2125658499,37623.7075879047,43277.2756101876,74236.002536131,54616.3165677682,21904.6748645574,50689.6338730705,34090.1527144087,-6029.941284132,2507.7643184352,-127.5246224158,40815.4205593734,-678.8810034978,-10679.7464538381,-11600.2273448345,-13041.867251534,25730.003345732,10055.1627709927,3236.6416174688,8470.7915870444,-0.2471466221,65028.5964284333,20036.1709951163,22286.4020723774,-41355.1213767096,-35135.2104217585,73412.4982542504,77681.2836866688,6863.0174346915,8422.5024355633,6.1070131123,69758.5699982233,101596.4435533356,135459.3066378408,60965.182852506,79016.3237051542,69311.7016568616,80822.957308431,484.4721360703,-0.6823668901,-0.6757400381,51779.3463916924,101579.0935424713,122061.830453863,51381.0208051901,3711.4137085481,31828.4811183285,25677.4503372494,6938.2058272978,12420.9254380752,-648.1196961091,39395.9822067939,93698.1291358652,74357.68249165,22923.0485243971,-49905.0499300645,-47778.1497506958,-24093.6111140863,-3465.8558212452,21232.7602620497,-0.3486198179,111411.4643642519,77982.6939106754,24502.4642955647,33364.7054902655,22376.2951441694,-9373.2567120986,39754.8242790742,-3405.3840830506,15341.0380651129,-1627.3759113412,104068.0321956701,-6740.521207589,-16453.739095863,18210.3419960834,6061.6822100588,25760.1210143277,19964.3853392688,16607.7205214265,18801.4413368731,-18.7366893056,79285.3713487955,-20880.3629600521,-1458.064583367,-5575.735126111,-5660.9430010069,-4466.9064156514,37458.8589725042,-2749.1140051455,-5466.5127154321,-17.7910895828,-884.162056108,28957.5962755799,50859.8820964519,39532.4563126406,23381.8407844554,-34849.8564262861,9282.1464137654,2537.9087435846,-703.8409543928,-17.9140046539,-3.717336497,2597.0418084232,4892.3704114129,-4591.5463019274,-1608.7028020738,531.3425519034,11871.9134525721,2350.1518106725,-9930.9434629555,-1223.7480362057,32.4802566502,-1617.3157736116,-18053.6715031326,-9373.1289097434,317.7029412149,-3377.6572999957,-9726.4808595567,-3669.3428434194,-7922.9524025417,-9870.0409090266,-59.1279641046,3292.466963766,1050.338218089,-3314.9682882098,8.9817341777,-928.6311855532,-6740.3266405413,-5.2939985738,-6728.835911052,-4454.6819553652,-408.4466203856,4955.0469294747,6792.8170819923,192.0834612376,1192.4620782349,-3254.8455002301,5519.4206319976,-901.3897313422,758.8168145805,-1653.5009298647,1023.8358252291,6526.2254291557,8550.6593419693,7102.581578106,21838.4646002609,14119.5607483681,8618.1244441135,10148.1885005783,8819.1885605046,9657.6593760041,10332.7967951158,-5523.0649761366,-1759.95313133,-971.6515838103,4425.3061225166,2155.5540930915,12012.559612911,4527.1719436903,3.7906920961,-2836.3180589433,-7.9015958792,-15285.5420884801,-3869.9052418842,-19.3867401047,1711.9277090825,-1255.9630625643,3226.9034728987,-1157.114491269,-4219.6799626036,-3842.223005913,-0.2911380658,-11349.741849133,-44.103833671,1.2762188965,-766.1956843669,43.9995208804,-762.8316841444,16.1092127107,-7.4317931069,-1472.5229367584,0.2032811782,-977.8866226483,-1791.8093977775,-227.7584244968,2497.88462676,4605.0825816056,11600.1301425994,1038.0458014105,-3.9730151575,-1687.6456178421,281.5363966487,1851.0576842826,1601.5878246527,-227.3410057616,2165.884266838,-560.9861230118,5078.457995867,-630.6750833559,-2725.1711449315,1.0098690584,6.1910688184,-0.9489639618,-36807.3644596828,-32564.2037964233,-28350.6209489596,18269.303375072,-1121.4470764222,-6585.7922939093,-14210.3839692249,-5484.6786922214,-19297.714657476,-3.1827444425,-21779.6887974383,-6774.180190514,29754.4398276181,29148.6452434738,26110.8805166465,6336.9077687393,-28070.5814901932,-436.8807554453,-6549.6942333573,-0.3550445956,9619.197010377,18974.9756650028,35466.9121091497,43026.9338599084,32795.8342942564,9756.6053663755,-14276.1729619012,-953.8854785124,-46.56055471,-6.1585138653,5490.9366035497,24640.1989661795,16553.0020990815,33145.7259242952,9743.3528116363,4479.6738121774,-3638.6929424332,-7982.866424693,-6161.84296924,-3.7408776108,4376.9733088125,1394.6440496502,-462.7520220267,-7002.8706180183,17071.4631476466,-7953.7468059147,-10002.2141708353,-12727.5008697588,-19373.3693468016,-4426.445374194,-3700.8667247887,-9763.7984733152,-5332.5669600722,-21773.2998054365,7308.968159367,-18272.6783306081,-22880.3948661326,-15724.5704095241,-24525.2621961763,-2796.6466199879,-6719.1326639457,-43195.4867028488,-28044.7869283868,22862.1195594471,10577.1318923422,-8555.1642395863,-21553.457599477,-1760.7706961711,-8923.8027196461,-0.0549760252,-10922.3739101652,-26720.78140631,-13166.4124524805,20508.2706137554,22660.5020354699,-4623.2165384315,-10421.0774427986,-2086.0979454983,-17.7523482804,-0.7806038507,-38851.5206753101,-23906.7472290077,21290.7509126135,21208.2435248408,14749.9457581612,-219.1292430533,547.2504969323,5.5562613545,-4.5332475136,-0.844966525,-22128.0021879792,17056.1831850986,3015.8319255545,25704.0349095868,26724.9742926087,28179.5248191285,22217.3301481974,40.2018961392,839.6507713977,0.2719489537,1707.5125285894,101216.0125927135,34637.0449708487,-50269.2861895937,-97979.7224245977,-113543.3425537786,-111885.3640748484,-101408.5522981936,-81191.4572851788,-41511.6740855644,-4330.9385417315,62884.3533828699,29656.6542149125,43842.936506709,-2214.0495186834,-39448.1185548071,-77552.3296099808,-58941.9252203703,-34491.4313690743,-3075.2104999232,-1666.3550917323,23626.7959734407,12027.0626745802,6070.6091382768,-4754.9477718993,-39133.6700394703,-33881.0352273084,-48429.6726901201,-19814.3351974662,0.0965087635,0.5087763025,-66008.247446697,-70610.6180964253,-52160.8713514402,-74410.2302675508,-61310.4730788145,-50278.1050122504,-61904.3183268697,-10116.71945586,-0.6915138816,0.0923674481,-36528.9824702972,-62394.7988142606,-36470.6507969682,-71622.3526857478,-60588.6884376983,-57509.3991565154,-62174.8745142237,-41689.6599843494,-22308.5064433294,-6.4937651759,-15934.1236606558,-16096.9535145584,-15589.9480339624,-39266.17272465,-25223.8831698204,-32837.0087978745,-15940.4279574302,-35621.3102392322,-19074.4944496357,-0.3554079009,-26472.0836637382,-771.413344063,-18519.4999176857,-47358.4133854078,-33577.213008386,-1689.1866541158,-1.2336320159,-14075.0028976803,-0.5872301251,-0.4223730049,4248.8027682757,11807.4347975571,-5999.3069048184,-26200.4523538421,-18344.646602336,-21023.2769751081,-29576.5573552389,-29862.4491191237,-0.6540765136,0.5558647979,112950.2921491271,108844.0380787647,87655.0863712538,24966.8824269897,-28753.9883204294,-40551.3445730105,-34129.0445065934,-40696.6047190192,-8753.0796596533,0.5303303326,114203.4651602985,90952.5583547708,24920.7732835686,-44774.2846184327,-92134.7699321069,-85916.0741280971,-71809.8275917025,-32327.1033338826,-4546.3668955891,2.7190329028,4525.8735991298,14556.7547933212,-9345.4777478898,-13240.5058808798,2260.4571358096,4886.7338898568,1059.893315795,-3711.9841954661,2760.7736181075,1079.526727949,-1606.3190937414,6169.3004304276,-2485.924845823,14653.3195491417,1891.1517303785,15282.7891143973,20473.408586588,7020.6412526095,-1233.7146010615,-1361.989795536,-35.0218110091,-4060.3899472146,-4525.4453045368,-0.3423762054,-0.0324337151,-112.4457855325,-3794.9743589747,1653.0717979351,0.6211225152,-0.288025114,-1.2536815913,-40.0455343823,-3289.430526526,-23.0286437698,-1334.8193281147,2735.0967724913,-7290.7737671549,-4.4297624718,0.274841232,-0.1492306799,-0.0055285049,-8.6149142824,-464.5586439488,-5371.2469241164,2000.9966716978,-10338.6316163089,-1338.5639241057,399.0113963062,123.556088502,-0.8239504221,-0.5620601951,-84.038444911,632.709404728,1963.3966015835,-13.9347273977,1143.957582641,6936.9606602677,-11.5963979737,-1.8518345831,-0.3621742064,0.6823110611,5638.707349993,-2365.1690179195,1338.2863043243,11294.0349919579,-3906.4694335782,-2015.6114753767,-3076.3156788153,2.7936312756,-27.3016527411,-0.6372013095,1.6032119044,-277.8063714099,2784.3730529819,2502.2967658855,1201.6555617791,-0.6080365059,0.5142762971,76.0186889219,0.4122593318,0.6986511379,-9180.5032753907,-3975.447052584,2391.1250881026,9823.3236628526,-3165.4175684167,-1965.6240057545,-61.3925015315,0.1679890501,0.2217411831,0.6615212342,-8295.9300698703,-2678.4285299896,3370.0619602867,4227.9783841338,-8675.1049240159,-6637.406689247,-946.5747114713,0.7522198475,0.0563534089,0.6119350286,-0.9365870048,-219.7763359437,-3139.1132441516,-22592.8331778413,-3618.7433232386,-2457.3675499644,-116.1189666935,-1465.1931825631,-534.3155152747,-4.3532277169,0.0699395283,-3296.7715726849,-12344.4448368536,-3750.7804584683,-34.1370694951,1.0722646327,-1766.4282019647,-9195.4768129899,-10794.1707653017,-127.8130724007,-0.3315567436,-116.6181307196,-0.780664322,-5444.2985297981,-122.1201478297,1323.1390472822,-758.8718862233,-5308.2330744678,-0.1556335377,0.5091108053,0.0332014766,2.6959064405,-4865.3444249683,-16675.2208361934,-4779.3082872183,-1545.9123108443,65.143028493,0.4522813695,1.2908803813,3.1850900471,4683.1213616441,11.3834633504,-2868.1940603579,-6314.9644356822,3579.8943062585,3181.2686276823,2411.8089189426,7020.8527578703,16635.5880424229,7109.1893992778,33654.7232053595,-14.8948607905,-7518.5849594829,-10295.0885872415,-111.2601036286,3846.060303259,625.9038212915,2157.5952610434,0.6446940443,2342.5178627479,7880.9966797255,-15939.2050960573,-4782.8437293159,-2587.6408721957,704.112408424,-2.6194371148,-1.7702065296,-562.0007351047,-4329.5786684844,0.2771299376,6.5585198223,-1183.3758894488,-5.298071929,-3.7344517746,-2366.7302361608,-242.825730609,326.6068698829,-5.7131676894,-2.0217925788,-0.1903136019,-0.1636232695,-22.7467223178,3465.0427990517,-0.029543272,943.5108446382,7291.6072456622,3380.4097814033,2.9926260484,2.5794892863,0.1767760197,0.4242023769,-622.4503663835,321.7628494295,41.6832963318,78.700670112,2047.6704197792,950.3523711952,0.1822217026,0.5731737668,-0.051086283,0.2825470828,0.3416604396,18510.210385385,9289.7586353859,-4165.1373446579,10349.3923430924,-36475.8851970888,-35214.8812762411,-16141.6286586767,2744.4816639859,-25191.968959245,-2998.9906380723,46155.7779654959,83579.4990583206,65285.4424002307,58059.4451588507,49851.5143620449,-23300.7377584998,-16838.1536591736,7317.9325109449,-496.5163068216,0.5792431989,31055.7579931368,14494.0486791181,91880.7110158295,95554.9816408314,87022.0414047592,-15711.8638825295,-15919.0872548313,22321.2307075904,-9453.9864539866,0.9628652604,-36278.14237887,5603.8330845242,20672.71813767,90240.3511734691,40873.013511435,5792.0049270954,1629.3885495665,48196.8303806237,-1216.0745081254,3533.0838739358,-54404.445209732,12588.0605879827,55553.1318765314,55952.5299953381,13580.2425691221,-16819.2792040893,-10921.1425955522,34264.8361069779,16240.6750346894,1681.7120830497,-23896.8924578967,-16978.6335933207,10573.2865307498,-13424.4866015162,-25872.5994922027,-45051.5603747001,-27958.8165304366,17401.1545517563,-17420.2820337105,-1736.2590614273,-22427.9047700578,-37249.3332065408,-42017.1853529557,-25244.3722474263,-36074.1736315671,-27596.0670103464,-18806.0307704721,13882.6102023372,240.4157243485,0.8379138077,-4013.2601813442,-5268.5967338777,-17365.4241680873,11367.3984962139,-546.8918492484,10246.6830765763,44274.2666232128,29440.5264762998,18362.0065647693,0.1695883299,4186.3955583211,27022.9847748722,74789.8086974863,65040.2253454217,46754.5132270726,54047.4155769835,51500.424554954,26734.4327072368,4308.9742434863,3.1110010875,76162.2803076465,103368.3102013236,92339.288115173,115000.8130782641,23426.8289847493,53012.0191792764,65648.1953834262,14392.9251314518,3373.3850838957,3.5316120352,3257.4688060352,2761.3440113653,12445.1935935412,3576.2789630292,36390.6289053279,5960.4294735943,342.0284135291,-3183.7264849294,2924.4846047095,329.0336980722,7927.4305377487,11455.6043815239,10943.7782596643,12564.649148455,-2816.2378157532,-4548.9717288771,-6180.2449551732,-1733.2205521006,2602.3176735933,0.947676779,-0.672284159,348.553898439,1297.3374408586,9449.4183831433,2117.1538733406,4420.0970596669,5.1172469482,3861.9003275246,9764.2595498646,966.8879433579,-0.3637667291,-13692.5027238998,-9074.1194789078,-3380.7686769175,41.4114316217,-301.211438476,-490.5271871321,-354.6844727239,893.3023937964,0.0357547484,0.0298474883,-38.7734794198,-312.9567952557,-1338.4105054279,-2045.5278356247,1367.379776129,2094.7002123629,-2008.0173724844,-636.826533755,-675.395465485,216.9390164977,-1.6686156368,-0.7555104982,-0.7608520923,-2.0226986538,-0.1179686069,2.2026921149,3545.5903260077,0.4054321075,0.0495489139,-0.246560844,-510.6392656645,-1.3583161304,-1.3522178674,-7700.1193183701,-2439.6682280721,-0.3242172032,9.5135811103,-1.4346535298,0.5146982808,4294.000235025,-4748.4394024754,-7243.4797059361,-4473.3484093136,-5289.1462049472,-1.5801707542,-0.8003639163,-444.9134215999,-196.1976325606,-710.9600314579,2678.6286207496,-8706.4169715228,-11248.4091583838,-12491.7051326423,-1625.7245654223,151.522089243,5654.7519694207,277.5616817665,-0.2629713918,-0.6501661455,273.8531083746,-4.6897162956,658.7045013292,-106.5210055923,-5.7199012913,1427.4993641271,-5.5370032461,2113.0801197432,-0.0828137766,-0.5721014023,0.1738178421,-2.1591188731,-22565.1189956134,-5488.9107732808,-3964.9882714042,-771.7269982251,-23415.9363920213,38518.4295188723,6656.3238929998,6170.8081998621,36.4641579252,-0.1795102146,-12250.4855381383,-38432.4887704148,26451.092815387,14794.6803623356,-42690.6281992955,-12701.2835618457,-10802.7801030347,4716.4435116338,-208.9782963565,-31.0947099455,-343.9255010189,5777.593725745,9752.6651975036,-2232.1598613856,-10703.0969189475,-32927.4855466398,-23582.6151582497,-8064.3970230135,-5265.2397085144,-8.1786092354,9674.9886143034,22771.5593113859,12136.0490661055,4985.5005934355,-21189.3475429348,-20505.5667995497,-22216.8589849709,-336.9679044049,-8244.6408326677,-8.5555900187,28100.4490922148,47632.1950882505,39805.2730580126,41017.5847571026,8106.149394213,15612.8518139704,10536.8374676805,30.2063452616,-13693.9808931365,-955.3732915627,38185.938533826,26543.3941244505,30851.8272908012,13510.1285847333,13628.702039394,37558.2059370077,2009.268035867,44.0666956678,-10341.9185063463,-2253.655595965,58543.2227364895,-5059.5454841141,-9825.8725109959,-10600.1176299482,1660.7540385726,20342.7466876054,-4369.0327853484,-672.8261297716,-21.0840344819,-980.3238075816,61881.4058547439,-2620.6250392359,-14.2646578167,199.274309896,-1806.836938132,14486.5225738009,-4916.2579176805,7222.7048085797,7049.1219989701,-1560.2017858544,1610.8700349228,10914.9488348287,1878.2179310732,-8906.2338537236,-14002.6995137745,38842.0785336693,12720.773303614,7679.5808839398,-6.9571606072,0.2129022036,-12865.4738755078,33470.0573260083,25238.4750430822,10139.6648574411,13879.3388900718,59370.3366048377,1165.2814805754,1043.0342590605,-0.2083929893,-0.9060482378,-2.1558410352,-24624.3124282415,-91868.0816424657,-82180.2774447209,-25072.8557094132,-97008.8220184127,-100162.5937354474,-29406.9249141397,-21826.3437669412,-69000.0457916983,-10711.0480359426,-18271.1175197691,18780.8553684899,62993.3815831907,63636.5597432988,72343.8911375267,-13920.435678245,7152.7860632965,-11402.958193387,-18467.9566580949,-2577.595946661,55403.5260982491,11625.8329090832,64002.5347329703,96930.4176731115,97351.3783991258,10787.7953778539,-18264.2653019042,-12745.8682566182,-13997.3548636643,-8366.543402418,-33606.1037332606,20014.1782593955,11007.8273768655,61548.9623199091,30706.0619262464,-26536.5830881281,-30621.6555829716,1035.4646559503,-17387.8355792833,-8278.243108177,-62372.1536575933,-37546.9691631659,-16379.7097202987,-46091.9407864943,-45817.8766172138,-43984.4993802673,-27851.5385422741,-22143.0478609809,-46589.4036473132,-801.9790924524,-25655.4082065122,-26927.6069021799,-22167.9058945482,-70091.7984485349,-36379.1126963426,-79475.0393256925,-83204.232933973,-52093.7189937035,-71698.8891758188,-19907.0963605067,-24862.0771221898,-74170.5288458025,-89804.711708671,-27074.2791613141,-40430.4376148377,-64430.1327224213,-67187.5061450548,-34746.518470596,-56759.5754531559,0.503349463,-38506.5151288845,-16948.694299859,-10212.1591962111,29243.4047957705,4520.3097965546,-19917.3903713091,-22367.5364629907,-29090.0053489883,-18344.4947446748,0.8055843192,-27712.7181447377,-3575.1998464902,55553.7004061813,70493.9270008616,21052.2647018972,-21861.4797564335,-4036.2185927737,-12333.7387749165,-576.5771320933,0.1612852291,20868.7779246659,45963.2240986204,6529.4525928066,52074.3752370105,-326.6300873402,26529.9839146063,23431.9185156033,-1.5009369223,3054.3308557101,1.0099084155,4149.9152497139,-19807.9693579363,-6712.7636483649,-32725.5596405347,-6561.63575787,-22089.044612285,-28160.3486550404,37654.6143893129,4133.5850528211,15352.284356866,18928.7405263356,-14682.7700539865,-21368.1044537433,-23570.7543961681,9882.9627794707,-30022.2273897247,-21179.7253586627,58011.5821601264,10999.7537649639,8368.0724947407,16071.2796468299,-371.9729408434,-488.7155061068,-32.0556016336,-30653.1384253184,6894.568232254,9736.9748695759,27223.4237030153,47.2627758946,6403.614312024,6390.6061817761,-60.7342580013,-2605.7290186593,2565.7703065059,-23507.702298593,12566.9971438603,-12339.7116679099,-3493.6258918216,-403.3195785574,434.8315014515,0.5062599428,-3783.9395644489,-12234.3706448911,6499.723035665,19422.3472683267,-12317.1906779686,7090.5568783813,-8166.1115292623,-5206.3628337362,-958.7692137989,-0.1165041609,-5073.8914025952,28950.3408866294,4911.9629761961,54331.2630129849,-8209.7917524072,-5129.880113437,-12841.1802252127,-8082.4574111988,-1312.9350329487,-0.153080838,-725.7591012532,21075.6560236126,51252.9008228721,-25883.8285439129,14957.5853911303,-23201.4368541294,-17541.6255123552,-1459.6918844358,0.1218790858,-0.1997875622,14527.4932879517,83165.9115183656,19844.8074266443,-7234.2951674016,-5.3695900772,-37009.6519976337,-24390.1616390876,-24298.255482328,-0.0136042353,-0.0088368282,78370.4066615916,14076.1347527174,-36015.9628121601,-2683.4403119161,-1299.3392206212,-9387.9463447652,-3622.4594203133,-2.488908239,0.2544199191,0.9421122365,44441.4961097631,-23490.8607312848,-2756.0475688524,-11778.5169806057,-20733.4464180646,-9286.4709172548,-44.4595781,0.5339035528,-0.0871303007,0.2243180553,0.2324920096,-2053.033412295,-4441.6811233495,15186.5768495073,1362.4767768001,19133.1122183247,15832.3208316188,2881.3791059897,129.0886708116,41.2166330288,-0.4667481926,-13534.1018647607,-12634.1484817199,-8681.962857961,-6410.8891371748,-10147.6548237716,-4014.1228281307,329.9188710711,-0.1468705833,2542.9684566946,0.6770198641,-7816.3172013498,182.0702639543,-2690.6898794771,-1357.5239051086,-657.9991069229,-107.7136109006,-856.6054486175,22.3156499096,183.5478827377,-0.2686773518,47179.4603485207,11124.8074271527,-2.7789357624,-2483.8654238571,-4908.541018881,-2053.5038632719,-3.0980144481,-1.4387420783,479.7308476123,1.2817855411,40210.4226978516,-785.0591536268,-922.2355418686,-10023.2478574019,-9647.9715926319,-4918.5878288401,0.1203808441,-5.5699290848,96.3737732925,0.0133848212,14566.6923677822,1231.7894707464,-9302.3525251414,-6900.0949300183,-2820.0383323518,-6782.0414744839,948.6723059331,-9.2401177226,3294.0238649688,2844.9401725711,36829.4866523018,-19.5262339829,-2.250482161,-683.768540403,-28.7371313599,-1585.9334325351,1856.3263673105,122.9267630355,3885.2448656468,-0.8883587593,29409.9032267259,6956.8858088108,-0.7985429121,-0.8771974738,0.3348323077,-203.7849174464,-3704.5411195196,3134.8886467568,186.8268605273,-0.0689914824,27455.0503253144,1530.161109872,1692.741103813,-10026.3763101693,-16487.6601744731,-4611.4750231854,44.9795199548,-33.6373572262,65.3446638351,-1.7055709357,-17741.2733195572,-8299.1066031024,-1965.1224957195,-19816.0144781243,-7003.9271083166,-6150.0123625972,0.7789260345,14.101555489,-0.5087832598,-0.4125396287,-1.8243587478,25929.9642523604,-50444.9311594865,-64977.6697009741,-61640.7778260418,-113182.1343870959,-105320.6214589164,-64682.7897614505,-26228.0467547586,-57332.1094569971,-10562.5830195953,29643.1588725514,62344.0730433189,86913.5694487326,61848.7498001906,41296.5780435543,-36189.6909136622,-15080.9374795189,-5760.2934568576,-8004.6594339761,-2387.170923295,48803.5686659816,25433.2722818842,74936.7087155333,94281.0989526433,75691.040465653,-16349.6322767795,-23509.302642859,-8406.0014443809,-19524.247097965,-9206.0468719785,-65289.321297738,-16256.1482270854,-16200.2958028108,20003.1813387779,-9764.544755416,-36706.7316473325,-46716.8345969631,-1461.2491797599,-19046.4655747022,-8746.3991579758,-69974.6958605395,-50285.4691053385,-29885.910431162,-60661.3244032007,-64358.2484928526,-69465.9736917911,-41876.1868091009,-27622.189111686,-41408.778966482,-7171.8890586965,-21031.859803616,-24119.9890680408,-22443.2987848867,-79727.9539782372,-52458.3534677042,-84070.8432226504,-73052.2818199953,-51566.0019952491,-69388.9663424736,-22573.8214907705,-23392.3650239498,-61370.2659301173,-86395.2611882603,-50952.2532079093,-55065.736911873,-56008.888273909,-42107.5402901257,-17453.1745598667,-38689.662232483,0.3262392391,-14701.2942037372,-7747.2236173281,-17864.4709424952,3355.9488254334,-6802.6546241272,-25658.3286578287,-10120.5577377989,-21543.0906175578,-15389.125481646,-0.8882896496,22465.8771252208,35684.8563212903,84489.3335715738,70439.388696212,6970.8983395269,-15095.5835224086,-4243.3764958425,-17934.7216894515,-13280.651803011,0.4191519039,73257.493875297,92910.9710145374,30943.3375391464,22712.8840403637,-44078.0074880171,-1568.5576532551,4738.039668845,-11758.303193651,0.2523439522,-0.3904522131,267.4701044375,-41374.3435480909,-61814.9147708919,-68577.0582182665,19376.2705269732,15932.1421544078,-19667.1111064007,5966.1007218577,-6071.5893731277,-14743.4931569741,-1420.5768793854,-44172.3861732427,-32284.9174046791,17742.3201611938,72783.1878456028,54854.2259433636,24185.3209517879,10380.9311613276,8821.9755576252,-9870.2450070997,-1.070539143,22051.6377972406,-4738.7296908255,37621.6088484323,65057.6494022482,95162.9698594297,20095.2871618517,3450.9948042504,5858.8727110385,-7114.9569597494,-2.190410248,-7247.1797866116,18382.0902200771,26800.6315272053,75288.9100799664,52474.0497165508,2414.4938731359,-2832.5025580153,-3550.1443404174,-15022.5627989304,-803.9803205901,-45493.9716328459,-21924.5473645319,14647.3296790754,14281.3631281977,24024.2080939905,-8555.6628387503,-11481.7765320474,-9347.0878621499,-37350.5083316737,-16301.9931435854,-36171.3902605815,-25832.2706900243,-11865.1071056033,-13850.7858436351,8534.9248975872,-21945.1593608003,-64925.0684246645,-31161.8430663157,-38465.2006682535,-6359.5003275192,-29833.5542742808,-56364.9621184814,-42813.8216870754,-7227.1824628332,13782.7777480975,-28513.0300358533,-56313.2294955168,-23439.3618764604,-26609.4279641481,-1180.1833641553,-4959.945801488,-6427.1122004679,-19966.7344096508,20912.9280044868,23064.0640631405,-26429.2597746383,-20059.298046665,-10780.4647518088,-13178.9537426366,-2836.8340835746,-22887.4384961157,-24147.8473852018,22116.9765519267,38183.093751114,28188.8684017208,-25244.2800277549,-5489.3525184179,-1140.5631793531,-746.2743748167,359.7997680583,-7617.7664682948,8325.3280380671,15746.2831985827,66032.4824338079,36636.0763466252,38636.5225797812,14402.7219211368,3298.2434525709,5176.5761413499,-0.931170185,1.0598995143,-45355.7798864209,-74017.6075196657,-74696.6779836703,28586.6831602777,8000.189055357,-28956.9435320717,6314.3871779239,-7133.2589604482,-15724.4866082607,298.642930756,-37453.2616577215,-21721.875347967,25313.6683333481,60932.9610903975,51547.1678304195,19285.7499288493,15650.8341286765,7408.1558809433,-8372.5321735979,-1.069984969,16547.1085507421
   7788.6290892467,42372.6454903516,58776.2859746851,88551.2496583347,29788.1610423031,17008.1278773437,6275.4997808446,-3583.5362429748,-134.9419339074,-7051.955854889,22212.2839501608,16817.7149736851,54146.9364137192,42383.252896742,8975.8997957754,-2215.3559692229,-2798.390553898,-16352.1580520003,-4253.6822694713,-43440.8627093404,-39223.3978237592,-13615.5399382991,-24023.7600222129,-1326.7578624283,-13089.8799030101,-17690.2979666171,-22555.4547876787,-40194.3155634761,-23073.0009827097,-26221.4891263047,-16264.5751473085,-10765.9367451782,-8999.2966236696,-3662.1156110377,-33140.8403847418,-70777.7686887605,-40583.552922203,-39532.0841125935,-4649.2538230997,-37790.9607623878,-51555.9854302001,-39391.8821745947,-6858.3700954082,10536.0882341074,-45298.985528554,-68249.1787040194,-19882.0834249413,-21761.0204388183,-0.112080136,-25093.1402222596,-12098.692077996,-26327.4259296606,15542.965990419,16919.1146748764,-50680.4535040019,-32151.686553695,-28429.0734669529,-16982.5562474946,-1.4181664014,-37458.2354987344,-43926.5265938097,5475.7629426966,31121.1121229553,23288.4835506945,-38192.2471783842,-6618.0223463246,-10429.0537773544,-1552.1597393523,-0.1255913696,-3239.4536058879,828.4569216944,3312.4650943092,44277.0210179539,22529.3858376028,15241.9841886624,21330.8785935243,11114.7056460431,11070.9723257403,-0.1848599165,-2.1794297223,-170.9553184095,2860.5366005711,37057.7324869923,38321.7283337233,43441.2381482992,2449.9046563085,-20910.6458610521,-1148.5260040528,-0.0721572407,-5.8812655662,-984.9186563079,39831.4155012662,-8998.4195445525,-22538.1103714689,5334.5416299266,8984.753793944,-2788.37999952,2447.5325098365,20026.4648316641,13.9764909389,16493.1441320167,15544.6819651159,-14320.2176823171,-8848.1697539527,3008.0005977931,17214.1184647286,23909.9211702274,19965.5919464587,5665.1386140765,16.4997083357,32193.0407460803,29154.0536156949,82.5398071679,-639.9151548326,-216.5621928465,2266.3851837975,10170.5715564338,2458.5715906646,108.4215340112,2.9306314425,38036.5298361674,12231.9034285702,-6.1909537196,-1656.2120116411,-2959.1649804035,-4036.865427021,-32.4886237357,-7636.7869640028,10.5024662766,5.0897470783,59170.9843417739,6398.5932353968,-16.3308186252,-2134.6164459498,-11230.5415815347,-5375.9180093826,-3484.0881797268,-9958.3408212717,60.7957466182,117.7751448464,120455.1497327181,-1951.6211467219,-796.2634885081,-12.6950302478,3834.6326814609,-3164.8420053039,1527.2102369164,-7246.3483060861,-2876.4218908957,-0.874695772,129136.6114707728,8611.0975216988,-2.4302916719,-0.6863310908,137.3745883916,5736.0031036901,3759.6467605768,-5301.2369243797,-42.1014240549,-1.1482348499,70458.7761672801,12819.7154668655,-3189.4773722302,-9901.3464549742,-13140.1376977144,5664.8923290669,-1985.0429775984,-6209.7376782404,-1063.2693884151,-940.7120897321,-24146.7903429869,484.1172549676,26444.7649257504,16987.8125303521,13256.9495337718,-39582.1215036818,-25348.8387634011,-12108.9197474685,-13.4590818211,-2.913672424,-0.8577391027,-4999.2300195615,-43617.2746211269,-58781.1936577376,-55968.9463698897,-82619.3984148267,-76797.0154070762,-14798.3228140368,2112.8494062076,-11687.8827343523,-20.7836020738,43206.6861706884,63250.9469673563,97462.7981621147,67657.7060370312,66109.6511813146,-7369.0758702779,49460.6209162617,70065.3737239029,6450.8479202915,7894.4143823229,60874.7985663187,64835.188905313,135565.8625469665,101305.8682944967,107445.5916524295,-17001.0949723264,26008.1714600727,75721.1077603179,17812.5020522693,13703.032099551,-40307.4330855792,31237.989060383,28922.4675095964,118803.4344002575,51245.3382649645,-22354.9129264687,12792.5560528837,83225.6416504903,22339.9805623103,26657.7496555897,-69220.2121662133,18680.9727958753,60099.2213671268,70056.3593227666,21481.0868650714,-14522.2668874736,28205.045191398,95591.2540603555,20613.7371463386,14379.8450202218,-18436.8635263352,-5282.4175964334,2946.399446028,-3277.8429353595,256.0672746942,-23963.7053871435,-24538.8901002743,23255.2725027045,4655.0194598821,7284.6413641106,10126.1723897673,-27610.0999345008,-17095.7390769389,6809.2445142916,-17371.2862985834,-35044.5319234071,-10598.9701632529,53129.7539804284,14676.0794691174,13205.6824860228,29416.0084817039,23631.2875967931,24997.7951011077,62127.1583745352,15488.6548989123,-4797.776778892,35865.5297821265,48521.9703325598,18838.6801380749,13779.3489048712,44284.9496687361,54676.8186236491,66433.072117352,92785.67525002,48432.5225811408,-5330.3647443642,10760.9588916493,79519.5427181069,46610.0382954123,15173.5016928703,61617.1635516115,59191.4407134566,18686.1221094132,64367.0360671075,-17850.3256046715,3826.6631860796,26275.3289095027,31428.6773411123,33550.9707317472,3102.6981028834,94.7576972389,8739.2831653259,659.4813572704,-5003.6367321018,-12249.1340702165,-22369.595859215,-6499.7024521124,3259.2481342417,-5.7097611244,1441.4195006692,-0.2978601126,6234.4640479863,-21421.9743353536,-733.8153672285,-5728.1535784285,-5072.6551922986,-16098.2389922724,4280.8718860655,-1032.5472357285,-3891.5580525148,-36.8029327403,-3406.1364247222,-494.5635361509,659.4589028256,-3053.2343111963,1426.0040117067,997.6773841194,10561.4781282123,-32.6342701994,-8.4353034602,-0.1666020961,-14362.6278607399,-3101.1094615929,3470.9707337651,3783.8544928021,30959.4187479736,352.2465996192,3107.3172077022,48.7197859045,739.4729506787,-0.7476147849,-11554.1119961429,700.0904501642,16962.9765454844,34478.1291232808,11919.6594545268,2216.305559784,2853.7968582599,1182.5973611211,2766.1863463775,1.2011175823,-6018.3130833794,17845.8364267209,24529.4247900117,17063.1257919551,-2602.51376338,3392.4243363094,-2548.7728298737,-2273.3518651598,-2108.1895023945,-0.1955249255,-11433.1232612676,3238.0686469856,-3247.973877398,3940.2250935855,6229.5248951154,-5309.7865658912,-3877.9103943453,-4334.7829054821,-676.5719521617,-1.5177899422,338.6832713893,-1122.0338462841,-3959.0704048851,279.2329496352,-0.3427903683,82.5409336704,379.8114366383,-6201.4363603505,-0.1549216954,0.5079118647,-8921.3149873851,-5510.5007138144,1610.6937371236,-1123.8173403665,416.7510039062,-18.0009312106,17.3548856643,-2.5255606199,-295.0053687517,-0.0266113672,-4167.9762594854,-12831.086682853,-547.0495774324,-3612.1471231751,-33761.6887818334,-18453.9326049799,-1213.4177959946,-210.1645899462,0.1732813544,0.8039240147,-1.2793787622,-27397.3258895682,-20465.8536203305,-11661.9479840588,-5736.0430667193,-34859.0389618972,-14942.1045921782,-4809.7421609402,-12916.7508111161,-13294.1825126393,-3.0872540155,-32187.334530068,-7397.9403878004,9398.8923472572,-10976.9684271855,1292.9399800523,-12861.9599121835,5204.1870054731,-15356.9808549192,-5994.6978234701,-0.2656740648,4915.9388858613,62595.1706901901,40402.1895024253,17820.4020833179,-34410.3838952489,35939.4524549217,13020.5161889287,-8.5341633908,-1.1234546022,0.0643441012,18045.2710819838,53439.3187382113,22781.4707127323,-16681.6600388201,-9753.8228716746,6052.1394142031,5607.0624731297,-3076.3376490187,-2549.8456456436,-161.869354481,54515.2531047197,19133.1111838633,-33448.5476575804,-61049.3603630227,-23362.640124931,11798.4290313687,-7946.3842677684,-16601.5250764166,-8803.2274993154,-1223.6355127576,12951.8802551624,8276.6655157898,8229.5393847116,3748.2466629068,2514.3318825227,-17066.4815933404,22686.1713809096,6172.35713585,-4017.5344153673,0.436443868,4415.5275014995,8413.1193155201,25734.6040630403,55756.0972167846,18440.4145673798,6268.1026783881,20774.8412733361,26419.9397227944,2523.0185977726,121.0105454196,-39349.7453371931,-13554.2776408511,20419.153214696,38748.3703225664,19850.7949022674,18890.2539826,-2935.6913940762,13945.4846987093,18701.6385617038,9338.1144968902,-42168.5603153864,-18017.5593050691,21106.0017927263,15953.1941069494,-3727.3082776787,500.5285717271,-29.9808058564,10965.9649832492,6264.3511564101,6476.9509495525,-16317.5981342859,-14809.7072550593,-15152.9928747864,-41097.8013684402,-14669.0468779968,332.2742924766,48544.8567149289,1330.1074449358,12156.1949903276,5392.4155333472,10972.0710886288,-45290.4366716018,-96052.9665819225,-69714.3751905259,-10972.6821424992,-80867.1660778804,-81128.797969693,-3347.0929477972,-1709.5573202019,-57604.0875041326,-4985.0538639713,-17883.2828042966,39079.5709031784,88146.2251577966,85572.8267460804,96951.5903358749,12344.3583336601,24374.0261881276,28554.6036606268,-14390.894446673,-848.3454367734,63526.4759386314,19805.6381236874,108915.4786336914,106779.5615183217,108980.9609650952,8895.8921788843,-15625.5671898156,-9495.5544101795,-35370.5557345064,-29357.6761509594,-30565.0292362098,65413.3587463889,39603.0754097613,94062.9340599378,57809.2491020039,-39230.6228001042,-43804.2681865778,-810.5574439801,-33768.3943165522,-21197.842392941,-64970.2268715057,-31276.5425329888,27954.728429714,-12364.756659602,-33892.6368703335,-49876.0124929992,-20523.9545835854,-29405.0149404887,-68834.9950281727,-15801.7425252405,-27739.5642330542,-17409.6413151914,-8634.7052319746,-59831.2648101546,-38655.7754236835,-75813.5325978118,-88281.0182531016,-74085.6620752867,-85243.2548993721,-34219.0106244502,931.6865244662,-73634.9456597807,-69704.7925843124,-26518.025823756,-36914.9379517344,-65002.5478755508,-60917.0370270709,-33215.3018743904,-67184.07661946,-158.9126737471,-11329.0314605517,-11622.6976121572,-12914.2107077436,54286.8676213934,17447.3293549217,-22460.4678247116,-5845.8368661827,-18379.4005606154,-38581.737347829,-0.9109774979,-33494.0326433179,-25035.8353153798,69137.26926605,91350.7416102292,45716.271175186,12715.4645898469,4823.9796638104,-12121.2034371703,-7418.7202845878,-0.0477331725,26480.6719635115,47724.095709892,21851.5270771665,95124.3019743351,12538.9785116353,55371.5319277289,48726.2978326479,-6169.6875437019,1506.6138975695,-0.1843963345,152.4231532499,48563.7808830355,26891.0702278295,11483.9723865746,-16186.0127860213,-57436.8704112239,-72125.0054691473,-36435.0770755851,-9758.0575293691,-573.2909147471,-2471.6065288357,29180.6273838746,73103.9699256978,35749.7504190978,40551.4578255588,80755.2750984785,42873.9047664318,45162.5346224564,31132.8395732762,635.3074485412,-3.2585436221,72398.6861213162,66689.3859921494,41569.8775129711,39773.7403015927,64956.3359016497,39167.8636956283,16803.3732404265,56755.5415411741,2044.7592702697,0.6556980372,42818.2483963113,39716.6473636415,58456.2011877294,22297.8174299956,42778.5146512572,-36568.1055138262,-1473.0726393464,8571.9008808797,548.0414519479,-9241.1722581514,1860.8650366544,-8285.9795224048,11648.467418982,-29718.4807376928,9227.8064118996,-28579.5961231612,2452.0154241514,-3937.7802583685,-40506.4099378626,-13556.9499265004,-31831.4349880256,-12471.7247284305,-11020.0791599226,-28979.9367131957,-1546.926637049,10707.8086827814,34354.2848008084,-5085.7014488183,-51114.499861791,-982.1714795503,-80899.2375403203,-16524.3839972654,-17441.741207575,-47417.4820939065,13862.7655001889,48138.4194611524,-3508.7826605571,11728.7420723121,1551.1338287837,1.7879196819,-67012.0688919245,-27662.3546499568,-22974.6326292125,-13852.8957533538,32536.5477824461,944.4070516767,40429.1861665158,15853.2210960169,3696.2017349608,3942.7603794853,20896.4575435394,3639.5129481309,12291.5603562675,22931.5473001753,35037.3793666671,3055.0142630928,31569.7383401696,9327.8263071356,2080.9724375634,5133.6767597911,67278.3521254992,74700.3154673497,62742.9810795801,39845.4822607437,45995.4820496512,8370.6583331379,2940.7041280001,-12856.8153985068,8.905830956,877.6583973453,1280.1320921822,-23984.1565385561,-73957.5941939335,-62051.7682790573,-26490.8641763541,-97926.298578812,-93175.553389955,-26208.2306439346,-11552.0414597596,-45760.0414190245,-4881.3311231014,-191.6086315805,38877.6458255373,58407.2305954899,70186.3391978382,77677.4872586732,-23293.9984116326,14529.250957536,2283.4198210212,-6173.4452897006,-62.6857985776,54703.3346029359,27265.9613171544,88666.1001365624,102591.5829459864,106827.1545550104,4574.0718423194,-12328.7792562975,-10392.0933961442,-28336.0700734055,-18466.6852120999,-45780.4655430483,24199.0367815056,22259.89333948,74294.2455650279,34189.8711943969,-35756.2740447288,-33487.7822239408,4930.4032388019,-18072.2544625553,-13648.0805045931,-57605.424247948,-35479.794354764,9082.4483345886,-30036.7741273809,-39393.2423321751,-39072.7640974981,-30354.1740719833,-25326.9991502204,-37094.4906012031,-6491.6875360217,-21886.0516110594,-18697.1985562679,-7884.5532417799,-77059.0249448413,-43578.6793029969,-76069.4957568209,-79597.4212035139,-57908.3192382613,-67081.9720499225,-22389.1279404857,-17492.9193066978,-69981.5430999932,-67820.4194892693,-41592.5802384027,-41578.8425853182,-52160.0090868982,-56744.0562448452,-19907.5254396103,-36703.5210153989,8.3621980731,-26785.7627040274,-25401.1646354491,-20367.861741741,29946.4468125022,-3019.8444714761,-20362.0713451267,91.7454729607,-14487.3827346093,-11394.9082990557,1478.4761798708,-40014.9723352953,-23862.0252510842,49191.9470970282,79899.3719790338,34876.3922690495,7665.1990678819,-1517.268354008,-10837.4107798811,-4151.2514095124,88.2005226091,35068.5627642449,47173.6184682248,10840.3411495341,47111.298646301,-5299.0284104868,37681.1585003604,44128.7127379238,-7486.7669187144,2783.1879566104,129.6112690495,7831.5115204647,-70155.2113552746,-93987.6307612693,-70636.3445210127,4655.162699221,-69787.1759068008,-65267.851298293,13775.3148370995,6274.0618502858,-37739.2478831436,-1881.0262620381,-33557.3296350041,38181.3622238083,74190.9657428899,81100.7277389097,105629.3950447465,22259.2946187828,30012.0709187958,29864.9519643321,-12086.1614630911,-0.6445868606,54370.9586237802,22077.772918185,107367.3021134407,114946.8128842564,110199.4344961368,22919.8952452792,-7141.6297168207,-7055.9438178267,-40088.1655446212,-31926.4768352852,-22372.5358365509,69533.2394811313,43533.133442797,96272.0363188572,57338.9642982987,-37325.6338835329,-37479.9388237232,-9182.0998116051,-44645.9582042063,-29197.9479677805,-66797.2619115173,-21679.0997315714,10886.4538774354,-28959.5848793547,-41061.4656308133,-40749.6272714145,-31016.9188317257,-34883.2844168206,-83428.4262764283,-33934.9070815203,-20130.5101849329,-17080.501257372,-8998.0707770911,-76180.8928309047,-41753.6441687671,-77050.5821908825,-89614.2291848783,-80275.3941300515,-98598.7880038422,-37015.1209457884,4735.0681562923,-68621.7729483579,-68710.4965086714,-26104.2507701805,-40008.484629366,-74575.7503544339,-64978.8942310914,-29631.256423642,-63089.804726162,-48.7663010227,-28258.9984098637,-17122.2057885089,-10678.3764951489,50597.4500327122,15723.4424930919,-33065.2249863895,-7028.0813175166,-13038.8037436121,-34380.3123014645,-0.8316585702,-53508.9445376231,-68197.804629701,34173.2641437121,77948.1955907296,52734.8612621711,4079.8650788048,4794.6085983352,-4880.8172480835,-4726.7698357071,0.1622992623,7463.7572356595,24209.8099845062,11061.360536507,82212.1993236135,28418.9450477713,64134.3515923347,65088.8561744071,-4672.9693444116,10734.5590638361,-0.6950287629,34.7126716035,137855.8839295552,56712.0591587681,-33032.4919063509,-116546.5772210766,-118911.2361967636,-120787.1999711467,-115431.5654295836,-88586.3320144845,-55253.0668702203,-14089.1181917455,82330.5831535059,55850.1653259885,68871.3963423191,-1034.5602572059,-31675.913146629,-81009.0146615124,-73934.1817190634,-54271.4631488187,-15342.4428347241,-1645.5181047985,19273.1165429992,22318.9407201613,9673.403865143,-7156.8360497051,-48940.0321271291,-53036.6420869339,-59080.7264813144,-27602.498473504,-1.7086377956,0.0579052042,-67889.1383202583,-69382.2856067461,-52934.397891466,-71389.2590687226,-68571.4912612292,-45649.0982614944,-60320.4755604121,-7182.4408828975,-0.380947896,-0.4187404015,-43249.1413025579,-57900.1357615109,-44792.4118237459,-78865.8274222592,-75834.7105216975,-73490.2787413067,-58845.7404991627,-37652.8734123999,-806.6980949774,-0.6219379796,-21513.8470503045,-25587.888671362,-27545.8551724489,-56580.9473234843,-32393.4185303868,-39835.3137443314,-9840.0629342942,-19759.4559474018,-1727.1562626163,-0.2002948336,-25618.8465521815,-13472.6821713426,-35618.7558987804,-45492.7526850472,-47092.5774690233,-7436.4826984962,-45.3239191643,-9037.3892375343,0.40655527,1.4134641675,-5143.5844778234,-179.9974241493,-19141.7911991387,-25856.3231417506,-20768.1491006435,-10856.1367907262,-10078.1954836605,-7852.8600788402,-3.0730132069,-5.8744082553,121777.8226815963,117282.428935081,106309.985871928,28162.7645786696,-26545.0519910351,-27449.3990227753,-19429.6557815944,-26390.3320155646,-6017.0947551326,-0.5262754872,125778.498128546,104158.5474542871,21806.6017154393,-39959.7454391015,-105283.1049337424,-86047.161823819,-67537.3067059418,-26904.8863589773,-1057.0386642989,0.4018968562,4645.026632943,-81517.1523379469,-103985.6786156782,-79646.7874206699,5807.4517553527,-44930.3354982746,-58523.5805060117,23851.3479655178,12272.936461278,-25940.3479015265,-6.5395789753,-40811.5042433351,16565.5855768245,56423.6260190302,79420.8770337443,104653.444461999,27827.2175677909,37854.7892020735,32193.7874103602,-5254.2145892276,-0.8471393919,49000.32110445,6680.4230135256,90732.6858483079,112513.6636944735,107354.1454363432,22641.3788769923,-5233.7764866423,-2930.4748793163,-32919.8962479828,-25619.3390956694,-4834.1008161333,67863.1554651451,41213.3263894842,98569.7308388726,71352.6911779662,-30043.2541618325,-30611.873900502,1669.5982476509,-24887.0666958564,-17374.093712338,-63149.0682933602,-24179.5148956698,20660.9322533498,-4046.716534978,-44000.2432579797,-29053.5938915996,-23406.2156512375,-26915.184918689,-66026.6954769983,-19452.3449843982,-19275.1706037076,-11115.5987867226,-7177.3377872509,-61070.0660583686,-38763.8077845352,-72619.2362064082,-96860.2447915664,-72687.267326769,-88426.3868150935,-25274.5330099201,-6699.9000997986,-64630.9986207098,-59826.5081926466,-21731.5947872279,-33022.4613995427,-74083.6480374201,-77583.2258634329,-43716.3266763626,-53512.4471721096,-4.855879499,-18095.5053722532,-20151.2849574141,-26989.6843938723,39168.2867528267,13954.4357642352,-39813.2130747915,-15393.1014340261,-30511.1272491674,-30370.0529124981,-0.4747812439,-50862.9272930199,-77958.4396584462,12977.6268625064,67195.2190710079,42557.66603774,-6835.0347298362,4551.4721602043,-19665.1286485718,-2754.931424062,0.1320875262,8006.7296687809,5613.050829447,3726.3266967329,79463.4520604775,28422.9346398549,59407.8433778716,50642.5179031395,-346.7356394784,8577.1475379372,0.5470326702,1118.3060346796,10378.2433260806,55354.2467912629,48386.1036132977,-18160.9217509233,-26750.9679051667,-25587.6358515932,-21868.8828322574,-8829.5382302216,0.2634865817,0.1423173428,15776.3171586911,31073.9876433656,665.8920872035,-38692.3285367166,-30394.5713899759,-15773.0182221206,6409.2400710519,-482.6764577173,9.5485127068,0.1150890747,11570.8978386614,81929.7259921174,16446.8883646496,-32993.7956374746,-77223.3299095037,33553.4983944976,23850.345609428,558.676389727,627.8775730887,0.3132392143,44140.7255281538,43626.6980799204,9961.1420537931,-62658.720619395,-35530.5889060562,-480.5614450856,10984.9480191479,-4095.7757015255,0.8414655405,0.0155065499,88967.9472036231,40960.5959032636,-19811.2819298509,-44697.6252937671,-14947.9219036903,15725.2551483312,16197.010641387,-13239.5467843616,-7590.7567014825,0.4705538901,30704.5454850496,36585.8092468794,22265.0555060494,7990.7895790038,11599.5863300783,23507.1646734778,78182.2827509164,21058.0503073144,-39.2974993032,1.1991805256,29809.9998691194,36780.2957998577,58548.8560741554,31684.734929809,12497.9798758464,55337.9725341849,61313.5137257293,60916.3473785753,19613.5770094661,899.2179073733,92.6961056953,8120.0795965369,37469.5504035633,11606.4317733058,23424.1179541729,40981.6706598444,15541.5207979092,20826.8420495886,23864.3559959464,6015.3755068458,7201.8176164048,11640.9746460946,1962.5554187543,-14108.446083347,-10034.1026046115,-897.6115884637,-686.7681035807,6701.489288159,4671.6148411806,3204.4873019999,-397.7205050097,-7394.9467834355,1433.5409886337,-57932.5877808339,-15258.6198221705,-22794.542576616,-2292.537577999,-12.3306107889,0.8556807805,0.1581784747,-1.9982696737,-2108.2900136641,3423.2942990017,-13101.7087637494,-7600.9416440382,-28201.3058829808,-15665.82621277,-5686.9230357849,-12763.8151887648,816.003414202,1338.812216103,-14365.8455384852,-17312.5268057467,-37160.6245018376,-13200.9875952043,-12516.7940991525,-49283.1663029536,-13626.3762382329,-48400.1673039033,-1397.7700127739,-177.4242627153,-15473.0126347146,1144.714344858,-21063.8731150569,-6361.7018572772,-54544.3326889245,598.4659834017,-2162.199976318,-24902.1162128729,-10.3600096367,179.659605689,20296.3075347336,10157.3802001922,-240.3711756442,-11095.4232179408,-21282.5466994829,2718.4120760126,12816.6433853947,6424.9078106477,10091.8364375693,13353.7548287551,42435.4831814563,17830.5938681375,-12942.1388872047,-30165.3006132752,-25196.9019347246,6671.5382722437,6887.0269525398,5472.4912047802,11260.3088352937,24163.1481647661,9859.2866429404,6620.6779903472,-4088.0936111505,-3545.7709781855,-14546.8533847459,-8434.1951035031,20776.4868961395,1463.7650405519,17213.8346587692,16421.4445603461,-489.7232364567,28631.8068589844,19237.119116638,22785.4753031211,10342.8610020769,2299.1441989748,10257.6402617426,-942.3872749951,1109.5130300533,5307.0515214928,-11.2583962943,-104.2596825319,4358.2738205745,12766.9770149799,2411.6966061293,3001.3804391952,-5523.4236279231,507.0385490104,17222.914635367,12803.0469746941,-3029.8759787589,-6182.5969624642,1269.1932080017,62.7231309946,3452.3447999387,774.7206046345,1537.6302455567,5205.0054665002,9203.5019158209,8080.2858711109,-578.8194361874,-48938.6491600611,-36670.3269670655,-61919.1765604098,-32381.5839379535,-27257.6926492583,-0.5726125683,-0.4612638485,-0.1245593788,-0.2811866094,-1.7784022585,-80108.1401785208,-74704.9045066548,-55435.7697028276,9718.5846048558,-50627.6237391209,-43914.5623461755,8623.9443920871,-11803.0106976139,-39192.9780832965,-0.0299202427,-38705.6031183154,7004.7665125936,36451.4106840812,42601.7566255246,82701.0331893982,8831.6521857288,18453.1899387233,-13903.1608390687,-20756.7191345224,-0.8646995347,43112.4825231276,20547.4598247676,73741.0909891845,112392.2272611164,92129.872304825,38692.2633056229,11247.0707604761,-11002.4234833106,-30760.4072538368,-8548.0822168347,13855.169365366,82792.0823298199,43756.9499317301,78817.9684284623,35906.2213071862,-2896.7017351818,-4292.9735432587,-7652.3519997692,-21222.4398282247,-4533.6782270885,-15527.8609574558,7436.1960190063,-11327.999821962,-30772.5367707806,-34794.2159159565,-13227.0196472644,-11778.2687345166,-18213.2893570641,-25565.0536380412,-7237.4331314617,-14314.1901739977,5344.9676974133,-6721.9357740388,-51623.8924754133,-30810.3367286663,-70220.9536431762,-43119.8503292559,-21586.2088858207,-36446.2671304432,-815.2499833233,-6899.8137203834,-46252.4513357579,-23856.7151156342,12150.626547163,-10783.0882030633,-55883.6048857749,-33441.7872548014,-9189.3484711957,-16667.9375532868,-0.0443563633,-42090.9783127979,-29583.6678448463,-2489.2312309062,52664.9181457679,25690.54994588,-6575.8167329801,-12344.2485944761,-10261.7810059517,-5.8820409894,0.6276790114,-81644.9478743383,-72303.4489230131,11639.0065055132,41365.2168504513,51064.1920526264,12626.238425215,2796.9051942731,-10831.2996923758,-1.2377261965,38.29481652,-43102.9372702789,-24887.4729307418,-23175.4719212392,19787.1368311587,23781.3516223656,54442.7755345413,69315.59701643,6197.230185208,8496.5032072621,675.0463882611,3139.4241328092,-3907.2174909901,31169.7979550342,19509.6104862367,-22571.1870268291,-46419.2057071422,-14306.2156400879,-4755.1253163858,-10112.7411202538,-1.7581216739,-1.424565509,-7470.1813609969,-4023.3681353116,-14775.3798616996,-50397.0330001522,-39882.9129624023,-33224.7932964045,-2149.4921948096,-23498.0650427161,-749.9306491156,-0.0085634068,-16713.0282478988,64165.9740912984,29079.8079094656,-32285.4291869959,-112556.596473405,10838.9158530113,273.4982356309,-23148.4515654202,-1266.5463625787,0.3918634469,18810.6706438872,79103.2202952841,14530.3621651197,-82014.9044663346,-63941.4835212957,-9597.2063526128,5052.9083546884,-27327.9845533281,-11221.099031931,-7168.1233410763,115289.4155337605,39889.8831045193,-69627.266039588,-76234.6696652319,-54191.6907630541,-857.6891151208,-8348.7245976416,-44054.4739581382,-11637.1356595014,-10571.5080269078,76557.8786024947,74844.1273241527,2348.1674534992,-7928.5790568667,-20766.1387013632,-9452.1254744523,69263.1618132454,19988.4044591382,-3832.8520314604,925.4153974634,47031.1487434724,36958.7572604953,57412.673054831,60013.5031853276,7348.8282590929,15873.720239778,58647.7288711689,44872.2040499923,13437.8298984069,28.8546538491,-30906.6500481664,-8332.2047835915,32210.4973239122,16863.2840171829,3651.6209459698,28901.739547885,-181.9848852103,11627.2561636985,19214.186007087,9857.2353123603,-34794.5572289519,-11298.8274679263,3942.7090410743,-12592.3236378012,-23314.9584142105,2768.218410394,10.9251697955,6457.4385641626,7032.6084188648,5905.7181870282,-16473.2591405162,-33178.1277433128,-30607.3846925547,-98490.504408099,-49677.1005187469,-28547.9271794846,27081.2375206002,-13.5364351433,-0.6128037081,0.2747747141,-1.9668009298,-13843.3043696797,-57502.76952054,-70689.8298341468,-70799.8591746143,-119629.2474166466,-106576.6687141716,-66998.856600619,-52457.6337839277,-69225.7841683676,-8922.1319007719,-3770.1480620284,15755.5055889331,50610.5920036071,42918.7423485417,30026.7372474726,-27628.0246407585,-20601.9166503072,-25398.2456465607,-20075.9925564609,-1382.5769504158,51273.3874095239,16845.0144832191,52428.6399854915,92348.8302753773,61527.0426136368,-6173.8007576858,-22912.0534482669,-21639.0692483833,-15096.2412511815,-11.8017204504,-26652.1835300777,11386.8575531725,3376.7809781727,8276.7667617319,-10959.6382929653,-23352.093133099,-31286.7122691265,-3390.4800206691,-8532.5717673155,-1379.6554018294,-43728.8314006658,-32681.7865279663,-29810.6490757191,-51681.9987517423,-50095.3129768177,-42848.247177075,-27452.1254716405,-18429.1026392965,-27291.710134606,-2320.346914959,-15222.6788681353,-10994.9046029782,-11576.8589549856,-64509.3488116773,-32058.1124488302,-77939.9813948736,-47624.444589651,-24290.1302136828,-41930.3354317165,-4578.6506727036,-9266.414080473,-59586.908101601,-70010.0092246787,-21579.2174027031,-32455.0844566711,-34291.1144889656,-36233.5955915589,-18881.5967455578,-23557.1187649254,0.0989497337,-12927.694980577,-23217.2114271389,-4084.1098905849,14990.5450917193,153.1341133104,-7426.7676362621,-16864.1892113234,-15870.680563973,-4521.2244055535,-0.1662296027,-847.5789429554,10355.1161895716,68059.6239495992,52929.1657920888,7643.5808444119,-4669.2093142252,-1081.7257781816,-8209.7977317305,-3366.4209516576,-0.8721378345,18437.1401981249,44244.726922355,3720.0062500464,5872.2515883467,-24897.1654824568,1.1452720359,14873.2781722878,-5496.6585713477,25.1952853051,1.4955565655,1038.3160536599,-24925.0224865887,-36676.337854164,-48180.3624789758,-43442.4883069714,-65136.8807249718,-61825.7528568773,-14923.7788138935,-11958.7520320273,-16928.9081169649,-1688.6873081056,-40498.7415445214,-10710.599729337,11370.9380922429,2429.556134499,9524.8395090681,-24413.8411513712,333.1135997342,-24566.9257746031,-12688.3466501489,-1.0087959115,-2635.2349007154,22752.1307680449,19459.9731990634,37671.848014415,-13855.2823281777,-21381.2705596281,-14977.3881914889,-16956.0941398954,-9573.6290451979,-22.5197676195,5623.628850921,16644.6809199599,-27016.6859422684,-51642.3046637874,-56267.2944785147,-42390.0986913671,-26063.0941414528,-7519.5593927557,-3664.1863759811,-304.9197106655,13182.5997580332,-30452.2867577138,-78490.3154148547,-69460.66961372,-59966.092155337,-16728.5056903237,-2811.8542167607,-14815.5268938563,-4986.0958198288,-1766.0703086808,-732.8674487015,-12465.9681906928,-27892.3214236247,-28810.1545460365,-10952.1983366937,-12852.2852815636,23794.1720158272,-640.810543802,-6660.4669288901,0.3583953124,-42196.2604858906,-36197.4800466752,-7158.4976505558,10819.4416109716,-11579.7662178597,15833.2082761057,-5476.2568747391,7804.6198825153,-4.0403841632,-0.8490449638,-61800.3132184006,-17519.2912238603,18643.3154179193,8276.3148599346,4340.4532470901,1676.256381622,-13391.219036354,-1969.2259334358,1045.5346777256,5558.1776978911,-68392.3990105569,-17164.2005492114,16581.8084285743,11358.1957561961,14923.5306516035,21167.0322931279,-240.5168452516,5177.1361258517,402.0365028432,5004.7217859558,-20162.331473129,-41712.6412361497,-49118.6314950615,-67055.5332016436,-39378.6674475848,-6250.891024294,10227.1097023799,344.7348262832,0.9589529568,1.4563849588,2084.9228976682,11633.9189570008,19858.9477209468,11539.0178039465,2064.3634584392,32535.3307014623,10657.2224824094,6027.4915877575,20426.96260339,2196.1005268206,-2.7001533739,283.1968128801,96.8747135255,-1409.7175750793,3124.5398568529,1960.2429609913,-7153.1214872471,-4545.2466673382,-5611.5876088694,-2393.4661197481,-5396.5731384917,-11453.0809732404,-5241.9656466884,0.2542076916,0.0307292911,-16.1862627393,-14970.2277948072,-6410.7646357574,-309.7277025413,-4277.1846742163,-5619.1959123119,-0.6805037483,-0.0890117805,321.8489401166,2110.6310730474,594.4033661438,-2.7074617164,79.0983042353,31.5902149784,113.878483501,1.3538106021,-3321.4692507486,-0.8393702614,575.4693273073,-0.4101908041,-1255.2232397191,-87.0075199858,46.595909454,-24.8191892325,387.285120796,2.4645708096,-1762.0737890297,-892.8756411354,-4500.270561118,16.5953043972,1.8981184495,-40.6257233123,-37.0110403824,-2259.0074693578,-90.0120836691,-0.2971924282,3069.5285189278,2987.0989840221,-1.4547440628,2725.9875377117,4.1699634137,5.9012324699,-0.1531596839,1.9880417733,81.9757212696,0.6452811276,2950.3185063422,5074.0373704415,6284.6473879495,9706.519546472,6838.1786014045,0.5675884124,-1.7698899989,1972.7926232493,1520.6250026,0.7757965683,7.6494923518,-12.4821253332,570.5421502346,4656.5396600933,11.6421072543,-11.7705412082,-87.542759392,2.0989645688,0.5117335461,-0.4437864826,-1.0166266976,-3799.8827322286,-1858.0608890001,-640.1062252158,-6916.344181032,-11351.7435194446,-5729.2117790128,-1.3849806569,-0.1807754361,0.5086365119,-0.7618836708,17093.5733898259,-17891.4829242846,-13317.0581288281,-14793.5443840503,-32970.3075623889,-48753.032365828,-1149.9548911834,30907.1767681549,2053.8074360716,-56.9383491919,45287.659725742,82094.0442171421,86831.6315288432,54794.0832665821,71569.0824488074,8148.45901966,41349.0194987417,58740.156973789,29282.0557785418,13802.8233918582,50470.5490499859,66587.6612095276,120536.5749036309,88458.4570856974,86779.9141588174,11057.8428749885,36075.7934566167,75413.6288925995,51807.5310572821,20108.9319280839,-37164.8600675127,38946.5280429308,58684.1875402947,91272.3797664282,53943.6818169531,11640.0790074348,27810.1152377497,70744.1154448431,20112.7684133925,12878.0350998942,-76823.7651621827,24872.0805466462,49597.4787228851,42071.5515146815,24261.7045119324,-10642.9806678736,11862.9338156819,56326.4569567736,-2080.5775501962,-1502.830354625,-23713.1981166071,762.3520029287,-1849.7329724103,-24630.5614466967,-17497.6449830986,-52225.0155717749,-32633.0273584602,3566.2056858647,570.0164046384,-2484.321797672,16763.4995440026,5075.2985327726,-4503.149328795,-611.6555614844,-30272.4397975853,-31058.6558229212,22236.141577193,48108.8070925863,7428.9233964048,4278.7610931622,45143.0935327321,10491.1548761405,934.9133966673,53003.6472957322,12750.5725157464,35.2774332672,58440.0619840721,51651.4783958143,14434.3955959953,2871.7233331031,61871.3961184863,45838.3533498483,51097.3554359869,81499.9131563842,58755.8954783341,-1873.1819962149,25004.1085645402,67066.2160299368,31953.9718284411,3919.2696100984,61304.0404358647,67359.1944503523,52835.6751408339,75857.0581788129,14569.4524775488,8441.463129303,28067.835742199,13835.123575116,11124.2050846264,0.8506233346,-1.4473972639,-365.5446803585,1454.3204810603,-4391.6196372335,508.1133562088,-1251.8133260247,-91.6546184163,-224.8994137207,1239.8135532724,2248.6725466032,1422.7611061607,-296.8303632586,-1396.1089936968,1902.0793494878,117.1752134713,-50.6682433242,-9.1414966716,0.4360328515,-109.7132343925,1.6652444733,0.3995179001,-0.3526169108,0.5722194235,-0.4337940318,-2.9814042316,-7.7024148713,-770.3166795599,-2.836288855,0.4511385838,0.1129402194,0.2272676512,-19.0145594909,-203.9142275305,-0.8261680323,-0.6257044122,-1.7284320321,-14.7773276202,-2.0474119593,-0.0472934867,-0.4027812308,0.3563691331,-160.9997743337,64.6758668218,-36.8541167263,-2.7445917869,-15.404307243,-161.2681954869,-11.4653869313,0.3737722713,-0.681323196,-0.0670084335,0.725181133,-0.6000894696,-0.9943690338,-0.2949102512,0.544150146,-0.2327592638,-0.0425447394,-0.6033642727,0.5436614392,-0.4506775037,0.4503786771,-0.1064663175,-4.5214591995,-6.4407104888,-5.7339635555,-2.5009152715,0.507800978,-0.6367334714,0.193614514,0.1820000826,-6.7441206396,-3.2203191995,-40.191738185,-355.0515668186,-281.912308881,-8.1670202558,-156.2311612036,-624.7333691942,-27.2888239777,-1.9297713503,-4.3792909623,-157.9739408137,-1.4187703077,-0.0909000793,0.0178086448,-0.318261131,-1.2589707165,-0.0560283293,-1.5619524697,-1.8622265219,-30.2763385419,-288.5931342369,-2.5239472834,-1.017688576,0.354524724,-2.4285927316,0.4259528851,-0.5079262729,-0.2627734196,-0.7790863698,0.3966690662,-936.2556500286,-54986.4254829115,-46751.4318278004,-21088.0266715153,-61735.3148574013,-58074.848034855,15785.5641795604,21668.2137123189,-11333.1329092534,377.1322189615,21435.4612107477,62789.3811948088,99923.8193589368,87277.8233382825,68429.1363344892,13824.9618417379,52408.536594479,67636.8781164026,2235.0181784846,843.9312526055,47410.8511156292,61876.245860552,123227.8756372741,104873.2977520769,91459.3737477232,-872.5759582494,18933.3574315354,47082.3415851621,1046.5880209503,-56.5033222519,-34295.0897287528,33416.6464277728,22244.7676116144,72088.4167725983,32113.9504197159,-23992.0400976317,-19631.5025124112,37319.4153945834,-13770.9305837377,-10541.0691826224,