encog,BasicNetwork,java,3.2.0,1,1487204245741
[BASIC]
[BASIC:PARAMS]
[BASIC:NETWORK]
beginTraining=0
connectionLimit=0
contextTargetOffset=0,0,0
contextTargetSize=0,0,0
endTraining=2
hasContext=f
inputCount=100
layerCounts=16,76,101
layerFeedCounts=16,75,100
layerContextCount=0,0,0
layerIndex=0,16,92
output=0,0.0615706876,0.0000002665,0.0000117157,0.0007656764,0.000125736,0,0.0000000088,0.0028732105,0,0.332991105,0.0000000123,0.0012007293,0,0,0.0278540112,0.0000030487,0.8586124123,0,0,0.0000040929,0.0555599335,1,1,0.9473185258,0.8686502214,0.9987508717,0,1,0.6519358552,0.9999999997,0.7314657065,0,0,0.0000000015,0,0.0000007748,0,0.0001935251,0.0000000577,1,0.9999570252,0.8698478989,0.0000001425,0,0.0000000051,1,0.0000000102,0.4254786638,0,0.1154024396,1,1,0.000603995,0,0,0,0,0,1,1,0,1,0.9999230499,0.0000006908,0.0001486344,0.0128227555,0,1,0.0499275574,0.0079779108,0,0.9997270028,0.0125612218,0.0000001428,0,0.9992539556,0.9843792325,0.9214625093,0.5819280418,0,0,0.9763442005,0.9991124253,0.8660604563,0.0277886367,1,0,0,0.0274022937,0.6161987543,1,1,1,1,1,1,1,0,0,0,1,1,1,1,1,1,1,1,0,0,0,0,0,0,0,0,0,0,0,0,0,0,0,0,0,0,0,0,0,0,0,1,1,1,1,1,1,1,0,0,0,1,1,1,1,1,1,0,0,1,1,1,1,1,1,1,1,1,1,1,1,1,1,1,1,1,1,1,1,1,1,1,1,1,1,1,1,1,1,1,1,1,1,1,1,1,1,1,1,1,1,1
outputCount=16
weightIndex=0,1216,8791
weights=##0
##double#8791
   1.6660013692,0.5018636683,0.2239034734,4.2358262335,0.5414803588,-0.5920483918,0.0840748585,0.3370464814,-0.1810563992,0.1571182193,0.4682378329,-61.9735982752,-15.9212037679,1.5760849132,0.2342233512,0.3488637687,125.9067947368,-0.4916113929,0.1614349696,-0.8997681372,-0.1383439117,-0.2003146117,0.862245473,-25.7944430841,0.4305734231,0.2733371804,-13.7443203072,-4.8395315293,-6.0083584733,-259.1800014989,0.0126024884,0.3897815507,2.0439030053,3.5625055872,0.9552146277,-0.0934405253,-0.3138723119,-0.2474963391,-0.187839776,-0.0432142248,5.3167499677,-229.1924439924,-0.2290965799,-20.6263345342,0.4571168393,337.75693686,-6.1392203084,-0.2216811445,-4.9473943996,-9.9090758282,2.1350218848,-0.0691038463,-5.9461030594,-1.8266030886,18.3314532535,106.7775488132,-0.6624725601,3.5010342887,-1.8306541208,-3084.2322514623,0.2971789202,0.582772779,-0.2016674303,-0.523514635,-1.9867570484,-0.015460875,0.077841877,-0.250275026,-11.1297101968,16.1640685704,0.6416054708,-16.0806067822,54.6774994842,0.4845904221,-0.5683574982,-1.9766743794,-20.2090946899,-0.5217707105,-0.5610086766,-1.0779242005,0.2931973528,-0.0583859046,0.2677312911,0.7315640658,-0.5799836199,0.0349185186,0.271968429,-3943.9360237696,-0.1863043834,-0.4972294237,0.1192073054,-3.8767712415,-1500.845905216,-0.8243830189,-0.2808689858,0.5258884968,-0.6185338226,-0.5330776215,-29.8789373922,-23.1488553824,0.7859217786,0.0270835534,-1.5219054667,-3011.1727896038,-0.4174739836,-2044.923257799,0.6508670781,-3224.3204835119,-0.195543072,-0.6902074424,-0.1083619864,0.4332547368,-0.2034284751,0.231863789,-0.6231067662,-0.1644581461,-1951.1428406709,-238.283290425,-3954.3111852116,0.0032759346,-0.5927526892,-1498.8598507912,-0.9700203055,0.3418553057,-107.0988977939,-0.9971230423,0.7248069208,-0.0927355977,-0.6886639173,-0.4380865793,-0.4336149536,-3484.5399756242,-0.4809329376,0.3868944611,0.3294270394,-0.2962514221,-0.2394206174,0.5937033592,0.6742161866,0.4219350248,-1222.6348370903,-0.2606500209,0.7611650931,-0.6305341297,0.5441542335,-2.7394747432,0.1179763951,-944.5503830718,-1063.0764319502,0.1622102017,-0.1581880859,0.5876596196,2.1461826536,0.7944647523,0.3631076534,-522.5547093245,1.3397962155,-0.0569355515,-0.3816557657,-0.1317988882,0.386896161,-2.3673895233,0.3439795559,-2017.5665431293,0.1901228844,-1.4408694637,-0.1795018869,-0.2300131232,-3597.5524493492,0.1337595479,0.3754430635,-1.8275843024,-0.0186049306,0.8021414938,-1.9351872696,8.8222508526,-0.3130492746,-0.2998055382,1.5506596448,-4.3143246948,0.1712437871,-0.2443377606,-3.3491825586,-11.3877083986,0.0561385198,0.6595698314,0.6878034213,0.7219717422,-0.2044469277,-0.2726801919,-0.2590082269,0.114205109,45.2015554199,-1153.734361414,-140.3887580589,-1.6450959863,-1.8840050065,-988.6445222312,-0.3175016824,-1.8032802374,8.745006628,1.9739072543,0.7846347155,-0.5755563616,-0.4318401446,-0.2042946975,-0.6972667853,144.0456341757,-2.205806808,1.6014158925,0.9663355531,-3318.100544692,-0.1599244442,-0.5805389067,-0.9258839029,0.8117938323,-2.5466144569,-0.1812798635,0.5474029457,0.3805597386,0.203978885,0.6533127963,-1.411990684,30.0205180283,-3744.0408569824,-0.607378268,0.4115280645,-1.4174620245,1.1984310866,-0.2849581051,-0.1630703241,0.0780481487,-0.3134963679,-0.0684463485,0.0292282761,0.3512607705,0.3344158752,-0.3093066486,-1.6251968812,0.2862260667,0.3544785599,-0.7624240718,-3.1405732719,0.5807010628,-0.3869992157,-0.3379644767,-1.9032569772,0.3579547359,0.4816953819,0.4157342917,1.0510891505,2.44387319,0.3595390086,-1.1279131348,0.1679411017,0.4830618205,0.3119848974,-0.8615440507,-0.5676392941,-0.2413416666,-1.4478325067,-0.0002121477,-2.326755754,-1.2288891302,-0.625703224,0.2550176608,-0.270221274,0.7282486923,5.8929348848,21.8009405387,-5.9571986498,0.2341530617,0.2905706263,6.4177670365,-1.049502191,-1.8493457419,0.2680579238,-0.1481277448,-0.791802966,0.2303387538,0.5394330942,0.3448725953,1.084025476,0.6835271093,-1.4645162874,-0.9743960254,-0.6030109138,0.5530788708,-0.0740829543,0.5635755973,-0.3707139674,0.875462705,-0.7982638543,-0.170080882,-0.4896945892,-0.0803425239,0.1333335711,1.577587546,0.5526181588,0.8752259503,3.0055444115,0.4103966066,0.6154879233,-1.021951925,-0.8718695775,-1.3207967196,-4.3171470105,-0.6962043871,-0.4628061848,-0.7444385037,-0.3513125082,0.0033754776,0.9203770549,-0.8226700531,0.0047464869,1.1942950189,-0.51460996,3.0422522015,0.2103382253,-1.2298140731,0.5283521397,-0.1515551104,-0.2878354654,-0.0950401528,0.1766587682,-0.4146602962,-2.5680825278,-2.3641044077,-1.1102109501,-0.7045497971,-4.5013830716,0.8940582057,1.2288536615,-31.4341111521,-0.2293129319,1.4962321867,-0.62463669,-1.1813961886,0.9943680447,0.4703925534,0.2159703421,-0.4610361043,-0.3292401052,-1.7508807609,-4.616980557,48.7945376367,-1.2136089922,0.005488557,0.3352995398,5.4524951885,-0.2306226527,0.8743247493,9.9848722171,-0.5668971392,-2.3168920714,-0.3898660543,0.0764143671,1.0742630644,0.0686478696,1.4710552916,-0.0055738179,-6.6713954369,-0.1542817317,0.4126515403,0.4092923227,-3.4826372227,0.3483263172,0.3078230306,-0.5949606818,0.161050932,-0.4223017059,0.4796466754,0.9642208189,-0.4324606287,-0.1660785139,2.8951615153,10.7300596184,-0.6834805359,0.8651231762,-0.8821293551,-1.9069063328,0.0340665941,-1.0349179272,0.1836809975,0.3443516603,-0.0262354469,-0.3269001249,-0.5757643799,-0.6665380596,-0.9274627894,-1.0329599574,48.9416765782,3.0028135681,-3.9461086958,-0.4648890837,-0.9639905848,-4243.434644231,0.4586415847,0.2645075969,0.8480361593,-0.6904291571,-0.5094367468,1.4562302406,-65.2501417961,-0.846342223,-0.3799120975,-0.9211856261,63.1655102633,-487.1186638717,34.7302554649,0.1794608204,-100.5897145398,1.6001356322,0.4886975821,-1.0646502291,-0.297535504,-0.1286792478,0.4032851833,0.702743377,-0.0874478117,34.2334705214,-2354.0263994994,-4.7089049687,0.129651762,0.4501340507,-46.6782752585,-0.1014776912,0.1514771051,0.5284095961,-0.1084314961,3.5181482277,0.6791504149,1.2956211018,0.5895693682,-0.6550832615,216.7024383726,0.0201262222,-6.6394641004,-0.2094431259,-12.1681040129,-0.7127804941,-1.5173267496,-0.1793610869,0.0737600154,0.4927299401,-0.2965984725,0.5627539544,-0.5077470995,-0.3876669705,-0.7494092139,0.1725765496,19.4509100904,-4143.4559353743,-0.1820685858,-4.458244566,0.1088189112,1.2457212326,0.4300128131,0.4049591808,-0.4660521278,0.6049031265,-0.3088616193,0.4185134989,-0.2865801326,0.2342753503,-1.0484723432,-0.0594095015,-1737.9935797958,-64.4474334347,-1.0140051594,-0.272168808,-2.8017846687,-147.3731269509,0.2963929692,0.4162796095,1.0429751245,0.7424531135,-0.3100759537,6.8187890556,-0.5919277415,0.1134390016,-801.3172587672,-20.2345184687,-0.3880211418,11.4497352533,-1.8664227976,-0.6282692735,-49.4791679211,0.1233496748,0.1299713005,0.2441317858,0.4392497686,0.3976883732,0.7050078546,2.3861724608,1.2033306571,6.3317460733,-1793.596839506,-41.9862280656,-0.1423342473,0.6711491599,-1188.5846456264,-742.9209738694,-0.2245409247,1.9327312638,3.4600501967,4.3969719183,-0.604407749,0.2750202433,-0.4476515925,1.6376766742,-1837.6163750794,0.1392831005,-0.1022083277,0.2053865031,-2.9781080173,0.0484115258,-4.745174516,0.53652839,-0.4086029429,-0.2444493466,-0.5510666199,-0.4084555879,0.5934988303,6.8738891147,-1.5114984179,-0.0707348794,-404.8220015493,-846.661164578,0.2107733039,-0.4345228472,-0.8835145344,-1.2689945031,-0.2551771151,7.2151987401,-0.8217928821,-5.2616170838,-0.2323133366,0.309823364,-0.5185884079,-0.0120394222,-0.1790531275,0.1802443567,-3027.8705936138,0.378433386,2.0286678995,-0.2217319853,-0.1355633165,-706.9149773363,0.1967660111,-0.8978340574,-1.2486255611,0.3591488187,-0.4086267629,-12.1678989546,0.419625252,0.1019527676,3.2028644529,-0.7153105909,-2124.8256208366,-6.7296815312,-75.2349400841,0.2049193133,-101.6597792852,-27.6414677934,-1.4930578725,-1.9749012128,-0.4745643366,0.418034533,1.1077708035,0.6285925518,0.0220989119,-1265.7337839678,-463.191697887,-220.9182353867,-0.1961398323,-0.6056484979,-315.5897565423,0.5075309105,-6.9412372548,-0.8786149305,-0.2408276813,-0.0527562094,-0.3162867868,-0.3717500936,0.2248709018,2.5794532879,-2786.7540059314,0.6958477542,3.3850481432,0.2335887932,2.7471075944,-0.1859668124,-0.7218168708,-1.1595551038,-0.5772868543,0.7112827817,0.4019979374,-0.1373799485,0.2782603785,0.5233116769,0.2580649038,-0.327355166,-0.808430988,809.6323951991,-0.0849196589,0.0540035254,-1.5115419177,0.3986843046,0.3330688973,0.7047381435,-16.5616947849,-1.9532949006,0.7510329866,0.3889924325,0.1919692319,0.1427549143,0.6414623126,0.5730953054,90.3983556438,-1.3600267376,-2.2023550066,0.36300483,-0.1785775293,-4244.4925090937,0.398545386,-0.645076212,0.3981728995,0.7836250034,-0.4589818161,1.1441154369,-0.1752708227,0.4317569014,0.1699666356,-3.8244034886,40.1685549623,-62.4900806278,27.1104960128,-0.5206361521,13.7613192768,-0.0148352793,0.0925268181,-0.9751562449,-0.4344555759,0.4294635738,0.0893006243,-0.5325635816,-0.0663399457,-100.4965755747,-3763.8979805392,18.0916664425,0.0731365625,0.2119461205,31.3028635298,2.3999477606,-0.5621172451,-2.0800677345,-0.2826978104,-1.76253822,0.9662820168,-0.2115982312,0.8272904886,-3.3020981941,-1.4243625528,-3.4425730356,-1.7324609317,-0.1942105802,1.3719600507,-2.1105919795,-0.5949204519,0.816293823,0.5753747518,-0.4141856682,-0.403641695,-0.2251791877,0.036756365,3.0214283058,-0.4221518632,-1.0583867983,0.2614272258,-4078.1085298001,-0.9338810224,-0.0091057567,-0.2552987704,-0.500616395,0.5106834793,-2.2063805664,-0.1002662021,-0.4523363721,-0.7177623397,-0.12987026,-0.4012219535,0.6600332268,-2.1720732138,-0.209728653,-1034.4561849787,0.6253065766,0.4035182006,3.3649296348,0.3493002284,-3955.1701769683,-0.7221603152,-0.8564562523,0.7565517164,0.2131027151,-0.1146169113,0.2488290398,-1.1111407,-0.1210796501,0.2549543648,-3.4941961608,-1015.0950085731,-1330.4834728486,-2.6208868373,-0.0480091904,41.7975265261,-0.9967393314,-0.4331535185,-0.5445097607,-1.9661457591,-0.0053711036,0.6446886066,0.094382825,0.1171447004,-279.4232266479,-4244.1258690888,840.9710683364,-1.2609541734,0.2075982349,-520.9940413323,0.3409053667,-0.288397025,28.3764386902,-8.2273541992,2.6490044091,0.1355065357,0.3939035949,-0.6491586008,-85.0041271045,-2918.8744550822,-0.3503275677,-35.7999563646,0.2345006977,2.3566137528,0.5467595569,0.0099716512,0.330401182,-0.2840135254,0.1614524712,0.5515166623,0.3354756485,-0.1085322925,-120.7040179545,0.9783830436,-0.2716206469,60.7998137453,-4243.4576351631,0.0301132736,0.5729973925,-1.9300119683,-3.7859952873,-0.8073541378,-763.9235795389,-0.2763855524,-3.9230930816,-0.3087690866,0.2894415393,0.3112478549,0.3144002766,-0.0785419425,0.2896273681,-544.4141748793,-0.23795667,0.5243682517,-0.05259833,0.5213461776,-2111.5778429131,-0.0707373318,-1.3383944953,-1.0025814404,-0.0067884783,-0.2689056148,-445.6564495209,0.7834321849,0.5409636666,-1.4744046438,-0.464328696,-2077.5554200045,-1332.9096462944,-1419.2626580341,0.3445981575,-718.8252781808,-3.3369489203,-8.6445340115,-1.4281525277,0.0840644783,0.6113745671,-0.1731377184,-0.1287610852,-0.3980570261,1539.1106510454,-857.2706607903,-3374.1198759508,0.0020904526,0.4180841631,-2425.5077294793,0.4939290123,-0.2307176616,-37.0346597791,3.9926196641,-5.0829375682,0.3101010603,0.5208945242,-1.212063479,-0.0143755269,-2628.5117850091,0.0133327877,0.6614063288,-0.4831815451,-432.8441623474,0.2927681041,1.4154136431,0.5759957918,0.0364109339,-884.4556456166,-0.4230714483,0.0493952261,0.1938793452,-1.3734225976,-13.2957878951,-1.05492062,-3855.3034466249,-2506.0102135799,-1.2115559214,0.1988307502,-0.6238949812,-3954.5622946719,1.1282416718,-1051.0806612421,-25.9820838465,0.497625992,0.0131186335,-0.2818139604,0.1199825778,0.6380375367,-0.4966581296,-8.4855186199,-523.0821693785,0.5022195443,-2.8651783033,0.055463054,0.019176676,-43.0117634358,0.3731061723,-0.250862855,-2361.7834827977,0.3850399996,-0.4723458408,-117.3021203956,-3665.680800946,0.2445680831,0.6423291767,0.6179067721,1275.487720058,12.072886702,-9.1326229809,-0.0824113426,-1739.5210285077,9.2351825997,-70.7480701361,-0.8354018513,-0.9579405433,0.2131581762,1.2306954675,-0.1753021725,-3083.9987776464,-1949.8811778424,-114.0959467618,-4244.3503551137,-0.5523632854,0.0634585358,74.742372392,-0.1289531616,-0.7995568043,-1407.993545822,-5.6899833295,-503.7604170778,-0.101752356,-0.3389772339,0.6590687438,-53.7328561449,-3344.1117727538,-0.3765903245,-116.6940454127,-24.444316834,-38.3281222488,-0.1900305393,0.0921687191,-5.061964345,-0.2412652466,0.0408627358,-0.0010631367,0.4598369578,0.5536597957,0.4650579516,0.40469548,0.5473873033,-3755.3494489685,-325.6219187462,0.3948674196,-0.0497497624,-0.4022241339,-0.2854282922,-8.2113305588,0.0280890221,0.1836775899,-0.1074435548,0.6435453519,-0.1770990228,-0.5278255264,-0.0585067055,0.5957174334,-0.2632068408,0.1061050124,-1.0590627922,0.0726690013,0.532435692,-0.0458026075,-0.4440669969,0.1626392056,-2.0818280356,0.9292864234,0.7145064892,-0.6522817422,0.0093005086,1.9320556988,0.4302236445,1.506161787,0.8112441658,-0.2185850316,-0.7081813906,-0.650869956,-0.0577474065,37.0665866939,1.2992466907,-0.3551185008,0.2582224624,-0.2979327384,-0.6029893678,-0.688934675,-0.3409571654,0.2222355244,14.477988088,-25.5130447315,2.0967330085,0.2138470897,-0.1274808595,-25.286338841,2.3073128927,0.5846905433,2.7344348352,-0.858116364,2.4407214629,-0.673874228,0.0363869414,-4.3984783759,-0.1976401127,1.5227284019,0.1796867775,1.7616641617,-0.4072315247,3.2700250337,0.1142244145,0.2668304304,-0.3366366256,-5.7827159141,0.0647899062,-0.518138557,-0.624808055,0.5170170317,-0.5789392593,0.9501840745,0.0150470197,0.6279287909,-2.6958943247,-0.5653331377,0.0834742419,-0.1664915965,-24.3690068573,-0.5188043483,-0.1378437356,-1.6158968804,0.4973553489,-0.4568011028,-0.1293353102,-0.4408733427,-0.6025204947,0.0077373583,-0.2823531082,-4243.6588426045,0.5374183591,-0.8289926744,0.5144119926,0.5814750862,-1040.346613204,0.3552210915,2.1948159643,-2.7702165037,-0.1415204455,0.1578408342,-794.4946462292,-1.8106636051,-0.1559022046,-0.0665854474,-0.4462493579,-3665.881176836,33.0933047496,-1845.189281486,-0.3559006273,-3455.9944091825,7.6913561429,-0.4025118702,-0.7927445506,0.3060455133,0.5742584742,-0.2050998547,-0.3423552241,0.8940059253,-3411.2245925638,-435.8449962505,2427.716867838,0.5690336753,-0.1526879031,-1499.223114995,1.0310513066,0.0927898616,-2517.626493303,-0.6344788199,-25.6371400938,0.154483722,-0.2597299176,-0.4727093555,-13.5235070042,-1854.5453336446,-0.408782795,-1.8686598838,-24.1109167608,-2.4279307561,0.4949565241,0.4362091464,-2.1902282564,0.2389939706,-1529.1469053544,0.8696425717,-0.44960836,-1.4573813754,-25.0197657767,-54.6939924712,-0.3099385871,-3097.5435482803,59.124694825,0.5817714848,0.4949256963,-0.1141508339,-266.8757642723,0.6995964188,-0.2238686622,-2517.395551609,-0.1506909229,-0.3714834231,0.0954445984,0.554921671,7.502699062,-0.1240252841,0.6127832734,-859.6580777191,-0.1402196337,-8.5828996987,0.8483101611,0.819794176,-626.123707954,-0.4173178953,-0.7769373168,-1758.8570137382,-0.6333177499,-0.1534380358,-1677.761732915,-0.4066424892,-0.6790660757,1.598275558,0.0707716443,-2571.234327423,-361.8019471965,-3374.2841013454,-0.1062812199,-3754.5572450534,-7.206086845,-3374.6207591804,-2.3111580505,-0.1868814339,-0.2819094899,-0.1277995965,-0.3813219109,-900.4250549955,-3954.6337970987,-83.4524442642,-3116.3052263675,0.0829135514,-0.2417800029,-399.6065612132,0.1680668136,0.0041008746,-101.6887568862,2.1736288198,14.1845944536,0.0283818204,-3084.6201334632,0.3955459771,5.1945480661,-1820.0714696867,0.6724494261,7.8701228683,0.66016038,-47.6882528475,-0.2738896215,0.0401077676,-0.0174305655,-2.5585996652,-71.8078980675,-0.0722484906,-0.415985843,0.0830768047,-21.4040285087,-28.7269841785,-0.3615932643,-2659.6481580967,-251.100148146,-0.2582975039,-1.5938859225,-0.190153998,-7.7159846966,0.062101207,-13.6082814619,-442.8731059089,-0.2035866142,-0.435544116,0.8542645491,-0.4395862779,0.161564816,0.3323753973,2.0122915896,-3954.6597387712,-0.4232697273,7.5235001178,0.1404855748,-0.2504107704,412.5204135908,0.2712929394,0.2991020999,-2505.1415170073,0.4310889959,0.1721779536,-38.5564250128,-243.6815522035,0.4305148736,-0.2499561113,0.0460991241,-1634.1184437155,5.4580587489,-1427.3114273312,-0.0739084668,-812.2569522928,-6.3277586612,-3.4111639619,-1.1228344006,-0.095172172,-0.4232343004,-9.4237308479,0.2527046102,0.8961650391,197.8461543382,119.6715220799,-3954.9260106523,-0.5938336984,-0.0701378957,-290.8536648909,-0.8233383933,0.4790040297,43.5666728546,0.4561615341,-12.3063770726,-0.6041126146,0.6857314997,-0.3316138914,-2.9468829821,-3072.2337509962,0.7761574289,-46.0326174897,0.5505307276,-1010.8412380409,0.3319229208,-4.2604522752,-0.0333478726,-0.2408554196,0.8542811497,0.1214737565,0.6068790336,-0.4560271258,-1.5674754701,-0.2994206234,-0.5056358784,244.1653983599,-79.0766061493,-0.3442317861,-0.4466406449,-1.3047632844,0.0371869101,-0.7319616766,-3.5782822842,0.549021689,-1.0967308353,-0.160348291,-0.8336157301,-0.5936976731,-0.3963687825,6.8953882082,0.1527714612,-0.5185514727,0.6579104386,0.3761091487,-0.4975121486,0.0121874205,0.1017309478,0.3252498465,0.725896132,0.6953943847,0.0588239234,-0.2601589613,-0.2866561956,0.5694209297,-0.0377863424,-0.5858699802,-0.4958699879,0.4185626418,0.6117626602,0.240310726,-0.2155625298,-0.8654319462,0.2698249328,-0.0441040014,-0.087198004,-0.795682942,0.6059442973,0.0988499322,-0.3911326949,0.3401156118,-0.6722797952,-0.6451392216,0.2024346687,-0.4846489159,-0.7690128629,0.1924309903,-0.777806993,-0.5233597848,0.3021034023,-0.0225343893,-0.7852332912,0.2739422827,-0.187630041,0.3902848507,0.4604531025,0.3895685329,-0.2419570226,-0.6433393664,-0.4336044397,-0.4481321012,-0.5316267058,0.5291079641,-0.160188628,-0.29085958,-0.016509181,-0.0031245537,-0.9629874529,-0.0798704562,-0.7748137331,-0.0350668867,-0.9712795099,-0.8641905035,-0.6408530623,-0.8989443928,0.4806569894,-0.1696098881,-0.3542243194,-0.9608158743,-0.8370730948,0.025593402,-0.5975232382,-0.0747959334,-0.2612783097,0.5025907331,0.0347939461,-0.4777074344,0.2061864615,0.4382020883,-0.377266618,0.2215028558,-0.0004599578,-0.7080067094,-0.6436097564,-0.0548844886,0.239022925,-0.5571669501,0.0055097075,-0.2470082978,0.6023741764,-0.6840585414,-1.6550868715,0.3615084725,-0.199960646,-1.4526791133,-0.5763628097,-1.9565485122,-2.8003439332,-0.0708414155,-0.2020195433,-0.5814412102,-0.3155096706,0.2992844963,-0.0419670583,1.0259852462,0.5619613805,0.5006936784,0.0113191208,0.125415411,0.0014916713,-0.4716948199,-0.2212898301,-0.4560322467,0.0598946572,2.7589794483,-0.4041850932,0.297020483,0.1019630209,0.3752885388,0.4522261531,0.0101916602,0.5509595583,-1.3889557177,0.8289853216,-0.3298477057,-0.3713239738,-1.0553051694,0.3276271296,-0.4069129052,-0.2995759036,-0.249733147,0.3349299394,0.1483529261,3.6919767292,-2.0859054237,2.0443093625,0.7765710589,0.5585746324,0.8264775527,0.4162306045,0.2429022352,-0.120865301,0.5828343616,0.2920323203,0.6561126893,-0.3113876142,-0.0434329657,0.2629309551,0.968941613,1.1321523489,0.4579843078,0.5962954485,0.5418940813,0.2506093156,0.8228463344,-0.6343821784,0.3313130486,0.8906922357,0.9581518797,0.4676099869,-0.5091170447,0.225663773,-1.1790969319,0.2307440741,0.0139002507,0.0291098257,-0.5095276424,-0.4516357729,-0.40584826,-0.1664836329,0.4849127033,0.5619069791,-1.4071729864,-0.8182822755,-0.3991000642,0.725169805,0.187011692,0.2036006314,0.1805397842,0.7411291469,-0.1294189433,-0.4274272907,-1.0776431846,0.4276372275,-0.2095891712,0.7259843003,-1.0316937521,-0.4769850158,0.7762462547,-0.3886759818,-0.4876829665,0.01592245,-1.2755424443,-94.9872889086,-5.0052345938,-2.0541397001,0.4476566429,0.0362636116,0.9629296008,-0.5399977361,-0.0283819339,0.1681124131,1.3612827794,-14.3774464863,-0.3977295752,-0.1950635179,0.5235716828,0.2770045575,-0.4844203284,0.063994967,-0.3019530121,0.8595256689,0.8659820231,0.0486104265,0.0970069555,-0.3434000297,-0.2424931411,0.8913366473,0.7029526443,-0.4659712225,-0.4249622644,-0.204526267,-0.3816567532,0.8748069663,0.3772006172,0.3421240522,-0.2074911048,0.1554557824,0.5810224931,-0.2812226,-0.2778700074,-0.181815144,0.4660000635,-0.355782245,0.2352584158,0.6733745854,0.5798385413,-0.3103163379,0.205027241,-0.5205660194,-0.3752815665,0.2603915732,0.5227130459,-0.1362981926,-0.2778052107,-0.643570457,-9.1564023657,0.0082016607,0.4549712968,0.0657767154,0.8126303656,-0.0526019813,0.6073422978,-6.2946694589,-1.4722234863,-0.0412507446,-0.8070874604,-0.0348573592,0.7313820335,0.0549846539,-0.5062503537,0.2039106789,0.8348799985,-1.5128737615,-0.2302271337,-0.7854265567,-0.1589188364,0.287701847,-0.0217770765,-0.0493333951,-0.4856906611,-0.2943993019,0.2007515636,-0.9005652201,-1.624001865,-0.0676149455,0.4390090906,-0.0682269069,0.5738984266,0.3895225612,0.1198298251,0.0522756784,-0.4971272991,-0.7929179379,-2.1083662239,-2.3438537268,-1.0100663384,-0.0076686967,0.8723763919,0.5890501424,0.442028469,0.5452676198,0.102414762,0.1471466053,-1.3726194963,-0.7028798381,-6.0051410031,-8.8273580388,0.5470948175,0.1382053791,0.0113040578,0.5548512559,0.4474169559,-0.69079994,0.032558353,-0.2393737031,-0.5296117215,-0.2687816739,-0.5382258088,-0.4742760917,0.6929981263,-0.2887446809,0.6945188019,-0.3622535621,1.2522974167,0.2172460013,-0.1651396961,0.303240318,0.1701815914,0.0107474192,0.7193529959,0.5087412689,-0.1413413342,-0.6988064409,0.1417408454,-2.4028766281,0.1333189619,-0.7405992592,0.0031630765,0.2369043947,0.5729915128,0.2014114291,-0.4938758582,-0.3602940847,-0.1381963537,-0.4586274521,0.1498987484,-3.9762654943,-96.4284449898,-165.1665696498,0.2104632426,-0.6394354116,-0.4098871932,-0.4107455528,0.3480166912,-0.4723078855,-0.5637670901,-0.2013721011,-5.8438562838,-27.5169637189,-154.1351806333,-2.5183789198,-0.6321241176,-0.3257729598,1.896057844,5.2327568728,-0.6515502694,0.2357041604,-0.3002779914,-37.042542344,-0.5119029635,0.4479296756,0.553758282,0.0477756091,0.5743504095,74.7193183606,0.0292356396,-0.4963361312,-0.3882813436,-158.0665087518,-1.4836026998,0.3655037248,0.4238887539,-0.2267469818,0.6386324753,-0.5332179133,-0.3877039251,0.2502464545,-2.724896681,-3.8002927076,0.3636998198,0.3258537356,-0.1981268333,-0.2458624227,-0.4785004535,-57.3156177147,-2.4141321115,-0.3957278427,-0.347874722,-0.2381450713,-0.405923213,-0.1347298194,-0.072654425,0.2183593268,-1.8305983153,-0.3046981394,0.2939189722,0.5407423266,-0.2417508411,-0.8963162402,-1.6642599339,0.4163078956,-0.7173991677,0.2008453765,-1.4837587307,0.026093262,-0.0098927302,0.5435867841,-0.743883076,-0.7349635436,0.3710361593,-0.0713700458,0.305181505,0.0076505713,0.2272351992,-0.3323129897,0.5822044894,-0.7560642909,0.4725662926,0.516334851,2.6490276338,6.7982872122,0.5761705269,0.0264355119,0.290163116,-0.1616396135,-0.2893652437,0.3388860425,0.4039927807,3.6672762958,1.3036347317,3.3182348345,0.3089057676,-0.5240198767,-0.3880448611,-0.1017419397,-0.6024595859,0.9979402743,0.5266017904,0.9954197486,-0.0960614239,0.1914172081,0.2747736389,-0.2468515847,0.6512397827,0.4308770662,0.2874958526,0.6846618718,1.0723860449,-0.7311451058,0.075981981,-0.7772924286,0.4426248759,0.0699815298,0.4939681789,-0.2831595662,0.571350463,0.1758507961,0.8543087232,0.3880118826,0.5964986509,-0.0621885814,-0.4257187913,0.4214013282,0.1664723363,-0.2041227646,-0.398583919,-0.2790753125,-0.1475479675,0.101807143,-0.2318866378,-0.2116915204,0.4978112291,-0.6903261327,-0.5356108177,-0.7595564991,-0.9749627757,-0.7081777055,-0.7809767604,0.3516045158,-0.0718334981,-0.5226120063,0.253312419,0.2099960736,-0.6963675427,-4.2289291729,0.204808719,0.2812074866,-0.5225555551,-1.0256603073,-0.077159225,-0.3037598839,-0.641038726,-0.1804953387,-0.4338361585,-2.0026590371,0.2362965913,-0.5810286956,0.1840777024,-0.5574680125,-0.6286122569,-0.3352895339,0.2200499574,0.2011217615,0.752826725,0.004084475,-0.5101564306,-0.7739992258,0.5499338078,-0.4519269167,-0.3127109855,-0.1066457852,-0.2488816204,0.4038873278,-0.3118491096,-0.4967662407,0.8254733509,-0.090777856,-1.24290811,-0.3783629049,0.499977278,-0.2426356705,0.3714635704,0.4373421022,0.4514127296,0.4601040494,0.3558093591,0.0043330525,-0.1392840306,-1.3668726045,-0.3649940268,-0.2090773887,-0.1298721937,-0.5525192278,-0.2196368904,0.0888526082,1.155723248,-0.3108442101,0.8240752707,-0.0122227023,0.4650934368,0.0992980024,0.1251036811,0.1152525647,0.3371430896,-0.1093264501,-0.0076643287,-0.2693012968,-0.40468105,-0.2986218997,-0.1300350971,-0.5565084161,0.5341647264,0.5538125219,-0.5340775639,-0.190409537,-0.3037425113,-0.1683678838,-0.0462816958,0.7625523679,-1.1977206018,-0.2330763381,0.6072445083,-0.2753416072,-0.1129801475,-0.1537248665,-0.0710538327,0.447422743,0.363016713,-0.4428387292,0.1827295727,0.2390443072,0.7697826964,-0.5382445572,0.1954528885,0.2543116443,0.6938834096,-0.0679940352,-0.0372332441,0.3983509636,0.6812959258,0.2618705378,0.0375790429,0.5901095658,-0.5901858223,-0.1096185205,0.2207468748,-0.2331598129,0.398398766,-0.5055332225,-0.4452832068,0.0141781356,0.0878700637,-0.2632192389,0.4040807398,-0.1658069465,-0.9042452042,-0.4095281768,0.4281803478,68.4960222145,-0.3003853335,0.4967071487,-0.148296914,0.5554536395,-0.5073146271,0.3116625951,-0.0102448032,2.6778019041,1.0929296847,0.4447071588,0.3253315392,0.1366654311,-0.1641012879,0.6306901874,0.7433510179,0.3642917465,0.0500733933,-0.442530758,0.6380513762,-0.0573361124,0.703231312,-0.0212889,0.7440361945,0.608715549,-0.356998357,0.1866804242,0.1867570657,0.5197377706,0.4738426284,0.5466264356,-0.3340380463,-0.1866476496,-0.1791356022,0.7678343719,0.0954058577,-0.4252009375,0.3127365197,0.1320147662,-0.077384664,-2.4141024389,-10.0722544381,-0.3522171232,-0.1470014242,0.0681567925,0.2284401883,0.0940690143,0.4140539744,-0.1337783741,-0.8358311427,-0.4733016505,0.0058396271,0.1916804625,0.0546836486,-0.2952061167,-0.3164728149,0.5228344688,0.6471447949,-1.3410075736,-0.9941900642,-0.3922911096,-0.350753243,-0.4025733278,0.3560809896,0.8029648193,0.5053909021,0.2484773525,0.0474630107,-1.8944617429,-0.3941012964,0.582108261,0.3564979373,-0.1632965736,-0.0975326744,-0.4417480788,0.9163901145,0.0630015499,0.3570305747,-0.09972726,0.2415879225,0.9428998261,-0.0081166406,-0.4774609476,0.424136897,0.6429590875,0.8883717093,0.3785587008,0.6068922508,-0.2966869052,0.5451475876,0.7546637591,-0.2037382885,-0.0406759581,0.2218479823,0.211965679,0.315200339,0.8181967267,0.6020005087,0.4121896549,1.5935402575,2.8143782718,71.285012486,0.39966262,1350.9638713057,1645.9501927212,0.2680523738,0.919590146,0.3124045977,0.6862695627,1.3164493433,1.0863169491,1.1765495354,250.2811368552,34.0408535882,2.8377675556,0.7769475004,0.9793630467,0.0405063047,0.2568870386,0.2210562489,-0.9213915979,0.6008676898,-0.2075480415,-0.6533159249,-0.8102302519,-0.1672994723,-0.1357651326,-0.4814898006,0.949117588,895.1664428648,7.7521295361,-0.4283450253,0.731868093,-0.9199228951,0.4527227437,0.0407529113,3.6736424855,4.5877962363,0.4699096599,34.1307896871,3.5264089263,0.39776789,0.7820948584,0.7093159787,0.694999947,33.7961358873,8.5335545953,1.5930651733,0.2618823735,0.0586453998,11.9587485073,-0.5095551305,69.7917293027,3.9735482546,671.1481103316,0.1766261593,0.5778694111,0.3834506276,0.2478918254,28.8670896103,5.738868795,-0.4707922993,87.6995126623,0.9890868073,0.8823833412,0.6639511582,0.8091108711,0.1515406024,0.1494826983,-1.6386852405,0.3886848092,0.4522016536,7.4254142328,274.1455585452,309.0813536878,31.9621255401,1.1370278293,0.8074314348,0.3273382415,17.5872267224,0.0162688648,8.9650782386,899.1914557267,89.9761047751,6.4404360433,2.3573406168,0.6274152681,0.4102458922,0.8557837993,481.4886538902,-0.5505794153,96.216283377,3.1892801848,0.3424647075,-0.452195456,0.9224345144,0.322411836,0.1621528089,0.058433067,0.3613044106,-0.3450170719,-0.4507067042,0.0507563314,0.0401964553,-0.1521961096,0.3184179051,-0.6585786891,0.7468388249,-0.5690410355,0.579350254,0.0356362857,0.0916077369,1.8807855931,-0.1977108253,0.1363196101,-0.4809381102,-0.0937279547,0.5622430989,0.6883331007,-0.2382068609,-0.0081056665,0.411365992,0.1507502386,-0.6030011151
   0.3429359214,-0.7506028487,-0.2924715367,0.6003400613,0.4870179831,-0.2510078254,-0.2738938615,0.3480154978,0.8701734888,0.5355985327,-0.5452207414,0.0972442693,-0.5178159585,-0.5941395236,-0.0873983791,-0.3105702952,0.4805241484,-0.6087453008,0.0515383572,0.3048044892,-2.5940390892,-0.2443264157,0.0715493711,0.2335980457,0.6713883501,-0.2444499242,0.3965056881,0.3008739861,-0.6136471248,-0.6616917759,-0.3242382826,0.4481730106,0.1430860965,-0.2784367206,-0.474215977,0.7170961032,-0.2220589582,-0.2484448531,-0.3840591599,-0.4536320102,-0.4916234316,0.201069729,-0.5970187852,0.7689451104,0.0130690788,-0.1894390005,-0.1587581531,-0.2424907751,0.3009292459,-0.3663189739,0.3349537252,-0.1356352456,-0.4361923223,-0.3468607926,0.654756837,-0.3224975377,0.1115455831,0.4164064025,0.2870680586,-0.1518748494,0.3201393668,-0.1112954997,0.5606799231,-0.0871018832,-0.5779679914,0.0307634964,1.4393840589,2.5888150235,0.1824112064,0.6597799486,0.0391078729,0.3691144043,-0.1296229187,0.1192204955,0.1420994416,0.6352736406,-0.2962025628,-0.6987229613,-0.3583909731,1.1377554986,0.3746858263,0.3144851544,-0.0245989428,-0.0042497509,-0.0123346216,-0.0726936273,-0.0484460931,0.3606463829,0.276495998,-0.3823398833,0.4529676146,-0.0170422685,-0.4057828753,0.2792088678,-0.7053578493,-0.5861644048,0.3195457937,0.2329973716,-0.4630897222,0.350874831,0.5355286848,-0.5774993523,0.0568752246,0.0718765464,-0.0821380326,-0.0742944075,0.7446023178,0.0842707113,0.7226477232,-0.5953672584,-0.6456624925,0.1887945077,0.5774970871,-0.2871589837,-0.7044344722,-0.0107314011,-0.3813638412,0.4728832164,-0.5553030288,-0.1253548706,-0.4852101388,-0.3130515039,-0.6813040216,0.1184952499,0.6503577303,-0.3320719316,-0.0434178959,0.3392226895,-0.2387757663,-0.0674650793,0.1016378447,0.4841573109,0.6597927521,0.1471413566,-0.3615673536,-0.5332100731,-0.4126877625,-1.7970046636,0.4687049897,-0.3577106452,0.1037048138,-0.0176164184,0.2583560487,0.4858457641,-0.100566705,-0.3046553613,0.1082879681,-3.6239449732,0.248302241,1.8917611673,0.327354322,0.2109369737,0.1250350771,0.3903946874,0.0616798657,-0.3818865757,-0.538586308,0.1581177574,-0.4759003883,-0.0541159224,0.2467208455,-0.2562247332,0.8788311378,0.6244432547,0.197754713,0.1427496142,0.4170552246,0.6484704202,-0.4842947153,-0.3020477676,0.7456597069,-0.1962889842,0.8548331917,0.5214257905,0.5506229577,0.3346078991,0.6287324044,-0.8752161319,3.3746833451,1.8005758416,1.8492002728,0.7998173097,0.8729258203,1.3382516071,-0.0868423358,0.4832350513,0.7443216984,0.4530240975,1.9097157219,2.0735512912,1.6660903512,-0.1315095722,-0.4717738875,0.3942491093,-0.4312301819,-0.0209792088,-0.3393332976,0.4883402338,0.7586438885,0.8244469899,-0.3081144361,-0.5244970532,-0.5220809637,-0.2097076713,-0.7712409466,-0.292459973,-0.2729900982,-0.4772950671,0.1083448246,-0.2182426656,0.1658141582,-0.1809751823,-2.0594368181,-0.7243834847,0.5401212673,0.1721352152,0.5345493101,-0.2105561648,0.3210728282,0.8594505706,0.2932516343,0.4473138343,-0.566365421,0.0042122916,0.2930473772,0.1081806611,0.8229354312,0.7125306169,0.1648986841,-0.6344736733,0.0521349345,0.4724481893,-0.4760011919,0.0941227489,0.5914661096,0.5685123878,0.6820769196,0.7322195029,-1.2660746413,-1.7475794947,0.2408558594,0.1840584847,-1.5255433952,0.4660429958,0.5160026671,-0.0369920078,-0.3945441079,0.8853430049,-6.174075739,-4.7243588303,-0.1519527941,-0.986937546,0.2554556155,0.1288210726,-0.1186186909,0.3270370403,-0.106473466,-0.0866370167,-0.4862605007,-0.6873554299,0.3731752614,-0.4348964742,0.5779365343,-0.3710707409,0.68402232,0.0221320674,-0.130522257,-0.3719276206,1.2091189498,0.029164183,0.263577911,-0.0996528583,0.0656552613,-0.4114167685,0.9082819137,0.4791107799,0.2580638822,0.0501035017,0.8360101203,-0.4802358823,-4.7890283293,-3.6099658753,-0.3487408938,-0.6271941897,-0.263952452,-0.1271538434,-1.010402655,-0.3713869711,0.1936195993,-1.9649313144,-1.0927262453,-0.5352825254,-0.4700908458,0.0858872581,-0.4442203792,-0.7680078144,0.2044784741,-1.1583978065,-0.961901535,-0.5249801835,-0.575643451,-0.8111554843,-0.8107110484,-0.2468185244,-1.1834980386,-0.8749142304,-0.271003504,-0.5356987668,-0.0772728108,-0.1728071506,-1.0129787893,-2.9606986549,-1.6141953111,-0.0980009462,0.0343139806,-0.3900071566,-0.8558670156,-0.6828125875,0.4546014013,-0.9050558827,0.1298210291,-0.8350749337,-0.6914133592,-0.1017236651,-0.9519239808,-0.5012963704,-0.6823944934,0.1927767366,0.5703347432,-0.5331398938,-0.2009635722,-0.9846745175,-0.4425298998,-0.1653832717,0.2211629446,-0.4895037392,-0.7740200202,0.0763314894,0.1475986763,0.3183590867,-0.2789842247,0.2443669338,-0.1871986694,0.0767829444,0.1962408114,-0.7431740124,-0.7716683855,-0.4754351896,0.38215525,0.2076834217,-1.0025931588,0.0388662791,-0.7319786379,-0.2283949004,0.0929884176,-0.3098276776,-0.3132352284,0.1068573554,0.131156473,-0.0537454332,-0.7087669135,-0.5714670069,0.2250702773,-0.0896564777,-0.3918463803,-0.2125194586,0.2104064638,-0.5480936205,-0.2759875885,-0.1848570256,0.2027455914,-0.4198097751,0.0527893336,0.1205809406,-1.0575088175,-0.4720129304,-1.1589683196,0.103687707,-0.2929488938,0.2923727292,0.0929096418,0.1445568138,-0.7373991479,-2.5349397738,-0.7624342887,-0.0833882214,0.0080567355,0.5578112201,-0.7597060874,-0.6587375363,-0.9651038167,-1.5892512684,0.1118698978,-0.228076628,-0.5022942982,-0.3936035335,-0.5075359782,0.5624890214,0.2865779534,0.0890721073,2.4766423493,0.4653063819,0.5739794289,-0.5473682855,-1.6409122217,-69.4163859758,-59.6526427055,0.3784579878,0.4190059729,0.1115391389,1.7753567872,-0.4121462187,-0.0805768153,0.4317893483,-0.5541552988,-2.9931402075,0.3591409236,-0.4803617964,0.7506183089,-0.5986875394,1.3145760241,0.5225295273,0.7228679759,0.7254464815,-0.6411136195,-0.3534188012,-0.0825645709,-0.2704299558,-0.0268293742,-0.540912655,247.6030995577,0.7441881879,0.4668912021,0.3878147931,-0.0781449251,-0.6795803134,0.5980836714,0.6981777126,-0.181902975,-0.5378807782,456.1461741217,-0.2977785856,-1.2373268465,0.590812992,-0.25945235,-0.132875907,-15.485961817,-0.1316686236,-0.2721898506,0.230078191,637.9198672971,0.1557458748,0.2861676758,0.3761753961,0.668324283,-0.5835417964,-0.0998803694,0.100994803,0.4717024787,-0.382931804,32.6136106754,2.4053754092,-0.0052436306,-0.0254037371,0.3008900139,0.4887118965,0.3232049632,0.4962963152,0.1138508215,-0.040607491,-0.1559479593,3.00824497,3.6103995407,1.2724041909,-0.4428335168,0.5760313658,-0.3764007456,-0.3779248926,-0.6804158606,-0.3211749705,-0.9677837017,-0.6285174992,-0.4903277452,-2.5752941358,0.5435526066,0.7614439207,1.6608928039,-0.3091749364,0.3222278594,-0.028526416,1.9239101226,-0.0755625362,-0.1559513515,0.1013947635,0.5468866904,-0.3563472068,-0.4123776622,-0.2764401845,0.4478202025,0.038493701,0.6759569186,-0.2919140025,0.2400440102,0.5067560338,-0.1942843955,-0.4694649048,0.4212394715,0.1921151139,0.1257286579,0.3005697179,0.1660769838,0.4043007465,-0.8433762197,0.0119143948,-0.2821457488,-0.6454515102,-0.2859055066,0.3431764543,-0.3046834919,-0.5619120746,0.5215828167,-0.9241666083,-0.0254120529,0.2894527849,0.1604156439,0.1352535529,-0.4473026107,-0.3398754275,-0.0936188041,-0.1681813428,-0.3220996492,-0.6572934825,0.0772059592,-0.7168940361,0.5331094256,-0.5798185858,-0.701870623,-1.0182128131,0.1121831288,-0.6803609552,-0.7181449055,-0.7874982465,-0.6112586129,-0.6222657757,-0.0660636102,-1.0432033551,-1.2457417953,-0.4799954819,-0.7149920666,0.4147826368,-0.3153307982,-0.1524496898,0.2842247364,-0.4147665381,-0.2750803174,-0.7388369888,0.2152292185,-0.3465535118,0.3949478259,-0.6631831256,-0.6241535463,0.5962676346,1.1740611128,0.7447716312,0.7829238306,0.3503813839,-0.3904588457,1.103995853,0.2504784991,-0.2308434237,-0.7319625055,1.6424274487,1.8951664574,1.1592787318,2.4367875857,0.8384765046,-0.4352359863,0.9641107786,0.4931912623,0.016187384,0.0572561278,-0.2690736989,0.8095180498,8.0726112014,-0.5752875608,10.8924685137,-0.9353983408,0.4610274848,-0.5815039004,0.4636020999,0.453617007,0.1669314293,-0.5003737691,0.2484672208,-0.0969896199,0.7983686924,-2.3197704529,-0.3335554334,-0.2105594324,-0.0901924749,-0.3207263143,-0.6594910876,-0.7595216638,-0.3735599482,0.6416267199,2.35843104,0.0699445195,-1.1020094106,0.0477842909,-0.308542599,0.5033754887,0.3645949486,-4.1617527657,-0.5906734991,-0.5844235558,-0.4231044395,0.4530931375,0.2246313087,0.4141733059,0.7108493144,0.0864845579,-0.093884309,-0.2859905455,1.0450149881,-0.3632308366,0.3703796839,0.4230170329,0.0222074465,-0.6034570494,0.6265096844,0.6662244012,0.3569926182,-0.671003019,-0.5702054914,0.1459396041,0.4708008263,0.8510768362,-0.1769522321,-0.3270788536,-0.4639647491,-0.2178850057,0.1957564506,0.7911730648,-0.6121442704,-0.3792697002,-0.0055490057,-0.1586030464,-0.3939083399,0.2655700894,-0.6261371988,0.7470767985,0.5804655739,-0.6082714335,0.4326918334,-0.6156702908,-0.1446085802,0.759855205,0.5535917495,-0.0576594417,0.5701616081,-0.6205071724,-0.0527262955,-4.445069828,-0.1547580801,0.0483219949,0.448281168,2.1609939193,0.5953604096,0.437467071,0.6594549949,0.3497825928,0.7096376072,-0.5714633275,0.4675787133,1.8531884501,2.2574673237,0.7668543173,-0.366447104,0.0631655543,0.6114280628,0.2552220199,0.3250574644,-1.9142959994,-0.5525565613,0.3465004535,-0.3807173192,0.1579937949,-0.2043006514,0.487491893,2.0002073901,1.0650332964,-0.2934873211,-0.4362897486,-0.8194222124,0.4519602022,0.229873704,-0.2296525895,0.1321552524,-0.5366402268,0.2826307378,0.6184570217,-0.4897839938,0.5563436662,0.6543804107,0.8565677,1.7200130317,0.6492083177,-1.3437336218,-2.5416493465,0.0915697617,-0.146957236,0.177905683,-0.595434949,-0.2472169594,4.261127381,1.4303952283,0.7920411863,-1.0559576009,-0.0862076745,-0.9041619637,-0.5090463917,-0.175729089,0.1489532088,0.6528466048,0.6940496472,-0.6131081074,-0.1220208904,-1.8486981665,-0.7906512568,-0.4568963541,0.0287878506,-0.0776415944,-2.5279970143,0.5768281692,-0.4070577989,0.1564789355,0.098611067,0.2498785679,0.4135177728,-0.4666235818,0.1334350902,-0.1271000219,-0.7902265699,0.6820593325,0.5984391942,-0.2796459717,0.5032754037,0.6440813697,0.580283497,-0.476337715,-0.5971130039,-0.3970181508,-0.6691277205,0.4490666056,0.0877408735,-0.1085944059,0.1245109998,0.8277285921,-0.5352469505,0.6274845811,-0.1393558427,-0.1056971854,0.8065244968,-0.2537443625,-0.3119535029,-0.776938455,0.8159806179,0.2262653306,-0.1758996582,-0.3816651692,-0.5273638772,-0.0797621047,-0.2109961853,-0.368378196,-0.0782340173,0.4541934591,0.5997888465,0.5800366604,0.7178120497,0.9228370402,0.5747837668,0.525948044,-0.4145175998,-0.0746573042,-0.8840876159,-1.7093612938,-0.1001005995,-0.5013971697,-0.3117803311,-0.4807974992,-0.5975120701,0.0560119211,-0.6058550005,-0.4013858028,-0.8316244728,-1.4459185605,-0.9962114044,0.2144796341,-0.4428623339,0.2139962958,-0.1876198175,0.0555241746,0.0340708022,-0.9654485068,-1.1594105591,-0.7972202148,-0.8794648022,-0.9064815646,-0.9866987697,-1.1292789625,-0.0111060127,-0.4573266839,0.1102127054,-1.1472707441,-0.8721340785,-0.4400037137,-0.2373226587,-0.4931551773,-0.0529726158,-0.6068542616,-1.1097927825,-0.5336978581,-0.9727982986,0.0011761315,-1.0612058473,-0.2155919669,0.0402521138,0.6974251499,0.2186757474,0.3266676199,-0.730417836,-0.7870944646,-0.2760303023,-0.2826697106,-0.2014039121,-0.0913805515,-0.2979734492,0.0039408795,-0.0911972421,-0.5435300398,-0.1957176828,-1.0006643624,-0.5003013236,-0.9212005966,-0.9134113928,-0.5102233064,0.082357892,-0.0737420955,-0.3391480856,-0.9463790438,-0.9813362604,0.149412712,-0.6841274756,-1.0094424662,0.1165425634,-0.0869645376,-0.0110938415,-0.2213330881,-0.7604085598,-0.6335352192,-0.1627545395,-1.101704363,-0.658904111,-0.6682899751,-0.127289832,-0.5685217723,-0.3785190756,-0.539545958,-0.1185751375,-0.8562995481,-0.4320479005,-0.2198384316,-0.799929534,-0.7318472777,0.6159034064,-0.7489656049,0.6771127632,-0.338844769,-0.1437222417,-0.5668064938,-1.0120791295,-0.0565078841,-0.0678989968,-0.0266512108,-2.4159844416,-80.5953136719,-6.2617846399,-0.7234100442,0.6104349006,-8.0083226331,-13.2859245473,-0.3641490259,-0.4050738744,-0.5058897648,-0.2719231067,-69.136159382,0.9286612481,-0.7804174691,0.07651875,1.7318959545,0.4407045769,-0.0485616681,-0.062216846,0.2113804163,-0.4825028386,0.3611915351,-0.1124252855,0.2054180443,0.9195532571,1145.6427385055,102.165157139,1.0164774059,0.8562486051,0.1612524664,0.2673627786,-1.9714315322,302.4449416122,9.5453683203,1213.8428326326,933.0103141487,41.8848969866,0.0758550072,-0.2150177706,-0.2024706488,-0.7015605449,0.4657249811,0.438056438,0.7960948475,0.4241059128,0.0492364874,0.836881468,0.0443355212,-30.9881498746,-2.4375742609,0.0326242913,-0.0468994557,4.4887009511,-0.3693062515,-7.5992806719,0.8085900475,0.1647971328,-0.4117621448,0.6957829955,0.2333883444,0.0327482585,-0.252826689,0.0329137558,0.7776734628,-0.541318522,-0.0100692905,1.0423861129,0.6380196781,-0.6857028055,0.6064265939,-0.3608999129,0.3604501464,13.5912390672,1.9757854126,0.4336464006,0.6066305807,0.1636211004,-0.1582421689,-0.4054532638,0.6651245063,0.4092956895,0.1956726244,0.1980518025,0.004557198,-2.6739874198,0.5556138966,0.9377852447,0.5546772849,-0.2009627746,0.6168461272,0.861287975,0.5873404784,-0.3287669134,-0.3552506583,-0.045848172,1.6614672048,15.6779063387,0.3842220715,-0.3656196243,0.0283979611,0.3268243464,0.4557971402,-0.1387917406,-1.3065200692,-0.6921407043,-0.2230350164,-4.4095514571,-7.3632930504,0.1585434218,-0.3560360447,0.4202694058,-0.1482367945,-0.205458741,-0.4087076143,-0.1449664037,-1.1211782401,-0.0639615083,-0.0004536408,0.5752751581,0.0188021758,0.0450352904,-0.434829701,0.5512423336,-0.6787891499,0.2665257079,0.1522332247,2.4952616989,5.2518720929,1.0380938389,0.2060567281,-0.0578426725,-0.7937007416,-0.5224176662,-0.1316208109,0.5991674681,8.4502596916,5.2573301619,0.7000158485,-0.1410230272,0.4360505312,-0.5691717452,-0.0682460292,-0.8150384017,0.2380525665,0.6645892538,3.3514462036,-0.2438713849,0.248539296,-0.0117857755,0.3596008114,0.5390020119,-0.0216426683,-0.8569401144,0.3251984165,0.7668414693,-0.3237956744,0.3831350604,-0.0138567154,-0.055099784,0.2309646451,-0.7145763338,-0.0810394481,-0.3744030637,0.0469105664,-0.082493787,0.0427302592,0.1242580291,0.4684433806,-0.6990342332,0.0282819478,-0.6767671729,0.3533247575,0.2869683452,-0.5295096224,0.074282121,0.0710078364,-0.4889893179,-0.077966088,0.0219232272,-0.0973219039,-0.1241791633,0.0694194452,-0.5483685027,-0.5536541758,0.0279072822,-0.9586053997,-0.7841002855,-0.086732617,0.4018410283,-0.2071419201,-0.3617680262,0.5483972576,0.54041843,-0.6782342128,-0.1119655784,-0.2406023848,-0.0150102647,-0.2009466166,0.0774934628,-0.2166107307,-0.6495548897,-0.629473355,-1.3802193878,0.5895691424,2.2141472891,1.7353051643,-0.3100168415,-0.6098110267,-0.2324760409,-0.343486628,-0.2512360068,-0.1749918159,0.7364647084,1.0133871937,1.117417717,1.3333162082,1.4528175148,-0.3677327246,0.2102706645,-0.2167729544,-0.4518902321,0.1620627892,0.8852245142,0.4028562715,0.0256484328,0.0030813407,0.3434856452,-0.6546974447,0.3800928857,0.3632504693,0.0586587135,0.8195747215,-0.1888711193,0.2762875512,-10.2334626773,-1.3087955539,-5.0362664675,-1.600733523,0.0992780709,-0.3118532196,-0.0721022245,-0.2229916099,0.0695368854,-0.2697681705,0.023297383,-2.9968932785,-1.3907148987,-1.2577962604,-1.0074920863,0.3632666343,0.1950967782,0.6111138964,0.4622770893,1.8524914244,-0.0070023213,0.0743425386,-0.2961192064,-0.8213522008,-0.6537669292,0.0022681417,1.0375914246,-0.2601973521,0.1593007011,1.1895982932,0.0161362058,-0.4284229058,-0.4688797812,-0.6235802004,-0.5035357694,-0.3116274413,-0.3846624117,-0.2909673041,0.0595999083,3.6677837082,0.3155590034,0.9883641487,0.3353943977,0.2134381117,0.5113685497,-0.3797525212,-0.3581503463,-0.4107893265,0.9084898601,0.6445529484,1.4953059425,0.7091644213,-0.364811033,0.5989442402,0.4376460829,-0.2383741748,-0.4581791127,-0.5544955028,0.6210559459,-0.3124383329,-0.2280894285,-5.0795857957,-24.0453936377,-9.0729849914,-2.6659131928,0.2536467433,0.2111627114,0.1810135019,0.6795168536,-1.3398918406,-0.6578107285,-3.8369683922,-1.767313755,-1.4602311306,-1.3631529276,-0.4317986435,0.3103343301,0.5581485691,0.2556785327,-0.0151824621,-4.421005648,1.665949914,-1.268934271,-1.3300536455,0.0608694287,0.0650524881,0.3469484145,0.5279314263,0.4847317007,-0.0043979275,0.826272495,-0.45259532,0.0922506591,-0.1491757319,-0.4621538591,0.7222569907,0.7696305999,0.2449517946,-0.5157137801,0.7333867913,0.4795633299,0.6642690517,0.6241310307,0.7384010514,-0.408418181,0.7901906969,-0.0769271709,0.7656726822,0.7657385561,-0.0646449867,0.5777269834,0.4341015504,0.3367027883,0.5527947084,-2.9012742235,-0.9210068082,-0.555948877,0.0524800851,0.4038796661,-0.463392874,-0.4942131046,-3.1991270701,0.1548414192,-0.2355679475,-0.2471480391,-0.0410266703,-0.3801924154,0.0313661329,-0.4787990729,-0.4435286796,-1.8886754698,-0.0090466973,0.5839143557,0.2580085462,-0.5714152858,-0.3491943737,0.0047216547,-0.0652824508,-0.5757764905,0.8600151012,-0.1819796061,2.5264791339,0.038045233,0.0130035961,-0.3235799423,-0.3223533452,0.5130688283,-0.3835444395,-0.2155228756,0.3287088133,0.286151301,0.8171889679,1.7498486921,0.1644190878,0.7471424153,0.7647890666,0.2608342572,0.4606417019,0.8331749752,0.0442940563,2.6800490412,0.9185652916,-2.9260479604,0.7456520494,0.3088716645,-0.4510059088,-0.0074868861,0.3898066293,0.2458182815,0.2781888173,-0.7460978551,1.8334525131,-11.811202868,-31.4947522072,0.4179193999,1.5310101361,-23.1610535036,10.5926877154,11.1292914794,6.8628934811,5.0774797353,1.9621725683,1.8032508098,1.6079896486,1.8010042954,-0.9132342538,3.5857125667,26.6883290157,10.9658053007,5.1408427259,4.2664175389,14.9485368902,10.5803808492,155.7158806949,1.7650323774,1.8143226432,1.9013331937,11.0369313727,3.3747929423,3.0361894367,2.4698942197,223.392002721,205.4729619402,246.9821762602,7.9131893731,3.3380114178,3.4617885853,2.3256620776,2.508348109,2.2780923098,1.9422113311,123.3732660864,46.1564315689,3.0824705333,1.7077112711,1.6129758217,2.6980395168,2.6967297308,2.2364249783,1.4609847836,1.489158788,7.6439211793,4.572596764,2.191652318,1.8431489986,1.6283145603,1.8525129523,1.9149754931,1.4874896794,1.7017250541,2.1536899191,4.4106881091,2.0173391867,0.9041477014,1.9716953673,1.8925067384,0.5578416964,1.2754814936,1.3613708564,1.6374558478,1.730531081,2.3043698432,1.5684417366,-40.6116005211,2.5181164952,1.1355577516,0.3871393229,-5.9832687456,0.7629308423,2.5940034955,1.7264659836,-12.6699839049,-72.5576350262,-17.4543825412,0.5197151076,2.2151617492,-181.3224612487,-1.4152829888,1.9112269772,1.5721951109,2.4294418801,-78.2486875121,-4.8947765831,0.1249207005,1.915644873,1.8049511671,1.1461286462,1.500542148,2.5657339771,2.7337537771,2.5971509988,2.569937813,-0.713101161,-1.0443493144,-0.5568925037,-0.5109948158,-0.240057708,0.2332962918,-0.2007858722,0.4909832799,-0.0605109267,0.5031196046,0.5982274758,-0.5054642108,0.0905166639,0.382193757,-0.5907955841,-0.2969545472,-0.603863878,-0.590599871,0.1102575017,-0.7614653073,0.4452175175,-0.538886546,-0.7974073298,0.2715015984,-0.4840424692,-0.4329556706,-0.0505916539,-0.2617422293,0.1412474818,-0.1289317631,-0.5181150941,-0.1840517717,0.1247642562,-0.1260343178,-0.3765587724,0.1130998528,-0.0189006097,-0.6373260545,0.0751753339,0.3389154222,-0.5719281515,-0.7436484667,-0.3946926039,-0.0759821126,0.3576502065,0.1937279635,0.4193255356,-0.1196324185,-0.5261455957,0.5322445075,-0.1069297316,-0.5468062919,-0.4864508854,-0.5000963383,-0.485408377,0.3041172669,-0.6726106845,-0.2295010792,-0.0659719481,0.3781853768,-0.6629059169,-0.5237240511,-0.7053691045,0.6583956836,-0.2185793263,-0.6052083571,-0.5976745667,0.4716069554,0.0723427995,0.6187758139,-0.7451224784,-0.5969648445,0.3484730791,0.6612158981,0.5961664977,0.2798353766,0.1984091373,-0.0467717193,0.2415133458,0.650679027,0.3212073993,0.0395372028,0.027465832,-0.0229160761,-0.6411786515,0.2441673304,-0.6368515349,-0.1962296092,0.639748376,0.1809099217,0.5863713834,-0.7493081105,-0.4340499207,-0.5856018326,-0.3503919248,-0.5296244338,0.5291259232,-0.4528696661,0.6297137211,-0.6245502013,-1.0396498653,0.575306794,-0.3486864858,-0.9096648048,-0.5184329382,-0.182980098,1.1126564291,0.3861692587,0.5553612885,0.2336301587,0.2442832954,0.2255786163,-0.0900304328,0.1300885281,0.083564727,0.1052149977,0.2512079235,-0.0078040488,-0.2986288146,-0.6488949214,-0.2355820822,0.0185575948,0.6065321193,0.097065814,0.6448335355,-0.3201299089,0.2913217188,0.3590865187,0.4741226288,-0.0064226456,-0.5115548964,0.2505025502,-0.3637236768,0.1468720922,-0.1875857324,-0.3753657861,-1.16154899,-0.6637385034,0.5429897346,0.1203556375,-0.4321756741,0.6248940955,-0.5803653661,-0.391475722,-0.707502218,-1.1320775084,-0.181682985,-0.3402775634,0.5213211414,0.4592040274,0.1202767942,-0.2676083952,0.1756023009,-1.1851958369,-0.6366855761,-1.0533150509,-0.7065574239,-0.0263933792,-0.4801416975,-0.1582788974,-0.3156875168,-0.2121071598,0.1047150894,-2.0398450259,-2.1727682348,0.1231388574,-0.523670545,0.11067162,-0.0709662844,-0.3749925773,-0.2473020758,0.2101155933,-0.6136551152,-1.2035779985,-0.1320940119,-1.0798353476,0.019217444,-0.1330777087,-1.232165857,-0.8933373058,-0.4879678545,1.0356382487,0.0563084403,-0.2532298342,0.3740548534,0.4733553084,0.4964418384,-0.2114441248,0.0136041446,0.5323149445,0.2111625643,-0.2181772541,-0.7016926327,-0.1755601707,0.1935440532,-0.3381883761,-0.4491312384,0.1827934892,-0.4918345153,-0.5182209407,0.6583894818,-0.5032932506,-0.4153389856,-0.3943746246,1.3832554504,-5.4454055368,-2.0628761851,0.896004756,-0.5024137944,3.7883703123,0.151410753,0.0390854782,0.4173896253,0.0972933128,0.096774756,-0.6320454574,-0.0664142407,-0.2280557096,0.355510126,0.6617051184,-0.1143345582,-0.2469875975,-0.2418343644,-0.4169793282,-0.5160593154,-0.5727516015,-2.3050063962,-0.2795240045,-0.3534939138,0.5520653778,-0.3944393293,0.1746462703,0.5794652159,0.6863325106,-0.4109805306,-1.282559661,-4.2832774662,0.1386486595,-0.5906126076,0.6709802889,-0.3801522051,0.347001262,94.6181392725,-0.2114419046,0.339565856,0.6596531424,0.762598034,0.438979679,0.0870332904,-0.3390644261,-0.2015230024,-0.8132081261,-0.5826736025,0.3228558902,-0.4484371189,33.5741471573,-0.0102722618,0.7230788072,0.5039110079,0.797763376,-0.6169537946,-0.2062104329,-0.636504902,0.263254401,0.3183996946,4.0562127833,-0.4873059491,0.5567466076,0.2346098864,-0.5369478417,-0.1812904326,0.4807231966,-0.077825948,-0.3050357986,0.2135499885,0.7221865547,0.8249241675,-0.2700086986,-0.5989651345,0.8133941598,-0.2035532103,0.5544684161,0.1931651901,0.2025233297,1.2122996168,-0.2896254042,-0.2546859648,-0.5328156304,0.1115017413,0.5948279259,-0.0507144226,-0.0974976892,0.7137781474,-0.3319457687,-0.3872373347,0.1162564468,0.113481394,-0.0165496897,0.7818505083,-0.1497720072,-0.1620155075,-0.2830913167,-1.369705446,-1.0985738004,-1.6163289666,-2.4504947125,-1.8942657312,0.1394612919,1.9831909579,-0.3543881748,-0.6241876938,-0.2546206286,-0.2391663276,-1.0769238884,-1.4753109727,-1.3153381697,-0.16994969,-2.0930804425,-2.5311901722,-0.991412933,-0.1372140131,-0.3796486862,-0.3890845063,0.2005796577,0.5092553743,-0.3512074633,-0.2742609291,-1.2648006099,-2.6866957003,-3.2362157227,-0.2345080194,-0.5907889584,-0.3672043996,0.5463648533,-0.1669982209,0.0370283346,0.1645690658,0.0149193817,0.1129699888,0.1043104769,0.4464771944,-0.081318704,-0.5017701297,0.9299197797,0.5295223,0.3448834608,0.3610251194,0.8888295412,0.4328597832,0.7343302409,0.2812005437,-0.0405188629,-0.1419789608,0.8882740706,0.008134584,-0.1602335219,0.0485428714,0.847332115,0.583038505,0.8219998743,0.0503676764,0.0194821199,-0.32094543,-0.4844026415,-1.3563819427,0.3381976273,-0.2135918012,-0.3920872564,3.4014103172,0.4270050256,0.3864666865,0.3372456345,0.584121721,-0.4154937346,-0.1590769635,-0.5370928879,0.2149911283,0.0584649622,0.6797969796,0.8622112534,-0.4873825331,0.5759332765,-0.4519561424,0.3958592922,1.8165804148,0.5137120752,0.7716519665,0.1595856774,0.6711233136,0.5103409093,-0.4407476342,-0.0967094877,-0.0868829966,0.541735727,1.9081390684,3.8163705591,-0.4220745521,1.924427625,2.4513336987,1.338144288,0.2517317806,0.6358569516,0.254694219,-1.5340103174,0.2453289481,-1.3219915506,1.4574799047,-0.0765215474,-0.2232619543,-0.1394340906,-0.5495604237,-0.7570008254,0.0820993688,-0.7123583552,-0.6049662417,-0.5367085319,0.1431413738,-0.5590299737,0.1442016033,0.4935783355,-0.6379207656,0.3538457934,0.0357421398,-0.4699755747,1.2035446404,0.1018352218,0.6754358967,-0.3887406783,-0.6656693018,0.5218381364,-0.4265314645,0.1226873474,0.3686831884,-0.0974333615,1.2949144431,0.9791432034,0.805888878,0.5868627653,-0.3560924226,-0.1065567531,-0.4357730687,-0.5071210598,-0.1065291315,-0.795989366,1.3767141876,0.4022404268,0.6154301927,-0.4138696794,-0.1545282311,-0.4704112773,-0.5869104893,0.2797580934,-1.0654820716,-0.4802096377,2.0101930871,0.1502965928,0.529023802,-0.0456696398,0.4485225171,0.4065725242,0.5707866889,-0.5333437579,0.2834128258,-0.2911004806,0.6466813014,0.0266953427,-0.5360626173,-0.5004894653,0.1795424235,-0.3767226488,0.21550693,0.3234362883,0.4700104549,0.3424773605,0.9263343746,0.2950431749,-1.4109650995,-0.2929101399,-0.1301024754,0.1451200914,-0.0109655207,-0.3625757392,-0.0234936195,-0.2984701002,-0.2040171532,-0.6993064035,0.266988497,-0.3212281828,0.4838513256,0.1257573865,0.6942436505,-0.0642337776,0.5444020369,-0.6025199439,-0.4183025912,0.1930661911,0.9870057755,0.4829242237,0.9238739335,-0.6095207743,-0.1485889412,-0.248440867,-0.5891094029,-0.5679986593,0.1112244394,0.248422818,-0.6866190624,-0.5479887378,-0.0013145322,-0.1094020452,0.5980036522,-0.8319687234,-0.7528837873,0.1354136261,-0.1467115783,0.399794343,-0.8338668036,0.6096525528,0.2235822517,0.1543979756,-0.7184097726,-0.3438018251,0.3215454594,-0.5757350898,-0.7056749339,-0.6077449905,-0.1873025421,0.400470052,-0.9013325695,-0.2621551419,-0.2105530676,-0.3488793179,-0.434209137,-0.3588159742,0.1584262896,-1.8709781945,-0.4324969402,-1.8276556116,-4.1485185751,-0.0557771616,0.6033989204,0.1741337854,0.6015667254,-0.130094835,0.5422346103,-1.1498461528,-0.4118203421,-0.8607778447,-1.2884992196,-0.3824077354,0.3898771817,-0.4383190952,-0.3990844126,0.387372211,0.2789933929,0.2367578766,-0.1939204547,-0.4213366429,-0.9425479364,0.0797128642,0.5562939061,-0.2838210195,0.0952018208,0.0252981351,-0.5849635973,-0.1547949198,-0.2734600729,-0.8752544175,-0.9451697759,0.3642212819,0.0187075358,-0.8869525082,-0.0168943304,-0.6600178627,-0.4441338565,0.2535065871,0.0294960346,0.4236057747,0.5481255284,-0.2812073735,0.0174893113,0.2106578916,0.0029219958,-0.523966944,-0.7577879185,-0.7969173387,0.0290797724,0.1369886532,0.1905566759,0.5242475505,-0.2374498184,-0.3905491064,-0.6542920758,0.5512196829,0.3255050129,0.0421983028,-0.3206111262,-0.8299865786,0.3618778429,0.1505541747,-0.8492406589,-0.7950323853,0.0275681248,-0.3402610948,-0.5028843279,-1.8947278601,-9.1854885325,-5.1415528297,24.275602386,-0.7388232033,-0.1370147972,0.5912080212,-0.1464351899,0.0016358811,0.127787049,-1.0490557535,-27.7994224983,-7.656525724,-3.6336534372,19.4911621512,-1.0065812912,-0.4979479478,-0.4671408617,-0.7003600986,-0.3035899242,-0.2890346788,1.6427136359,-1.8318708172,-0.0107717652,-0.9153214087,-0.4695050196,-2.6969864771,-0.0927759569,-0.8419894806,0.0886949774,-0.5957731185,7.2814872832,10.6931374901,0.1788458875,0.1012117644,0.3209383542,-0.6894607701,-0.1876812514,-0.7883631214,0.2313383127,-1.074938545,-0.0012492617,-1.0852322405,11.1750491334,-0.6949422703,-0.4227041176,-0.5194214628,0.3149632924,-0.3631685214,-1.0434221894,-1.7804934442,-0.7178080936,-0.8344953999
   0.0551846499,-0.2096313535,0.2380668938,0.1556944723,-0.3130314475,-0.1611220615,-1.4293099945,-0.7799007003,-4.0389949496,-0.9452481368,0.0045276064,-1.0039866501,-0.8310746754,-0.7680540512,-0.4833558424,-0.3829395359,-0.190702893,-0.0530224608,-2.4316485028,-1.6903525928,-1.1563264435,0.2635409249,-0.01038118,0.3082304096,-0.3627379754,-1.02698253,-0.7525350952,-0.2859060526,-0.6710544078,-1.6838438722,-1.6938943123,0.2512623738,-0.9092915546,-0.2753573922,-0.6214359371,-0.257210642,-0.574526201,-0.2876090136,0.0744999533,-1.1873716672,-1.8620726426,-1.7086867576,0.0870621542,-0.6428160857,-0.9160335368,-0.8053225734,-0.1975592366,0.0591499282,-2.1402183159,0.4741300832,-1.118447224,-1.1198822153,-1.8079497138,-0.6319075915,-0.7960691721,0.0081477781,0.0749483043,-0.0441896654,-0.098471929,-0.0405342964,-0.6875066868,-0.3759518658,-0.4654380035,-0.7204123376,0.278963527,-0.423693869,0.0437006113,-0.5038418039,0.1723088109,-0.303251455,-0.6699942758,0.2672233702,-0.4308143721,0.1386568265,0.2149360129,0.5329868043,-0.1070747654,-0.2047949242,-0.1588672705,-0.7230791856,-2.6341139803,-1.7546139587,-2.5340740252,0.0333678139,0.1575877826,0.0028184307,-0.2935913019,-0.1872048897,-0.1010709902,-0.3398034868,0.0846373084,-1.4956994443,-1.6962575865,-0.9247783309,-0.6519967775,0.2060544532,0.4905455083,-0.0036464963,0.3235708981,-0.2726279675,0.4748287035,-0.2231005937,-0.1485924889,-0.7601129012,-0.0996508255,-0.3247280636,0.6001515572,0.2343110949,-0.0605459935,0.4030376532,-0.6395456367,0.0291388099,-0.5705493377,-0.7650995015,0.6191434271,-0.3405616398,0.3703096232,0.4730738833,0.1292206762,-0.3645714527,-0.3205994118,-0.2691704735,0.6387286602,0.541339265,-0.0665241904,0.0707199786,-0.5350863545,-0.1569248169,-0.227183611,0.2270756168,-0.3860440472,0.2278818139,-0.1613020098,-0.3882280073,0.3936252359,-0.5124186506,-0.004254752,0.3318097364,-0.2012703061,-0.6101152529,-0.46174948,-0.1007824189,0.2822880311,-0.0220707936,-0.5095782535,0.1000532113,-0.5174623988,0.196559873,-0.6449818651,-2.1477968229,-1.4251272878,1.8755508792,0.8601289984,-0.3424952878,2.9819194662,0.1216674947,-0.130918644,-0.1437095333,0.2700521782,0.8567340973,0.3821294119,0.9829450618,-0.1305080915,0.6656528748,0.5517399266,0.2655185494,-0.9848868891,-0.206259427,0.0115321286,-0.0951645422,0.6832350233,0.453626027,0.187530869,0.6225128187,0.0882532362,-0.4686542139,0.3532562911,0.5325972078,0.094765819,-0.340124762,-2.1560709563,-7.9482481003,-0.0734576239,-1.7623020021,-0.899163295,0.4515979039,1.0085162922,-0.0444457213,-1.1402929351,-1.1324176319,-8.7647443267,-4.5394508599,-0.7027564034,0.0522846668,1.1890013354,0.418199765,-0.1809687197,-1.2659057298,-0.7611191742,-1.1407101096,-2.0694909673,0.132009683,0.8963893084,4.4355946093,-0.0997687165,-0.0759687742,0.1178985622,0.7710903344,0.4363257564,-0.8834036532,-0.3438116886,-0.2853624219,0.0128869859,1.1128487325,0.0114944851,-0.0734096188,0.8808476017,-0.506497275,0.4287149558,-0.109307754,0.8357562127,-0.0037857486,0.0341910483,0.1656352153,-0.1945091303,-0.1089801833,0.1427945423,-0.2896714388,0.4892326705,0.1180213583,7.6793789586,10.9495075273,0.6007342176,0.6460012013,0.056382088,1.4547384481,0.6403984215,1.1735004086,0.9280614594,0.1067322391,22.0876877138,1884.1214825229,934.7400658654,14.0880863806,0.8918319855,0.1459698453,0.7369063137,0.6186201843,0.5721747641,0.5282687471,0.5389592556,0.6896316987,-1.651934996,-2.281391258,-1.0472230451,-0.4838171813,-0.7654057459,-0.9005823199,-0.7505249571,-0.0360768556,1.1295116922,-0.6011621402,-0.6850481778,-0.7999080912,-0.0765458624,-0.0007764917,-0.4639712524,-0.5960892085,-0.1424276875,-0.1670866537,0.3904600241,0.3883154338,0.3693040281,-0.3228421704,0.166994414,0.0519476571,0.8081343096,-0.5973582559,-0.6400986946,0.4468837531,-0.9083480828,-6.7344492185,-1.0488533578,0.2101262504,-0.2940023165,-0.2955127666,0.1450898781,-0.2807918981,-0.405183044,-0.2560773163,-0.6835561998,0.1443593616,0.3592400862,-0.2672313585,0.4347984553,-0.8917938897,0.3193923196,-0.7247662504,-0.2912370895,-0.2578146488,0.0862074006,-0.9336400694,-0.7541392477,0.3064141951,-0.5175917577,0.0343567876,-0.7938191203,0.4204408601,-0.6491754014,0.0591304337,-0.0352969174,0.1053311296,0.3718561657,-0.2612083037,-0.3549162419,-0.7361213773,0.1243657004,0.5017287432,-0.2753310584,0.2821629903,-0.0627631986,-0.5683564507,-0.2774054341,0.2189306215,-0.2000853091,0.2281617925,-0.117911859,0.1403444184,-0.2643781514,0.335970731,-0.7123998761,-0.6614053251,0.1318103128,-0.5800561652,-0.2642039552,0.0909329082,0.4482060695,-0.6566229758,-0.4650249931,-0.1957679297,0.2924584645,0.3509442393,-0.1290609346,-0.7679305858,0.0778354041,-0.8060283134,-0.4807902022,-0.7937179678,0.2279520181,0.1414761811,-0.8635909136,-1.0798117588,2.8521971008,4.8822521604,1.0986298145,-3.1058623424,0.6934349758,0.0135458485,-2.3554743204,0.6312743465,-1.630977399,-1.2456235028,-0.0353864788,0.9387953505,0.010592641,0.1632998171,0.0037261787,-0.1194423359,-0.0547613312,-0.6355850565,-0.6183424096,-0.2010591107,-0.0399230165,-0.4355395183,-0.0839290056,0.0597869239,-1.0094156687,-0.3127874689,0.1241880127,-0.5175083534,-0.0690218798,0.0354615652,-0.5062226854,-0.8728757925,0.0946475908,0.008683126,-0.8168643238,-0.4749390492,0.0158233915,-0.1538719734,0.3024273617,-0.2576144882,-0.4252063723,-0.6334705509,-0.7470725337,-0.2788293253,0.0499006947,0.1535036671,0.5020233015,-0.4033072339,-0.3743018576,0.426151116,-0.6902691483,-0.5462315632,-0.9594288817,0.1975132704,-0.801856553,0.3596778693,-0.1425451243,0.1459955742,-0.6521500982,0.3772682041,-0.2248450176,0.0510393649,0.6603497713,0.1568197591,-0.7685989028,0.3490165487,-0.4378288739,-0.2653890791,0.4497616077,-0.1640090478,-1.0003635574,-0.5360012179,-0.329229358,0.161592256,-0.6706429438,-0.6582862205,0.1643364597,-0.652808043,0.3285597661,0.3230352032,-0.6037768633,0.5041395538,-0.2347161839,0.1382714634,-0.3299065138,0.4732843464,-0.6052265569,-0.6759547833,0.1820159518,0.5782502066,-0.0471587348,0.8340483848,0.8996107895,-0.3914281041,0.3903866103,-0.3405487366,0.1995673332,-0.1784435129,0.0000910201,0.2304998925,-0.2606063467,-14.2514076627,-1.0264613362,-455.984571056,-1.7469948297,-0.9228722591,-0.4954224625,0.362103966,-0.4747693562,0.5997130255,0.1025273461,-0.6244831599,-8.102920561,-0.8622385439,-0.5748587536,-0.1794804764,0.0088012167,0.308304358,0.596845601,0.3935092332,0.6465365008,-0.6235765976,-0.4528451411,-0.2194777062,0.2006936683,0.1913109552,0.1234158248,-1.0970583841,-0.0352836895,0.3011997084,0.1049675788,-0.4592590818,-2.0425949021,-0.1482883086,0.3723403548,-0.5739570322,-0.4812809851,-0.4706788766,0.5130096399,0.6192098257,-0.1110957541,0.0110319128,-0.5247470918,11.122668143,-2.1325926014,-0.1685252144,-0.6476418082,-0.6124409948,0.2927572544,-0.2375379175,-0.5994364962,0.235519949,0.4795773887,-0.2965400128,0.3404620725,0.1050351809,-0.3474799732,0.0420873239,0.1911125666,-0.6136072411,0.4282867795,-0.3053215199,0.7135102384,-0.2253515748,3.3399136366,-0.6574448534,-0.0223204753,0.2973103663,0.2955695424,-0.018142716,0.5833395215,0.7273268185,2.6881793795,0.6803881241,-1.5716940734,-0.4165104948,-0.3211215207,0.6604137373,-0.2723002074,0.5962933762,0.0582351492,0.4287184448,-0.0956859914,-0.0297213019,-0.6452909487,0.02285549,-0.6921525008,-0.0403886523,0.3880028848,-0.0131547689,-0.0515840349,0.1689955724,-64.880957449,-11.4519206924,-7.5065120717,-2.7755384043,-1.0463977115,0.6268946987,-0.2500568651,0.5298950134,0.4935294383,-0.7243336953,0.0077462468,0.4519336482,-0.172320917,-0.0703652152,-0.644700216,-0.6608753859,-0.5553830412,0.1562030177,-0.5698257585,-0.4035043616,-0.3817899899,-0.33340751,-0.6963981313,0.0838137311,0.0550702825,-0.4179959198,0.5133709814,0.5025054223,-0.2173588434,0.7225956903,-0.3384066334,-1.2111525381,0.0717309806,-0.235771592,0.6799734616,-0.0303174714,-0.0386062564,-0.0776059431,-0.4668041134,0.588201845,-0.9672632445,-0.392802861,-0.0421472508,0.1412237145,0.7796743243,1.126151088,0.4073165973,0.6401757445,-0.5714845605,0.5702473478,-0.7492764948,-0.1602102869,-0.1532662228,1.4044207315,0.3851215623,0.4395590289,0.1117807367,-0.2278518029,-0.184117416,0.7930169935,-0.0077008923,0.4937564652,0.624094286,0.2587967673,0.0519184184,-0.0866449143,-0.0320676649,-0.4417749759,0.6163110894,-0.0663521386,-0.7803767852,-0.2151011181,-0.4853384306,0.2766955241,-0.1802308956,-0.5828459006,0.0658964168,0.2747196642,0.5133234667,-0.2968702346,0.3227727741,-0.2325956681,-0.0338763697,-0.2867405144,-0.425746837,-0.0017585154,0.2594053063,-0.5693136596,-0.3709450186,0.1198520994,-0.3879357706,0.6387210867,-0.2919871321,-0.157707539,-0.5082481684,-0.7910592162,0.5307080715,0.5917096817,0.6116425215,-0.1977076011,-0.1020273668,-0.1761592454,-0.1969369266,0.5668738387,0.6289233352,-0.428211678,-0.577187979,0.7053014415,-0.1486114223,0.3143425063,-0.5249604349,1.599524669,99.9899983634,1030.8666233704,1468.6723969211,307.2047496657,4.5604140728,0.4462802572,0.6256513331,0.3931812774,-0.2392076556,0.6308547035,-0.1187403629,-0.4928104741,0.2429476796,0.8031157102,-0.377175361,-0.2006244598,0.3570188317,-0.63515638,0.033595724,0.4343837415,-0.6246858886,0.5086477658,-0.0699787272,-0.6327181245,0.6995154813,-0.500708952,0.2922901539,-0.3318130269,-0.6026453191,-0.5676411897,-0.3332873942,1.2191721432,2.4545893748,4.9698272163,0.0923010588,0.3668833692,0.1903457005,-0.1096290799,-0.2118418493,0.1658104965,-0.6210411056,0.9572754308,0.2653004995,-0.4497110161,0.2537568708,0.2496953335,0.3655575119,0.4218024798,-0.2265263713,0.0800878059,-0.0239566935,-0.4123001584,0.5324551667,-0.3260285289,0.4461927109,-0.222679816,0.0461987945,0.0634310361,0.6464810388,-0.5601810872,-0.2016211229,-0.7317314586,0.4031247899,-0.7244660017,0.4311855296,-0.5653963794,-0.7778853915,0.4159201658,-0.179677748,-0.2179202048,-5.2791824436,-1.124479588,-0.6541966123,-0.0480756776,-0.5199719384,0.5871776971,-0.2980557317,0.1541097214,-0.2017784437,-0.4898128888,-0.1636889718,-20.9792554982,-0.03792758,0.3917577859,0.6483410162,0.5576704829,0.6705387749,-0.5946625417,0.0973272711,0.3538672866,0.5049090216,0.234400071,0.3983410575,0.2931528397,-0.3761261711,-0.8052470104,-0.2194336428,-0.5622262977,0.3720207738,-0.439081258,0.4882739899,-0.1691522093,-0.1646245325,3.8418620909,1.5020960793,0.7765293836,1.3933206107,0.7977235579,0.8640198811,0.7375706378,0.3029532082,92.042941523,0.3668949065,7.0712517676,1.5766983117,1.419838589,1.3480516715,0.8348116112,0.7391730663,0.3223443162,0.0692078845,1.661125636,1.3615327441,170.3967379554,472.6958922219,0.85859393,0.3295660845,-0.0445325267,0.7982655701,0.9474326255,0.4518172653,4.3553653865,1.4822254683,77.143873839,265.8069459933,1.4737292139,0.7333962228,0.3374056352,0.3507823923,0.3713074646,0.2056142842,14.1238628034,-0.05411515,-2.9094991085,5.3459479918,0.0004353161,0.3127666602,-1.1024476227,0.6640878167,1.0329879056,0.5858305066,-0.1658235093,-0.6474439988,-4.7616479832,0.9393934231,0.3850119372,0.6023467839,0.877977939,0.1607861715,0.5594119544,0.3028684637,1.2450811153,11.1321921673,0.0597058479,0.2642445911,0.6762508667,1.2371664706,340.5710753268,20.2428324027,-0.0200695619,0.9718982478,768.2675295604,2.8340056295,0.2997868629,0.7715565755,0.6542496226,3.1080400179,41.8824971594,1.6013812535,0.6408842221,0.8183438896,0.1290927514,0.5833455143,-1.4920373976,1.0705245626,1.094585537,0.3255429605,23.2860902403,1.4253497292,0.5758839455,5.907245432,0.0317066918,0.7559613843,0.2340230063,0.7461804171,0.1500060711,-0.1095940943,0.7730804837,0.8969821014,0.8694775908,-0.9824714288,-4.4538000221,0.1150413816,0.8635400826,-0.2760843673,0.7911152068,-0.5122707597,781.53667702,7.4267655298,5.4286146178,1.6423241063,-0.5675271532,0.3726953271,0.3890512132,-0.4864568079,-0.5074117037,-0.4361818455,-0.7024687115,-0.5412973661,0.4197149245,0.3932845463,-1.7978884794,-0.5109938446,-0.2880864819,-0.0769032188,-0.9236845625,-0.656835127,0.1576457446,0.3345862038,-0.23608914,-0.250833753,0.1287988727,-1.0923917693,-0.6717531373,-0.4905343038,0.2668845241,0.37671292,-0.4827475788,0.9295908676,1.5909241414,2.7912532745,2.8467292193,2.0496785148,-1.2192474942,0.189724795,-0.2063577754,-0.6035592734,0.0688832323,1.2032571012,2.3464730013,2.391188879,0.7652511098,0.1087980786,-0.4700569711,0.3487685023,-1.1530001939,0.2848206278,-0.34076268,0.2489151107,0.3117182249,-0.274230292,-0.1904970003,2.9339634072,-0.1887699054,0.2138965662,0.1227776127,-0.2959083361,1.781232531,-0.4596235055,0.4335468008,0.3715145935,0.0783446985,0.5000772145,-0.6105666268,-0.0780124947,0.4667465953,-0.2000223742,0.4301900425,-0.2631426752,1.4075124531,-0.0103858841,-0.2935591673,0.4048045653,-0.1682331527,0.3060765322,0.3015806279,-0.5728779331,-0.0359184483,0.3975089864,-0.3044688419,0.3527663121,-0.8501985898,-4.9120739675,-2.3415862883,-2.9698533994,-1.6126479252,-0.8261777563,0.504986805,0.4152119463,0.5162438667,0.6429218256,-2.0882064231,-3.7106551705,-4.7267650239,-5.2693148003,-2.0663110288,-5.5208909581,-19.3699088928,-2.8275275354,-1.8171134611,1.0776540963,0.5491828417,-0.9889452204,-0.6750128019,1.071850476,0.2429042954,1.1597385566,0.7520948569,1.4099112957,0.367039159,1.1307066584,1.281137909,1.6226805206,3.4950496654,2.1356935712,1.4025736159,0.7984753392,0.0313165473,1.3996403933,0.0067247302,0.5538017704,1.139284664,-15.7852530498,0.7774240711,-7.9654870408,-1.0160046188,0.0505244532,0.8641517686,1.084071714,1.1355513024,0.183287042,0.1753478588,-4.3272726324,0.8283327138,0.3612137122,-0.7806986043,0.1611639487,0.2369637757,1.0044183837,-3.2989380455,1.2279115822,0.1972111846,1.2611953619,0.9904525389,0.4303069786,-0.9857997156,-1.2981850287,-10.1819964897,0.159894926,-0.1997107276,0.9969543058,0.1403767882,3.0673008361,2.7801801226,1.0447769625,-8.6839639248,-0.4317462857,-0.0336409524,-0.5409470383,-0.1364371731,0.1767674825,0.6129813462,8.56560505,3.1924242986,1.7726560192,0.4098394653,0.0034390103,-2.1667982087,-0.0104545996,-0.6518259496,1.4216207129,1.0898862111,3.4224724148,3.7140995259,-0.5516744501,-3.1226425353,-6.849855549,0.7859277161,0.4316444123,0.3789046596,0.5700619091,0.9132636709,1.051999275,0.3671349665,0.3964444734,0.3353836851,1.8004618601,0.4664353227,1.3849511264,1.1574745522,0.089489373,0.8481269772,0.0122473604,0.1029239607,-5.0282267928,-68.7185142357,-0.7207324829,-0.5155729936,-0.2923787654,0.2733980368,0.1224024266,0.2734488978,0.9319198299,-0.6077612369,-2.6653358322,6.3810706071,-0.5269162256,0.4261978551,1.0216746885,-0.4032932786,0.7777620664,0.3826374978,0.6133510167,-0.1014795437,0.1587706247,-0.5648667185,0.6408017814,1.066784618,2.5342451817,-0.3491015142,0.1852969253,0.1707688012,0.0352105924,-0.2151970912,0.1575304385,0.7203603592,-0.7419397657,-0.2474946264,0.9531887128,0.8031897133,0.0445605909,0.856698373,-0.1732404089,-0.0503284179,-0.1500725254,-0.7199499058,-66.1800144208,-9.5092572702,-1.4670773203,0.7943417232,0.5471700194,0.7656667754,0.6796258232,1.1160193302,-0.0835360768,0.1605657009,-12.5075048378,-1.5867245653,-0.4115916201,-0.2381421414,-0.2671472783,0.5398157965,-0.0865653534,0.4454704238,0.2796980004,-0.371714791,-8.4212621821,-2.8057219746,-2.4655770672,-0.0180851617,0.4273754602,0.1818015498,-0.5874949072,-0.1761281964,-0.574399397,-0.2863048971,0.4403342137,-0.9853481959,-0.4038422165,-0.5728272397,0.4665110973,-0.3864381589,-0.1565400189,0.4122791881,-0.4482628485,0.3001244661,0.8353520805,0.5123650005,0.0575781563,-0.0411962401,-0.0055259467,0.6066488724,0.0478504035,-0.0095484991,0.5447931943,-0.2245319033,-0.0253945062,0.8252696377,-0.5018744527,0.3651592567,-0.5336945031,0.3841090488,0.5568949871,0.0697722276,-0.0580295582,-1.728659236,-3.7111251244,-4.3168133353,0.4272579654,-0.0852238229,0.082175908,-0.5475178309,-0.3659010993,-0.1131593532,-1.2177602888,-2.0829013772,0.8840342656,-0.0694030779,0.1033524062,-0.0257196836,-0.0122368958,-0.5801573576,-0.1093931358,0.3959429748,-0.0951466665,-0.4860249823,-0.7311788827,-0.2602503084,-0.7128476955,0.2433336113,-0.8284834115,0.0209004655,-0.2657905557,0.1784365025,-1.1755523151,-0.2844887622,-0.093671713,-0.5654720643,0.4567924556,0.3697112062,0.0973793901,-0.0402482032,0.4427914492,-0.3745738677,0.3347054775,-0.6153094165,0.2089055044,-0.2015218501,0.0528633372,-0.2828654526,0.1175957826,0.0950911708,-0.0060186692,0.4147142698,-0.314768507,-0.4623976382,-0.4667141259,-0.6706952655,-0.6097966469,0.0566168632,-0.7804524691,-0.8389455776,-0.613505184,0.5460410128,-0.0854947175,0.2984458065,0.15615862,-0.4735094555,0.0928281656,-0.4204883903,0.3318146358,-0.9364653931,-0.4799628404,-0.1239477057,-0.2625316661,-0.5541904196,-0.8423462617,-0.2370776011,0.5447117226,-0.0883093045,-0.6085435567,-0.5208234734,-0.0881966459,-0.1372450448,-0.5874966824,-0.8661640634,-0.1367636694,0.2460217502,0.1720414654,-0.3362888478,-0.5337809212,-0.132796696,-0.8398635369,-0.1233932529,0.1363177312,-1.0249562418,-0.956806104,-0.5998562317,0.6215279728,-0.5435828479,0.3866664467,-0.1817807269,0.6009699852,0.2281674912,-1.5513518239,-0.791746407,-0.8701896675,1.9061165047,0.6874741773,-0.9827223488,0.0360825977,-1.0111809456,-0.2267810655,-0.9449627943,-0.0875024217,-0.8084488067,-1.8844284356,-2.1184897519,-0.0820002576,-0.5661803377,-1.1933153204,-1.1339692066,-0.9578069985,-0.1215600117,-0.0919806785,0.432293421,-1.0181339563,-1.1341775315,-1.1291148334,-0.8617984371,-0.2381869886,-0.974974096,-1.0868851317,-0.3769779061,-0.4956811946,0.6947205689,-0.0272019245,-0.1433414189,0.0817895858,-1.2300468233,-0.5710957443,-0.3412530883,-0.999178194,-0.897719322,-0.0740188247,0.0272140782,-0.5236480789,-0.2221001054,0.0530069942,-0.1936759863,-0.4208554016,0.0890449522,-0.3863546663,-0.867238067,0.0509043356,0.0946246451,-0.5759312235,-0.2189020913,-0.3522069516,-0.4394880763,-1.1443864378,-1.1486567884,0.0766056603,-0.0980627519,-0.1923403028,-0.354139925,-0.9865482951,-1.203882972,-0.0227836141,-0.830870192,-0.3242109275,-0.4729665882,-0.7922145923,-1.2496647928,-1.0814934692,-0.6407290565,-0.3065750446,-0.7138342276,-0.3508971227,-0.3199937004,-0.9681923182,-0.7889167867,-0.9794058967,-0.3921370588,-0.2476846092,-0.056087182,-0.0805836004,-1.0683936026,-0.0466331538,-0.8880979629,-0.6367524716,-1.2589038392,-1.2188808442,-0.8104830992,-0.3610417744,-0.3785564195,-0.6466638885,-0.0649020786,-1.0947179429,-0.6976819385,-0.3813926269,-0.6860887281,0.1065160809,-0.952523713,-1.0689086446,-2.7048450784,-2.1662769563,-2.4896934664,-18.0416433602,-0.8829115269,-0.7393867955,0.4751236707,0.0623810222,0.0942018806,0.4766670857,0.4342973022,-1.6367903399,1.5778510227,-0.6201809169,-0.6086515063,-0.1754335219,-0.2499839548,-0.3684388637,0.404620749,-0.5509858424,0.3029111163,-0.185785114,0.4643367242,0.2178988698,-0.2360726129,-0.375977119,-0.736419204,0.5210262239,-0.7261165887,-0.8127826079,-0.7157012237,-2.5350739366,-0.5846414637,-0.1152421267,-0.7937767794,0.3617404309,0.2140873219,-0.4558635284,-0.6395868501,0.4150146049,-0.7877911266,-43.2547254959,-0.2027821141,-0.753222738,-0.4373231207,0.3635537262,-0.8378289969,-0.7094349758,-0.0514463886,0.3580873897,-0.5107067981,-0.4657011163,-0.5413894102,-0.4315761776,-0.0598217552,-0.2887125196,-0.0817320238,-0.5017484096,-0.2529716696,-0.8393941046,-0.8960359634,-0.3354932404,-0.0007449691,0.1538101727,-0.7874631392,-0.686207482,-0.3564533202,0.0559151281,0.1108197496,-0.2180577125,0.1737233312,0.3046114821,0.5506976873,0.3352465802,0.3855233696,-0.1196032825,-0.8911883911,-0.5133635604,-0.6482383044,-0.7731252325,-0.4841018619,-0.4273989253,0.0799932993,-0.4781542644,-0.6732488865,-0.2846517276,-0.5431689341,0.2697800837,-0.7926647655,0.4008206169,-0.7128579589,0.1393936078,0.1107180257,-0.3819915329,-0.6023056567,-0.9660408271,-0.5401323563,-0.6090431612,-0.211164071,0.0992037579,0.1005601799,-0.1200783118,-0.3735322864,0.7120984149,0.7220492831,16.1905570085,868.7961996466,-0.0821627837,0.2013344962,0.7336973164,0.418199784,-0.376895543,-0.0054919657,0.1922225701,-0.3758628321,-0.395404707,0.9474978889,-0.358341411,-0.0067234444,0.5077101548,0.6240601532,-0.2866117446,0.525904507,0.2060191781,0.230161761,-0.5408662069,0.8590650303,-0.2037587022,-0.343175299,0.3993342775,0.5327356024,0.0726357171,1.2487852769,-0.1626380565,-0.5679600441,-0.351019654,0.3600078371,1.7936942792,-0.3184467521,0.3198297006,0.1816699329,0.7080081257,-0.4446090232,0.1426606617,-0.4460995922,-0.4353416268,-0.2182139209,0.7400346617,0.2046829798,-0.5829574452,-0.5912949458,-0.0958897142,-0.4478057894,-0.5451355783,-2.3007377564,-4.0900019215,0.1397437004,-0.4987219957,-0.7669231646,-0.3420015455,-0.0988623496,0.1854954076,-0.0833260909,0.0507075265,-0.2421556698,0.0529832965,-0.142981966,0.7132409953,-0.8784592077,0.5690717765,-0.006917372,0.4058847551,0.4533769759,1.767635442,0.9767659664,-0.0546152204,-0.4625875747,0.6483281021,-0.3664017647,0.1136668828,-0.5890589576,0.7315579006,0.3936863573,1.2837858822,0.031798685,0.2449293338,-0.2733892304,-0.3876609322,0.5244911741,-0.3697438075,-0.4257682189,-0.2500498126,-0.1741421867,-0.7084133028,0.4754381046,0.7192296594,-0.0799969636,0.0251385839,-0.2232242472,0.6538710015,-0.2913533153,-0.3607765035,-1.9427027022,-0.1764406614,0.3685466722,-1.9510983983,-1.0442851143,-0.5580620425,-0.53564783,-0.0788282186,-0.1843450529,0.141461774,0.2083240574,0.1001149105,-0.5175090687,21.519775407,80.0092010648,35.4824942592,3.4376452121,1.4507035224,-0.1757727583,0.7334349346,0.8377393216,0.2055184675,-2.0142565545,-0.1825003493,0.5602392713,8.9670807202,1.574368256,1.3113344342,0.8392879664,-0.3468905648,-0.4242383693,-5.8787873682,-0.9562989474,-1.3108602173,-0.2830291434,0.513621839,0.0717438442,-0.0178792425,-0.0229731257,-0.3625533267,0.0802984925,-21.8934740734,-6.4984279015,-0.5286985121,-0.2435591746,-0.18676977,0.6526632654,0.5292660202,0.0698883464,-0.8548454365,0.5200165902,-1.3554483007,0.2162537812,-0.2967904859,-0.1234175478,0.4191615962,0.6093277026,-0.6215471501,0.565228665,-0.3719729543,-0.4478002406,-0.0722999827,0.7425306764,1.8994416405,1.1131774795,-0.0257025357,0.1455377073,0.1451636617,-0.4548280462,0.0279873901,-0.015404723,0.3367940926,3.0200775928,9.1268741972,21.3277311507,-0.4688722451,0.5085218537,5.3147168323,0.2349681791,-0.5306272858,-0.2485090685,0.0501902597,0.3746591682,1.0747929761,0.1290014048,0.0298453728,0.6537504773,0.2359485462,0.5670495769,0.3123693455,-0.26047076,-0.456709697,0.3721672408,-7.8471795035,-1.272869719,-0.1121610231,1.7523715738,-0.0858764639,-0.27108652,0.0513362318,-0.3906787635,-1.458958149,-1.4830889428,-2.1130024006,-3.742867222,-0.0190886208,-0.0121510075,-0.6997393072,0.0228881185,-0.3771468235,-0.7410568043,0.0593401986,-0.6061381092,-0.6178850129,-1.0876689195,-1.1208676759,-0.5925822341,-1.0531105225,-0.1731472705,0.1985338693,-0.9128003695,0.165870964,-1.0211268551,-1.1166312336,0.0285893858,-0.2091047335,-1.1997977481,-0.1333507062,-0.8285599679,-0.9555863159,-0.4222412405,-0.7607245251,-1.1920740793,-0.5795936153,-0.7689441563,-0.3692123207,-0.3530023161,-0.2184325995,0.2211588462,-1.1022730834,-0.2220955732,-0.7893889453,0.4723606222,-0.0410904048,-0.8961246383,-0.5589973539,0.2001069374,-0.6071982163,-0.3618648793,-0.2578217997,0.0321615849,-0.0717003511,-0.1042490503,-0.2042451742,-0.636423666,-0.612451157,-0.4945268098,-0.7317969068,-1.0424858881,-1.058029628,-0.151978881,-0.5078296796,-0.3572650791,-0.9026136791,-0.1254546842,0.087387808,-0.2874712037,0.0009048575,-0.5063961546,0.1483275162,0.2465580252,-0.1131566376,-0.9165048402,-0.7893719775,0.2402196354,-0.6804490679,-0.1382008035,-0.627431346,-1.1108364186,-0.0541286461,-0.9181126892,-0.8374641058,-0.3604505235,-0.8990599049,0.0848705754,-1.0537071958,0.2290404483,0.0956977236,-0.4906894305,0.1769038984,-0.1065652656,-0.1513724133,-0.273096755,-0.7033694418,0.0003219945,-1.2588708427,-1.0871980779,-0.5030073021,0.0128297821,-0.9369003507,0.1073851196,-1.1438417719,-0.7000400091,0.0740330941,0.1730398832,-0.8928110861,-14.2176408121,0.5591469109,2.2584795854,0.122174621,0.2378582092,-0.9052276113,0.3149707478,-0.4090906382,0.1517282302,0.1311329521,0.1437750354,-0.4515896836,-0.9026737749,-0.8503956692,-1.1769690503,0.2955483682,-0.0630813887,1.5963087319,0.116725636,0.120964485,-0.2428051518,-0.268687047,-70.5044287963,-170.2930148018,-23.0582064189,-0.9360777017,-0.2895026252,1.7114789833,-1.0378794166,-0.5266747178,-1.7193865797,-0.3458253725,-1.3664672814,-16.6038093704,-0.6800414257,0.0535882547,0.319853636,0.3188025705,0.2070172908,0.3352885545,0.5228134016,0.422491474,-0.8574585143,0.0442915576,-0.502160203,-0.5457654311,-0.1361305235,100.5185353517,3.0464448422,-0.7995087681,-0.6932047116,0.2287047548,0.7039603821,0.1893894179,0.1972285804,-0.6293041532,-0.0219216085,1.2096250479,0.4319635859,-145.123091191,-0.1152351204,-0.5889845402,2.7317706949,-5.6119052441,-2.934634929,-0.5503112198,0.8200196259,1.1773621936,0.8377138255,-12.7652571095,-0.1403529435,-0.6304554004,-0.3111725132,-2.4654434631,-2.000406833,-0.1711202995,-0.4094968205,0.2688172339,1.3583284629,0.1966278905,0.5314669048,0.3209079414,0.6062629287,-0.1452433102,0.2502132423,0.3945750193,-0.446673477,0.2945435456,39.2659567828,78.2038609099,2.1906969281,4.2089947988,1.8477134046,0.3814205485,0.2307743265,0.0870112633,-0.2204887565,-0.385814746,0.5547859341,1.5292117827,0.0604554832,0.9737184163,1.6087933637,0.669677969,-1.316071074,0.3552034193,-0.4859089152,-0.4936510296,1.705700737,0.0875316672,-0.1101055986,0.3670966691,1.2131845674,0.3827613022,-0.0434710455,0.2694664913,0.3550918293,-0.5712837381,-0.1447562606,0.1411047348,-0.5675726127,0.0191024288,0.7794711137,-0.589004695,-0.3114654781,0.0270860621,0.1468234318,0.0451213459,-1.8483899509,-1.7951024302,-0.0469863489,-0.0065071415,0.516375812,0.3321635703,-0.413809499,0.2642551756,-0.5090341484,-0.5294529074,-2.1667918255,0.405317338,-0.194364222,-0.5224596162,-0.5775007476,-0.3867906658,-0.3596285956,0.351913291,0.0913814581,0.5414340255,-0.6267688262,-0.5530724172,-0.0596918141,0.0203839446,0.1889732073,1.1360548277,0.4702438751,0.0079802119,0.7207806165,-0.6018259746,0.6596466888,-0.0254347852,-0.3361829932,0.3986949413,0.5633032307,0.3821247996,-0.8289620332,0.7201589651,-0.0738679115,-0.371545338,0.11732032,0.3526987728,0.2006041002,-0.5610760679,-0.1005519143,-0.1661640491,-0.3952338235,-0.2025373765,0.6194016915,0.2149121495,-0.4787382703,-0.2694489766,0.2995594299,-0.2482640167,0.477588997,0.1510122323,-0.1913197306,0.2231319101,0.4087596535,-0.1730406566,0.5446562742,0.6287372448,0.9206828315,1.0645750209,0.3828699172,0.6816401124,-0.4854389909,0.2033037275,-0.0515564123,-0.6476913169,-0.0643577713,0.2696729914,-0.0216938028,-0.2044580292,-0.0237691756,0.4333416362,0.0520713685,0.4617037687,0.191167127,0.5165175477,0.2653000671,0.3875483261,0.2336442154,-0.4290985272,-0.5117342778,-0.0227106511,0.2460681317,0.3999413615,-0.4477094251,-0.4016266239,-0.7614197251,0.5045474026,-0.430144316,-0.3460373472,0.167326973,-0.812512854,0.1287153987,0.0861077456,-0.4484994044,-0.1668083433,-0.3943915737,0.391052356,0.5616006079,0.1041877147,-29.6650238921,-1.9201196138,0.366380467,0.1260292057,-0.764073036,0.4405938092,0.4473031934,-0.0808818586,0.5917293331,-0.0446019335,-0.3692428203,-0.2665899178,0.1702041724,-0.2924687977,0.0604318674,0.7341707144,-0.2239280042,-0.7574014168,-0.4793286325,-0.575655185,-0.0942099665,-0.3568880272,-0.5332957942,-0.5675189893,0.2983280688,0.5217705695,0.4600346823,-0.1171122613,-0.3775253447,-0.8944823548,-0.6406328574,-2.0421370019,0.167407054,-0.1664193608,-0.6111105168,0.5356508201,0.4775682995,-0.7483761924,-0.5096176639,0.2737006948,-0.6752105807,-0.1395526894,-0.3798658622,0.5797884897,-0.5673105842,-0.3012041446,0.2947768732
